solver_type L2R_LR
nr_class 2
label 0 1
nr_feature 173847
bias -1
w
0.0002964795182341939 
1.87103331330269 
0.8229358568024373 
0.02280545125497787 
0.9268236956482171 
2.386584827629498 
1.942815982262304 
-0.6857882706723716 
0.1344543277985772 
0.09749384133460698 
1.553302432004614 
0.1007738631801066 
0.006000650916315546 
0.07815511128596705 
1.244149324884613 
1.466543023556083 
0.5438037425274004 
1.363979609008846 
1.384644675310103 
2.121204140442563 
1.590223946260304 
0.9972486615440017 
1.856682868111875 
0.2745410279963175 
0.296872496666627 
0.8420371340329378 
0.5501360377135428 
1.442281539762085 
0.4734761629409824 
0.3335289937440092 
2.343993605623143 
0.1883209610689049 
1.498036820386603 
0.6783293875305763 
1.780465955882556 
0.4303720599876372 
0.2620465584739379 
1.285361515989814 
1.672943385009858 
2.032226744433991 
-0.09381556402550294 
0.113816001033909 
1.075411881974601 
1.077302420892641 
0.1742392882925642 
0.6703345900317185 
0.7678244896997974 
1.177249258802715 
0.5809841090305702 
0.8758427579515277 
-0.1756596058609933 
0 
0.50109575203807 
0.9591014325817249 
-0.1486563773761051 
0.5956621273292828 
1.494984526845249 
0.8647587171374157 
1.418905092950683 
1.043437018792278 
1.371926266492372 
1.270010903472018 
1.037616511572654 
0.9555799944189993 
0.885188749777105 
0.5521168512650387 
1.416394962570553 
0.1987440863777969 
0.7013340604603714 
0.4641921279342059 
1.226809251011828 
2.120309885909297 
1.103992176240537 
1.348638452904919 
1.480958871335087 
1.899669346114917 
0.7593573640115671 
1.15158568952745 
-1.251369816863832 
0.9474928624490556 
1.562034169215261 
1.356060268926433 
0.437868413400516 
1.153301948478118 
1.648921117470407 
0.1600664993439432 
0.7139516785961779 
0.8166391120969423 
0.5584213737960259 
1.312810097064441 
1.379299987885895 
0.5691977046579458 
1.299463776928157 
0.4960215833502246 
1.14754963108703 
0.7760199098136346 
0.9169653488503775 
1.586172219123567 
0.4147255715293175 
0.6358865844296064 
2.73236308487574 
0.435386680838184 
0.8525723880356373 
0.7092218267535114 
1.194512059908389 
0.5610202718268447 
1.024629747074216 
2.639161047471658 
1.213889005923487 
0.8006899286706975 
0.6773439276723106 
1.472558438658128 
0.239959028598817 
0.6910570821129876 
1.000284854733862 
0.9169535246886323 
0.3383233844404265 
1.165400834953426 
0.239899120309306 
0.5562757133442319 
0.4505421438587743 
1.063485457064117 
0.2523254028097809 
0.1532586735782642 
1.055888760574354 
1.733126170052215 
0.6932530882337339 
0 
1.078777043716243 
0.2638677926298688 
0.819056881202548 
0.9178694517612354 
0.7099351687430021 
0.5874704524822336 
0.9401301889884619 
1.841443691636198 
1.023326750790363 
-0.1888585919633812 
1.405694847582658 
0.8854310244704087 
1.735230685014298 
1.890949352691203 
1.029930519858097 
1.66178460919933 
1.492180146264829 
0.6763006332699774 
1.415423822407619 
2.831332115462477 
0.4063897224501475 
0.4094775060226484 
0.2583863614426198 
0.3097679250795005 
1.947853196554556 
-0.3203805035025643 
0.9400495169797168 
0.8215134551557973 
0.4650303580510964 
1.724400132743716 
2.160554364373422 
0.5477342313924942 
0.363158875140653 
1.398561531618895 
0.5125266898450695 
1.663812325268832 
1.011903892941303 
1.708344747947565 
1.603905581309727 
0.8764138057144029 
0.6206738768059648 
0.9119412083071351 
0.4996130136170537 
1.298207890331834 
2.405694481667906 
0.5308707297548602 
0.8541102230042971 
1.231941165931738 
1.387720008309849 
0.7526398574766532 
0.04645250523791123 
0.5308407353831401 
0.6939564244925428 
0.3740321025864742 
0.8799737985992655 
1.388681391532483 
0.2910504769513735 
1.16053408804965 
0.543014111865731 
0.0146632167348909 
2.033997531261081 
1.597945025992699 
1.242630895025104 
1.457944202853641 
0.4540758505222402 
1.453863479502815 
1.633535897499998 
0.7691032772370343 
0.4178483612228653 
0.1969053654236987 
0.7656001167082731 
1.156303316750907 
0.2855628163391926 
1.514051725985616 
-1.889490778032449 
1.24971594935606 
1.342718900427461 
0 
0 
0.5085943541577413 
1.505961185143151 
1.207895167726625 
1.310492200451241 
1.327581954572578 
0.6290283434912884 
1.006334568960153 
1.34685634740149 
0.2507210472340884 
1.029431488682249 
1.022025305313664 
0.7754435453603084 
0.3207500077972045 
0.6941974932466626 
0.6624944655860965 
1.618992080031827 
1.151944008380969 
1.532289671818273 
1.180567004376849 
1.215261449273521 
0.5149507609675202 
0.4935950891225475 
1.050439447846905 
0.6579550904881528 
1.211844564463727 
0.7181060273142208 
0.4708592296416262 
1.201218572514784 
1.193470699148407 
0.4146055539305221 
0.4268142775554123 
1.201245639790806 
1.4627401345761 
0.4218083076153137 
0.551983713399235 
1.488974749347345 
0.2724444066314937 
0.5771478871309531 
0.8358643336929852 
0.7087963580578324 
0.2971066417611862 
0.4313509978841586 
0.9310273157623606 
0.7221551908092242 
1.213301556749996 
0.7894042618843041 
0.7012590661317832 
0.4524819049168037 
0.53841319854588 
-1.566835396177804 
1.391177723399117 
1.181094293453645 
0.9481004248216236 
0.7377971143759329 
1.147933194876795 
1.023240091590273 
0 
0.4550251123180598 
0 
0.3949317268991634 
0.5906107370197741 
0.5405870745533036 
1.231235870258943 
1.200044268000852 
0.8950097421865326 
0.8289789542512377 
1.411550106737476 
0 
0.6093923853109516 
1.34617696693426 
1.943644073286871 
0.8128655496933275 
0.3897236785569688 
0 
0.9114813875495495 
0 
0.6729162843662687 
0.520157433445301 
1.68002939535479 
1.409532329421234 
0.9513612048252394 
1.45760242631757 
0.4897292848881966 
0.4241734740555692 
1.353723869234173 
0 
1.25885550893837 
1.51921419649256 
0.6107889014033191 
0.7763842976708148 
0.4154577613352239 
0.2423321756707117 
0.4441320891793163 
0.6387951934492534 
0.2633260450516615 
0.3862245037682706 
0.5788419415160128 
0.5813494371958796 
0.7666359747681705 
0.7756023022046061 
1.974812670198446 
0.8261738690539987 
1.612212344537206 
0.3805953456144524 
0.9473281533264291 
1.418445649224085 
1.018877475504424 
0.8007549472532907 
0.477840792926216 
0 
1.220279960301376 
1.473323737224532 
-0.7560612565098671 
0.6813381928235509 
0.4909907370796544 
0.8748270700005492 
0 
0.0497266403468693 
0.7893780363609492 
0.7243547003588113 
-0.5781778303560829 
1.351247763044922 
1.262881709261593 
0.4568250365455905 
-1.371029649206105 
0.4235098921660689 
0.9679312919044795 
1.17800489484357 
1.960153373698118 
0.002307254100705161 
1.160727720252147 
0.8797112075133381 
1.04884387981481 
2.284552769512916 
1.113825952590386 
0.489017674288235 
1.108699224402894 
1.326965906548886 
-0.01663466150734052 
0.7645369391528835 
1.037959943088694 
0.4285145795363844 
1.655751451709295 
0.7123105587080891 
2.220431039653415 
1.029743895444227 
1.813126847499204 
1.562311831729229 
0.9494464296959684 
1.216698951646136 
1.689896287053931 
1.14797122044639 
0 
0.9737105431423368 
0.3937168904078144 
0.04244970645156012 
0.7742179713050791 
1.416926080719843 
1.307938067032541 
0.02810666342321012 
0.6801694134559513 
1.597155349529478 
0.7458446365117256 
0.9825110969357088 
1.009166536623561 
1.120444396981404 
0.4895151906466011 
0.1563876805390557 
0.5317049273610031 
0.2005580865967688 
0.3731942615554027 
0.6314357930865949 
0.843763159945793 
0.1122661543087017 
0.5412059196718061 
1.341322727349841 
0.8816044290469298 
1.002958075840356 
1.43196123045473 
1.048482082198065 
0.02958864320860232 
1.046442209460644 
1.34648192989302 
0.6285153466717417 
1.115365565539921 
2.083009991049561 
0.3022571641338146 
0.9644455389583524 
0.5364617425800872 
0.9562494828769008 
1.289585569088395 
0.8853970291849597 
0.340528763208916 
1.065976853485219 
0.5489636654529438 
1.940666435977798 
0.7748640137800348 
0.4288008444500401 
0.9237129416453599 
0.6786744108763886 
1.802868629592982 
1.161481674392976 
0.6447185367282322 
0.5448705335573153 
0.4585328949473475 
1.009277491843594 
0.5342274167800728 
2.022462417623976 
1.746585652917628 
1.232295346735391 
0 
1.542659485798212 
1.109427189464965 
0.7910937496473963 
1.050279899148963 
0.56819153562984 
1.183924190903298 
-0.6882835696037877 
1.817269769450614 
1.351095371871982 
0.6304530788316053 
0.9061445861867077 
0.7807996375748094 
0.6463251168820233 
0 
1.607806640851819 
1.154785964448761 
1.013091719900825 
0.6399757535128311 
1.100592405203781 
1.649503932904359 
0.3627999079695654 
1.338874254665148 
1.405752268374187 
-0.1260359547151084 
0.4954665791270704 
1.014033855950621 
1.129906627744339 
0.5598057144103121 
1.398832999387863 
0.7247815812022999 
1.068998215397591 
0.9942968032752956 
0.003619140808686447 
0.8153219007323168 
0.7720767020834202 
1.654727277484313 
0.1143078920939934 
0.8511393650438327 
1.243626083403285 
1.007463210405543 
0.8340059644952236 
1.191704341945241 
0.1580760667152666 
0.02020855152391019 
0.0806975757154223 
1.274959885567346 
1.210819969637299 
0.9640597432154584 
1.075983691773843 
1.05871505964016 
0.1392617130920346 
0 
1.545352243442955 
1.141627553888851 
0.9094792502363679 
1.064479861522388 
1.261753883877996 
0.5040116019628137 
0 
0.5623988206113744 
0.8398504399983171 
0.7653810346583494 
1.114774543741285 
0.1864748787075819 
0.9426446909043762 
1.333886322278435 
0.5386764906683942 
0.1991704256368553 
1.070750192012708 
0.4021952475272831 
1.640631398477032 
0.2698430539037372 
0.3046948637571513 
1.760507846029647 
1.15589347550451 
0.8235478691623304 
1.428647362961106 
0.1351839683937038 
0.1996406034224677 
-0.2017939589074264 
1.4825868982701 
0.242013239689513 
1.372609923514489 
0.5168503622268514 
1.636684216944174 
1.347507015156675 
0.9136208214406818 
0.9907907033058915 
1.135120412529005 
0.8765763767588142 
0.01504908381177878 
0.9619734760081867 
0.6036823465328501 
0.5450818827386926 
0 
0.8237100646863318 
1.110711903823085 
0.9936442643745168 
1.652388361605582 
1.497270360283645 
0.3318489826046404 
1.326001190191636 
1.067859669320806 
1.523750919083587 
1.308175758515849 
0.9334731792253111 
1.056246507264105 
1.376237217781167 
1.094784505830007 
0.5675622207340653 
0.7919360975647597 
0.687521953773956 
0.8566972830239453 
1.991551513686777 
0.2172335263407388 
0.8566239634221983 
0.4010738788338519 
0 
0.9308896671660685 
0.5108692059394582 
2.080518168503491 
0.3321299767405703 
0.5690896556654896 
1.234710350763086 
0.9884416814272295 
0.1308920872189438 
1.103487160778319 
0.4750491913173187 
1.038181878354562 
1.188389424265605 
0.2835793621832783 
1.36229715699372 
0.4763759661283347 
0.8366054901722605 
0.5765352553463124 
0.7368098567938178 
1.983733032583321 
1.488200035783637 
1.415345236581042 
1.563133739050295 
1.272622769594471 
1.686660223726325 
2.979659114421757 
1.4954839535646 
1.001255839591467 
1.366852893460266 
1.502829327340644 
1.532904741328623 
0.9041370181758321 
1.167068312965645 
1.362289068071404 
0.7359311363606672 
0.3128238092716085 
1.513765003342894 
1.313035483260448 
0.9483819805506066 
1.389259436494162 
1.447345494974161 
0.1661304218283456 
1.340073316610632 
1.665502140727064 
0.5308684941767038 
1.750373842452857 
1.466875927044042 
0.03984826848807718 
-0.003728072085470293 
0.9793231798015545 
0.7305979220062665 
-0.003708231905022074 
0.4430028416667165 
0.3379916662754867 
1.140879909842087 
0.785149399929657 
1.270839673159015 
1.976946736667033 
0.6353176552355662 
0.3027676727544688 
1.281610933025971 
0.3668459980863538 
1.166445165970967 
0.9054441359952315 
0.0275672347183869 
1.197549772613482 
0.8396654910549867 
1.164002136830119 
0.8074904208122528 
0.6020741495455801 
1.339265291896194 
0.2677528343115411 
0.9954421313077377 
1.017210242541321 
1.009973227752932 
1.284394017579691 
0.6529459104438634 
0.3062912158842626 
-0.01296992812073419 
1.005168814869573 
1.033011734981087 
0.718206405542607 
-0.3281274945369823 
0 
0.831383320294701 
-0.5686102740145773 
1.81599529134962 
1.32907271600538 
1.131075702107386 
0.222152910121959 
1.262277916989726 
0.7848573783765456 
0.4559470068206335 
0.9418466951946671 
0.9743415592561905 
0.6828179724185519 
0 
1.158765935135406 
1.704116049462924 
-4.260585123180945 
0.8730778157106924 
0.3715172974793034 
0.9682753908288805 
1.576462682340858 
1.405413809331038 
0.337972969076154 
1.648027344018862 
1.150480007613701 
0.7979384726079572 
-2.235103144631185 
1.234974808951847 
1.606721567614922 
1.057859922311805 
0.8737100733276784 
1.912850195328384 
0.2935043985436961 
-0.4856078400048318 
1.045843498510966 
0.8689905695650344 
1.678836957698467 
1.15789439885066 
1.154824214846672 
1.126542866211255 
1.609031481744115 
0.4434603865375816 
1.384107921912372 
2.297480903637564 
1.514303911332209 
-2.878313513703735 
1.165867156993253 
0.6100273919816184 
-0.6863758000508701 
0.8777951956143912 
0.524173460993731 
1.356077189834712 
0.5338882473540806 
0.2405087301803542 
0.7290699339942047 
0.4933630229771775 
1.520020852606189 
1.76857695346144 
1.869480022791434 
0.9111387580206607 
0.7515671528065681 
1.23162748731047 
0.5596451930510994 
1.250686377663274 
1.041087883328417 
1.101379248867866 
1.311363034080447 
1.123036957958549 
0.8829291401126627 
0.6477282267972498 
0.8009977263943728 
0.6645686853460374 
0.5351472508163841 
0.6550027270452012 
-1.646191486683475 
1.207289145533613 
1.856326624781076 
-0.4410414554563173 
1.04461253746809 
1.232687166841081 
0.9421552075268628 
1.683418561451638 
0.7901596696866224 
0 
1.340484777866409 
0.6036892786944754 
0.4663387102752682 
0.7763434784435382 
1.348382897344829 
0.625030275918548 
1.362271050356892 
1.427031962956818 
1.559516602004229 
1.265784262650431 
0.2044688791031487 
0.1751610218850841 
0.5673850822735728 
0.9245041576700497 
1.211533981215102 
1.689490272588382 
1.853509021710675 
0.8783400949109725 
0.7187680512334693 
0.4777362145393395 
0.7656917150340683 
1.725673532503006 
-2.531538099459631 
0.4682378167070826 
1.338797162352397 
0.7371271699154297 
0.9796302101712638 
1.330851914395068 
1.955385860090588 
0.1073998811797303 
0.9402656339789831 
1.5885607331153 
0.402549627230198 
0.9904120262835231 
0.8633758859322759 
0.8612286953216618 
0.603958955610657 
1.342482698089736 
1.632691290282982 
1.28963273083487 
0.7979618319161431 
1.678954520734514 
1.458970096494159 
0.4948459294480523 
0.7286180941208615 
1.59600293168019 
1.019918354576497 
0.6931510684014477 
0.2571753497027242 
0.08050423142406621 
0.9206959450931991 
0.7535829011418113 
1.022080143156086 
0.614465700538283 
1.2144397753602 
0.7299171614515975 
1.037585950862036 
0.6390052087547048 
1.419783091118235 
1.667415804436814 
1.97309729761672 
1.33678869282686 
0.8858672825217107 
0.5768791188330166 
0.9747707443565806 
0.4812680999996916 
1.690890406944249 
1.638464489871456 
0.9660482503053491 
0.5007284813777799 
1.031198872339295 
1.154925211919264 
0.6334380376534829 
0.7745699854530569 
0.8478170589771026 
1.779676612175686 
1.125786222238763 
0.6255620681019924 
1.019947118586112 
1.178995033775779 
-0.1621969318994628 
1.248282699415281 
0.9514117888002606 
0.9172697451742825 
0.6955731750627168 
1.01404167055707 
0.3119461664201394 
0.8461712325184694 
1.386462697848851 
0.5631548057441876 
1.372032579989096 
2.082147234443847 
0.492610624052085 
0.7075433575891021 
1.239294722459662 
0.6438914713322335 
0.4867442139178871 
1.404415818958626 
0.7060282271767688 
2.520284686091168 
1.525230017844664 
0.6193033685752145 
1.18176100033409 
0.1560881646243884 
1.399018509240265 
0.6523207229092658 
0.7083221483923225 
0.6571011870696144 
1.822833053359525 
0.5209398327291812 
1.332418189162463 
0.936973383515589 
1.09504015058798 
1.266765468979494 
1.255152440727053 
0.4461237709402128 
1.019785964276368 
0.3383397304865108 
-1.718812335596689 
-2.084309553818599 
0.6093955463721719 
1.069572822021282 
1.714355457351264 
1.213653182841731 
1.156847930533156 
1.317152567531541 
-0.02001295948297127 
0.4554982118826509 
-0.006895968211767093 
0.54731937036489 
0.9220106454405259 
0.6642335536341156 
2.028084665450658 
1.326002117144754 
1.465405867294082 
1.733515199321606 
1.196820546765648 
0.5465447719101806 
1.46511014380721 
0.7826788524001301 
1.03495759995395 
0.6386571950282688 
1.717549413223359 
1.482096944824301 
1.109328339424686 
1.249702104922411 
0.9040653329415305 
1.136006222556736 
1.429240342018196 
0.09494018493625164 
1.924694209345869 
0.1740113904950835 
0.6171719511630449 
1.531655002213743 
1.158791699194337 
0.7988493029224818 
0.5107775413064083 
1.111570831887933 
1.185297887134915 
1.923178680580564 
1.278400197693709 
0.4491195818492895 
1.167713588365006 
0.5374655709372752 
0.8094902125473155 
2.024852476752607 
1.017282449676034 
0.7755353141736506 
0.8530950043162316 
0.6966682996963723 
0.9935021214742911 
1.314221674013372 
0.828495966659904 
0.3445382194627614 
0.0825349164419258 
0.6484670485235308 
1.081581621511722 
0.7017667100745203 
0.6522633521916605 
1.21925613997972 
1.331765158117047 
0.5462403803515904 
1.74663923062374 
1.047738972036088 
0.899907163458327 
1.159959313071276 
0.5433657400261995 
0.6165446801536557 
0.7149482585825293 
1.280902539304233 
0.2065032671173211 
0.8320878538996294 
0.85559849366163 
1.171337675458585 
0.958330496001022 
0.9949304508443935 
0.6365963043511831 
1.252493077750235 
0.9366495543313075 
1.268225175589166 
0.2587619983467274 
0.1957992173786161 
0.63661162957795 
0.1211544882561268 
1.613980516843941 
0.8911492071770665 
0.07345188190782467 
0.9166755689543549 
1.065702122047883 
1.235703026430415 
1.453451089859577 
0.03103769145450813 
0.3195441967046731 
1.615857046130197 
1.322563306527195 
0.9313849649265057 
1.628662661859155 
1.242280113346937 
0.5233731214310129 
0.914188422575721 
0.1093640089219877 
1.128542263226946 
1.72543499704251 
0.8543880468393588 
0.695972205693126 
0.8931429029857315 
1.649044343704891 
0.8807440753069472 
0.05335940802378966 
0.343868116024601 
1.355390651992866 
1.774422637007423 
0.9898616188013138 
1.27888356299997 
0.860138611543051 
1.006389479911934 
0.9585696056062589 
0.5862384626452527 
1.15047599239173 
0.009807434031306062 
1.162884767395306 
0.1413661203218203 
0.5869655840104309 
1.513604634845184 
0.781686432972184 
0.5272305512222522 
0.823073574374644 
0.3000832888273529 
0.4221606897103828 
0.4496750735869617 
0.5862528570212995 
0.9326368157936797 
1.260951023378778 
-1.82594350218441 
0.3820490515047327 
1.551517172499555 
1.364832145327536 
-3.986032352202658 
1.247103842241253 
1.592823271800769 
1.206119264742435 
2.292639745199222 
1.439503614715084 
1.297479362802108 
0.5336153174246114 
0.3954594722661842 
0.8960910111224603 
0.7593823055975533 
0.8628260092098644 
1.138176611457999 
0.2523833151455384 
1.492703045909168 
1.588021053367329 
0.5037732212132633 
0.00362483698121947 
1.426056173386325 
1.221304467702849 
2.24725747879524 
1.324514701103877 
0.5452998235399508 
0.6620635255785354 
0.5645728864493105 
0.9886755620698142 
1.213522235789003 
0.4957841350316701 
0.9022234577034076 
0.8243904869913362 
0.59407282095402 
0.710059361324582 
0.2720559518607397 
0.8577657036174482 
1.165964077701586 
0.5086159051658021 
1.182752945729284 
0.4677201474516851 
1.311137272591571 
0.9260222441069713 
0.3572162294644498 
1.382817845284541 
1.338880615205194 
0.9988688846898962 
1.478636892775026 
0.6849860702440822 
1.457034386076682 
0.6462323405448676 
1.797032154960586 
0.8459711561507748 
1.130057630574039 
0.4653634419032655 
1.201020242297366 
1.111614259532233 
1.504727741856589 
0.8042177833527148 
0.3480078162012809 
0.5707498511980792 
0.9179890506294949 
0.8440781575819541 
0.1206087994366465 
1.147260889177881 
0.05163943297494419 
1.393074399118155 
1.532648758460436 
0.475272180153969 
0.7381682819201169 
1.807545390489797 
0.8914556535930883 
1.45657216207681 
1.267675963316213 
1.987457936765906 
0.820268093338744 
1.712511906888673 
0.9779609173100897 
0.2566639141085029 
1.032654869367431 
0.4509203652274844 
1.30283126390296 
1.07798463301105 
1.404950769967431 
0.816507407494546 
0.5775439152756898 
1.055219291754249 
1.560283541671468 
1.742903405721037 
0.2507222341422498 
0.2821729802843547 
1.595863607304211 
1.250589910282387 
1.940355292685483 
0.8399761413961947 
2.058134740009647 
1.732276496767016 
1.520473425867327 
1.111215076887601 
2.045641991950306 
1.892947898516721 
1.215552070977588 
1.598816533641974 
1.248385969163457 
1.251499962979115 
1.703742753900028 
1.155083560783602 
-0.2923447453389229 
0.01041584552734023 
0.962498943786452 
1.922368074730934 
0.3651894788026819 
0.3420497998784646 
0.4162699110105184 
0.6898873532008369 
1.379317086475236 
0.5409271778593964 
-2.449756915230416 
-2.823545483242668 
-2.204856370990561 
-1.964020255204031 
0.4456632298147689 
1.04341856444678 
0.1780099236030647 
0.8487170138087411 
1.019696718620357 
0.6302049957381562 
0.3052457869377297 
1.63711312586639 
-2.372540277703922 
0.111418473435522 
0.5368217576104064 
1.542662350010343 
0.9501303475779437 
1.323032593434724 
0.8000996036230944 
0.9579339425810218 
1.063380106941954 
0.2138633945705054 
1.289217519909531 
1.028912675948588 
1.723550611491383 
1.788429990481573 
0.9757285518037491 
1.219730087626795 
1.067312811932667 
1.737143976764864 
0.567359333226408 
1.050977532091051 
0.6007356361190423 
0.9746806667208365 
0.6046484864703594 
1.283133217081893 
0.104660114590056 
0.140289061227815 
0.2370212290811405 
1.108624637076592 
0.5110901754009408 
1.798205922595645 
1.142341807061873 
0.6949954156120276 
1.136475858615687 
1.466976298707211 
1.56692553947715 
0.432107562920971 
1.30117725097823 
0.6001759662289927 
1.011556219768433 
1.278867008534303 
0.7279427622078941 
0.9868402256739367 
0.8291639216499116 
0.1014062585594307 
0.2606554159627231 
1.258072373187072 
0.7864289203210862 
0.8096427989483933 
1.062092593784342 
0.7257678668386872 
1.292088746615219 
0.5555765460524882 
1.768627687706795 
1.181151953057527 
1.254352854059132 
0.9866195089392711 
1.463056210606883 
1.141202153258318 
0.707012816182234 
0.8371538898329079 
0.09579929308296639 
0.4427923106091026 
0.6197329784700795 
0.7988689791031277 
0.04727237874673833 
0.8563077325875177 
1.51540158551907 
1.998111613580194 
0.5406253884652462 
-0.2849102351464547 
0.3338977494498158 
0.1813843121391881 
1.52581664687979 
0.2139516957856533 
0.3915531147081465 
0.2271946699146292 
0.04852735603854477 
0.9314137102475504 
0.5776664610148802 
1.402536322203479 
1.005300114681906 
0.7114767440726183 
0.7887662760984407 
0.6031549986936831 
1.449792510634413 
1.498236936431991 
1.126081853938809 
1.05909205021589 
0.8315952839980939 
0.5240732382773805 
0.1272208874121281 
1.503825915072577 
0.008155754065636803 
1.139410667926458 
1.277564779024315 
1.226796736705659 
0.7747747470611267 
1.298928011871865 
0.7804424488990094 
0 
1.988902745135796 
0 
0.6465064826777732 
0.8153716967021097 
1.26758165492565 
0.9884861126610146 
1.068736334075465 
1.217755674003493 
1.442758332387858 
0.356532763681472 
0.7157725464322838 
1.061327207836603 
-2.847447574639829 
1.118698158404859 
1.429454541115086 
1.126482350267367 
1.313595076245444 
0.9852602344265257 
1.317060103165064 
0.5322978111206008 
0.6257184383870351 
1.281101768751746 
0.9836635587114553 
0.5497928859985955 
0.7971743099599644 
0.9735184121486617 
0.3427757504882639 
1.421507686907831 
0.8747076393807407 
1.50418800607917 
1.058012368233591 
0.9878309066541806 
1.293029324749765 
0.8076159706986519 
1.184696816431126 
1.051972300077948 
0.1362793763612872 
1.926968289113816 
0.536536440332519 
0.7339414449267999 
1.591875278404125 
1.368323369686124 
0.7261186245862654 
0.7180379577701552 
0.6005587177134453 
0.4922992606004836 
0.8910736573263114 
0.6865117306574302 
1.79233287386204 
0.5433136933453305 
0.6768502118026745 
0.9719821585908359 
1.006642479752048 
0.9877459248973928 
0.5727618408337863 
0.4924391325439978 
1.194269195359315 
0.9509402352649277 
1.161201264291089 
0.2495588296903931 
0.6314175260112959 
0.5810436454023503 
1.035719673953887 
0.6745432940810829 
1.982034506618764 
1.047399105544404 
1.387978477808182 
0.9777677608741958 
0.4187912424185878 
0.5419753992791099 
0.7748174501031679 
0.9142602318401706 
0.561568413742328 
1.581916059028622 
0.1579730805391832 
0.5472919560403827 
0.985802497836495 
0.8889966159981371 
0.7681057458194901 
0.7630074771743321 
1.172901243069164 
1.545026395072614 
1.660879982853644 
0.5705477022616202 
0.42794262014311 
1.826719881299911 
0.1153652121106501 
0.618130301450851 
1.817575837084491 
0.8610846876123515 
0.8971335379668833 
1.697083911068996 
1.161376757518235 
0.4000021549203074 
0.5688354478218557 
0.9134126806368903 
1.392891356693724 
0.5691954254900908 
1.345486873742787 
0.4931352457124187 
-0.3054324009745301 
0.178862786924044 
0.9141968988384457 
1.866794581934872 
0.9959060628899162 
0.4416296408540321 
0.1208306818225775 
0.09629201743262235 
0.1805815385196629 
0.8235665078753054 
1.575119316992245 
0.7938857469283812 
0 
1.73844091389876 
0.9823587551592308 
1.400559548255559 
1.149514738962657 
0.8314421553735495 
0.8545556811243418 
0.874596121405569 
0.9166140090830229 
0.9713729653338768 
1.075394048282202 
0.8947899880552382 
-0.06240642972166752 
0.5272136588132742 
0.9009971877467617 
2.066923829667521 
1.335444206774552 
1.106552017758623 
1.521711690061216 
0.9044910762393464 
0.8053055161645036 
0.801897931921477 
0.3982173233173553 
1.692627547326781 
1.003920547307556 
0.2804808241189746 
0.8562040607964342 
0.4811652422433549 
0.3936690894906156 
1.073504647256485 
1.05335398256664 
0.8655484432566447 
1.388800810625769 
1.323259220124575 
-2.664008876165199 
1.11890473332521 
0.7656703841271619 
0.7343017314870131 
1.918934090187989 
0.3571856864970967 
-2.40406599511896 
2.505020426227907 
0.384760786048578 
1.179267215132924 
1.219034546556381 
1.12420081536163 
1.099099672326261 
0.3616292684481762 
1.278753339118257 
0.694105013297633 
0.9264803145113947 
0.3888872915045231 
1.022612596942021 
0.9384104345531817 
0.873771939075492 
1.068446559010136 
0.3732917641679508 
0.5771695521989604 
0.8824108135264656 
0.7146639063364852 
1.243159298506334 
1.006165693591719 
1.709532872403621 
1.174723464330012 
0.2839410644621814 
0.09981397261770718 
1.030935038345306 
1.182281228259047 
1.184701706982087 
1.96967980821336 
1.164184980212912 
0.2928573841408688 
1.072953723691312 
0.5519028583750323 
0.7768860766147526 
1.552954141210003 
1.322980003844354 
1.320835738848354 
1.449579195555243 
1.551397199959224 
0.9841514734156517 
1.109426715085936 
0.7926072441903514 
1.568532378969699 
1.219755724168303 
2.696461835767483 
0.9157572067978449 
0.4250940047124456 
1.012660304933715 
1.04350594970537 
0.7217459846248999 
0.997045029008829 
0.7771723844223393 
0.6278293804606236 
1.000690204134875 
0.04431066165608058 
0.06586706801312399 
1.257403440380382 
1.005248041746748 
0.7118793440253919 
0.8611270975501455 
0.9396103074502015 
0.7286653909595205 
1.497192217436122 
0.3999043159219204 
0.5933804523222566 
0.7122037758213389 
1.227373630078917 
0.5027899167682123 
0.8224273002938658 
1.149099754810527 
0.5004167258449035 
0.4278367724479726 
0.1715179334895192 
0.6418718201209869 
0.8709462596856189 
0.3796099193700536 
1.070854404682956 
1.274388900491895 
1.136730497779094 
1.989462178593688 
0.3686138368990931 
0.4546027910210813 
0.3295647745146811 
0.8092600398043858 
0.710723042103204 
0.821876893758174 
1.882543134668232 
0.8934182992632594 
1.472566600401227 
0.786242198955807 
1.235660587480263 
0.2086275246413201 
0.4164771757618554 
0.8919425844616551 
0.6785302942161865 
1.179755189237905 
-0.1416365602720521 
0.7750404348470508 
0.9763542125970863 
1.241722391599062 
1.126716152401589 
1.210905741781181 
1.475131044743599 
0.8694018728291083 
1.34241264949988 
1.02868267861904 
1.663221679157235 
0.3917042282263734 
0.7690000158959998 
1.651196083104535 
1.219593359148171 
0.9440457332247405 
0.07812258806043886 
0.7995009124468611 
1.240429420117374 
0.9108263913511825 
0.1987493763457448 
1.4353258617924 
1.450085924635779 
1.253207060320544 
0.9349927969115253 
1.055894623791285 
-0.3992701643659584 
1.179607350176572 
0.7961129693677385 
0.6481397848057009 
0.07784452865023198 
0.9004535410486169 
0.02843055818655118 
0.6452162710985645 
0.7223693009901849 
0.5170542662591638 
1.579997842000066 
0.9124052040548449 
1.157571609921233 
1.650212686001442 
-0.2871591552634261 
0.776819079103974 
1.015663174494847 
0.5368060206311331 
1.266027186179369 
0.5409758324540308 
-1.771494706510807 
0.8437408850861213 
1.416860952633624 
1.962931034421654 
0.5708184663179956 
1.289989282185314 
1.31926017222221 
0.3941314155168499 
0.3625904047462016 
1.0193825821419 
0.7141813951912884 
1.097992042527979 
0.4180105183876422 
1.546658872488977 
1.09341481780333 
1.041145178902047 
1.006732691316881 
0.5996995054583446 
0.8900577294733824 
0.5968434351376024 
1.195844705595172 
1.579335408285161 
0.7795449620676799 
0.8022423913949719 
-0.007961429687190959 
0.82140447367877 
1.084058740062643 
1.038010892315026 
0.08933117494695983 
0.3727674254771325 
1.194971394091464 
1.432231680571363 
0.8348509097418525 
0.7942950765908312 
1.605077999400839 
1.345735342047204 
1.050361463823615 
1.502773478538457 
1.10935695737799 
-0.1490662461870676 
1.633535897499998 
0.3998739152300444 
1.050918029600149 
0.9720034750025792 
0.1079392082086331 
0.3223249401329743 
-3.29183501523071 
0.8737937745864587 
1.805365490525924 
0.8558302183725423 
1.695929758410622 
0.4440708051433354 
1.091960682248627 
1.796495332583469 
1.08736327171838 
1.600566088108345 
1.119720758979398 
1.246646858247092 
0.6355742258866663 
1.132083783092517 
1.200087071459289 
1.671704454865062 
1.212949784576895 
1.616135638925318 
1.254500608527681 
1.480912193607128 
1.193577730220114 
1.198911337866582 
1.554581252299861 
0.395753377858288 
0.9000442720828984 
1.329668524917048 
0.1749601905884511 
0.7378833460171624 
1.5375814826973 
1.095594274399882 
1.723409902611724 
1.691746388137071 
0.7721257772530288 
1.177649752906007 
0.8501269378368292 
0.7573949046745595 
0.8920052552499378 
-1.241002646867539 
1.127369985760483 
1.02228125686569 
0.9225222248235785 
0.7854185637825905 
0.5585514615317038 
0.8784500074859554 
1.298485218308993 
0.7025466524097845 
1.855318811044824 
1.070680161268941 
0.7427215702808356 
1.042748983446298 
0.5285110588110826 
0.5773164021967253 
1.132930556266844 
0.4491924257337362 
1.337032889800689 
1.385887896621588 
0.9489817668990393 
0.0447642397299477 
0.3422668609323017 
1.661239916203152 
0.9239745548917595 
0.2265718908238556 
1.253121447603702 
0.2855256079557029 
0.9657022381956933 
0.9919256525849209 
1.053618632063958 
0.1463391894745714 
0.5298725596224955 
1.091453915180233 
0.5830053942531379 
1.587271056664019 
0.8179408087701151 
1.180308194138629 
0.903628777304247 
1.631857883792853 
2.033907058664936 
1.699681103904226 
1.004561837559542 
0.8214381058379887 
0.8023931072359777 
0.2702494327992394 
1.224517925224775 
0.6802773400987897 
1.319780676221135 
-0.4964603037915672 
0.4546921050671798 
1.099678263598653 
0.05983200277631736 
1.459798205244756 
0.811748915031534 
1.449866303769308 
0.07824357360007561 
0.2423206902009355 
0.9115260308182923 
1.353914731918413 
1.062048556787049 
0.5363212709752657 
2.332497863347156 
1.007704989876978 
1.685127511970533 
1.289834703987747 
1.056543011574266 
1.460421777404413 
1.298441888835312 
0.2656638482327077 
0.9552710216827164 
0.8852279855373996 
0.04122014512962979 
0.9224225384687014 
0.5857761130696313 
1.143976651921803 
1.016384828956159 
0.5223307395931927 
0.0430939438596321 
1.252379867164756 
1.02130213938403 
0.8767330864966691 
1.297347327310379 
1.772363655291676 
0.7485195237269684 
0.8456543357923716 
1.284092200602952 
1.943930724748437 
1.157346927254598 
1.133806351641594 
2.180386781983694 
1.507409696803775 
1.12706882268075 
1.214948398366868 
0.8991165466493506 
1.106452814916129 
1.25603340380874 
0.8165963325205462 
0.7732517076719078 
-0.2736570929433679 
1.279373561159157 
1.091301010055302 
1.120521678644584 
1.96568915455899 
1.205439241448455 
0.9698786683624037 
2.310679050841905 
-3.179574490328547 
1.427292477338052 
1.108734372998975 
0.8917657417445736 
1.25184345091217 
0.9833665362862817 
0.8187236052853754 
0.5567523560526311 
0.7154558034175448 
0.4813728558430601 
0.4320961348956355 
1.546844409594031 
0.4146640877551609 
1.330737111923243 
1.449875479146564 
0.6441041920901984 
1.400103004299353 
1.958973056167375 
0.7344686257662316 
0.8944377591678445 
0.9414738604210146 
0.4761837159701868 
0.9624814692658976 
1.004860326807924 
0.5782878381137745 
1.270171451551453 
0.5443463719857949 
0.3821352528134617 
-4.573119516930426 
0.5871833656800558 
0.2849269293235629 
0.7885064458445782 
1.045363711315935 
0.6362766702503042 
0.3682521952125414 
-1.032972271763389 
0.8628132954550225 
0.8046704912116546 
1.238734108253218 
-2.016051380967576 
1.183719008992154 
0.8820244437509049 
1.069845238308504 
0.03379561606529525 
0.7568301918743366 
0.711294902712813 
1.449624863766979 
0.5206634435036014 
1.138429672849645 
1.576875221837916 
0.8594161192768873 
0.6909524891107395 
0.6432540324478251 
1.035241880986999 
0.5338345849453828 
1.066191931529847 
-1.733796271486559 
0.9657212957511435 
1.0347968150906 
0.4460387965680891 
0.751956519369215 
0.6805479579246172 
0.3475766948454685 
0.399813317939138 
-0.09516277479472406 
1.501232397126248 
2.995474069914167 
1.357320824316798 
0.8847455331215633 
0.8926712479317811 
1.237427103985238 
0.9017961993043596 
1.047144709487825 
0.8805860971146842 
0.7199344267634693 
0.6743054391852574 
1.46431965633503 
1.328511363284288 
0.874915983672761 
0.727695182632105 
1.866346788621327 
1.085219015449427 
1.182649025270759 
1.045209139709341 
0.09444986189569042 
0.4190952607947046 
1.177852311627829 
0.1492951218656054 
1.258386539486552 
1.200801857479813 
0.2976855477908935 
0.9993213442506318 
1.745387288065757 
1.167892625103578 
1.073865138514503 
0.6522973989024338 
0.6273061038155423 
1.091210051055675 
2.018560932176449 
0.6648332497749179 
1.611771127188103 
1.25468320495363 
1.860271273183108 
0.5589452288813369 
0.8713778740579516 
0.3223760245237198 
1.470965486623799 
1.10263110492259 
0.9610912157577736 
0.8502612467163071 
0.9272850221857744 
1.209509102126207 
0.8176873712642608 
1.305112395554983 
1.364459804728028 
1.523813182939539 
1.630091375378137 
1.653230108167228 
1.608752840165569 
1.400415230326508 
0.6313049418222204 
1.892908056058537 
1.246978457955934 
1.402338034139378 
1.129939076869134 
0.5132231533608359 
0.6414872078248769 
1.621308843090908 
-0.05548236943538627 
0.9206481901477517 
0.7090152476377078 
0.8562625233223483 
0.9080490471900141 
0.6281662049696717 
0.8957190899609118 
-0.1687847572324649 
1.820329947432597 
-0.4750632810470779 
0.5398963708939064 
0.7941652854143882 
0.8277297871286458 
0.6047169573071811 
0.7445067130974574 
1.422207738862405 
0.409356854599382 
0.2869593102243347 
2.085780229620013 
0.9789574500611377 
0.8024951125116414 
0.775743151582704 
0.7258674838861301 
0.3082280288381586 
0.1755420206337631 
1.071973324618705 
0.8370398737029642 
0.8565420593188952 
0.8312136446091113 
0.7974596085845488 
1.506437840376085 
1.318444711115096 
0.4565656764033745 
0.8669523045307896 
0.67465985172688 
0.798056834956815 
1.239830394755225 
0.9490528807742176 
0.3294325133250365 
0.8371710847353512 
1.190529653932857 
1.156501024469291 
0.7811787000883357 
1.350979816879257 
0.5891720531279993 
0.4879399584288928 
-0.04596180217797191 
0.5784829763142546 
0.753778304236795 
0.876208750082021 
1.026935543432556 
0.4096825650072089 
1.070636370075698 
0.8338572300361516 
0.5016619244676074 
1.627237556330402 
0.9692119962166361 
0.05972121447437163 
0.08737967296655345 
0.694897471122099 
0.4167709321741189 
1.128462737182766 
0.8634248313809122 
0.6004197754113029 
0.8711499548331157 
1.194790956276342 
1.074277510637236 
1.674728316807082 
1.278979700924838 
1.554797532669761 
1.075427355368005 
0.8793926668995 
1.698632512600918 
0.2071424539615473 
0.7077645039741481 
1.304529245673552 
0.7621088930500687 
0.8009576499569721 
0.6937759734596247 
0.5249985586525557 
-2.312318415956132 
0.6615215858842618 
0.1562934950471079 
0.4140741303425984 
0.5823834568977041 
0.5114567334982261 
0.6469135529489362 
0.8986134660459145 
0.8773568885878169 
0.7771961915559257 
0.7102194950733064 
1.139942371615384 
1.199924872550496 
1.463961748274268 
1.550274602361477 
1.532560445445749 
0.91973469915978 
1.697650765606197 
0.1075903863814404 
1.679658985439973 
1.198998836794517 
0.6061923969245223 
0.8618854712428793 
0.6995380646294631 
0.5394531898913201 
1.096011809498334 
1.105617921042482 
0.8444307173076893 
1.852383121765519 
1.760777511306201 
0.7504003600235031 
1.159085239191084 
0.7831296770121958 
0.7281088516883396 
0.816359944409136 
0.6962391427282404 
0.8708237978409101 
0.1196476182714794 
0.7434225467355435 
1.663913655000083 
1.67076942761496 
1.391653330063831 
1.184902624127963 
0.005749791235471348 
2.115416100665878 
1.011301865869966 
1.024987816593871 
0.436820837518768 
1.712747387525214 
0.5421957386117163 
0.8004941988933696 
1.420783615766946 
0.2377428863973854 
1.939840250982322 
1.426727733827482 
1.268236812320156 
0 
1.059982181586086 
1.121260505280324 
1.915663060586498 
0.1372504920516195 
1.141788554263523 
1.379440846770867 
0.7508306173976018 
-0.1605632603064864 
0.3762490085597621 
0.6783202497963287 
0.8305751127788784 
0.759306555110382 
0.5292885760913041 
1.847312501169234 
1.78770767295368 
1.08212463564134 
1.62826745741769 
1.385962859218003 
1.349152972139477 
0.4795739164300719 
0.8156708916292686 
1.058181823261788 
0.7341855513978239 
1.283500826305132 
1.228123207615855 
1.490656787451744 
1.297566543754142 
1.225059224579019 
0.9346929282296936 
0.5298233438423627 
1.049961727711526 
1.396509815276609 
0 
0.9594541815379535 
-1.09876406056195 
0.6904055788612449 
1.010720226321091 
1.026675246004728 
1.279902550854657 
0.748044978104671 
0.1521922498995578 
1.592028864731715 
1.451589823473503 
0.3731299926115178 
0.7250184385778076 
1.136885925804619 
1.330843479974494 
0.7812369987909094 
0.4650975365463833 
1.530432080047172 
0.6633332078284729 
0.6876242295022146 
2.100050930984388 
0.8289414617923633 
1.718621619738847 
1.445396204133087 
0.8506837837407903 
0.8473667213173459 
0.5285825493639942 
0.1002472395759653 
1.226517254822793 
0.6816110623827502 
1.294245220413841 
0.9702306380903293 
0.8819631350592033 
2.271597920659404 
2.032751671044327 
1.358978756569719 
1.098615430448001 
0.9715011577561227 
0.7970818388379778 
1.432317224241763 
1.735593907647704 
1.627146570398165 
-2.90785924545 
-2.278950841976201 
-1.70188652383204 
0.4736727711212712 
0.7766847343558799 
0.6446673793159817 
1.608869829875655 
0.6239406663190817 
1.283760387897019 
0.3849679951837484 
0.8901530550970139 
1.348466316939134 
0.6097716734297819 
2.061098217918921 
1.409422553668126 
0.2624590004643378 
1.198383514895561 
1.966340746413996 
1.137353100681605 
1.232382786692586 
0.616566484037271 
1.035737350639654 
0.9041043215801203 
0.6051055823208307 
0.5144000118307687 
1.156861981020181 
1.104142285328843 
0.9030140528512323 
1.900611230054557 
1.241105271385229 
1.121777080218363 
1.402826960900471 
1.298519205817346 
-2.368722022328343 
1.039932852373834 
0.5779780220864139 
0.5107044498427865 
0.9121157831959542 
1.08568038679769 
0.4057471004391634 
0.892442450441338 
1.190129062675033 
0.350735627757593 
0.9862522332008898 
0.7951315943329763 
1.17940869757141 
1.217193327484954 
1.248037309379449 
0.8436339428695928 
1.199231519724238 
0.9902974819832068 
0.9926889208836126 
1.395901120703351 
0.9202769571614723 
1.48349369523821 
1.658245339847641 
1.082134414649681 
1.029874796302445 
0.9769961615042232 
1.442205731288325 
1.567765676034001 
1.281313951975069 
1.930926299154636 
0.133804617228659 
1.180915642569368 
1.226729631367925 
0.4247196290442866 
1.885330578098492 
1.094617477280735 
0.4101030130599892 
1.089703405495607 
1.669137266671641 
0.66651878155523 
1.016133245101261 
0.3413897329220333 
0.4542571899209575 
0.3337380062349469 
0.7206416933893887 
0.2110155882242803 
1.071442122044385 
1.041445845249978 
1.212190700036417 
1.962045464804345 
1.321690258707319 
1.966076767881997 
1.560796311806133 
1.67104029719005 
1.397128382637097 
0.8636133769163674 
1.056486920998294 
0.7819659779489007 
-3.065697089717113 
1.488627850400526 
1.953305053619088 
1.257892530441518 
0.743683055083465 
0.7687388637719957 
2.281668383759161 
1.141300748980625 
0.04971878040319467 
1.349714500445244 
0.6991699548945384 
1.514402227657707 
1.115901642169718 
1.430125728820015 
1.428669015110218 
0.7389427060345888 
0.7346433621228819 
1.859280750985045 
1.300293132129899 
0.6332257652347827 
1.463693674332736 
1.101462115736094 
1.815401504047216 
1.902256058896145 
0.8373660548452374 
0.5422427955336481 
1.057832452202683 
1.087380021274448 
-2.492190149576305 
1.18989321674916 
0.7390365131633808 
0.2714516779091721 
1.506559234800214 
1.178753727360104 
0.7558248680837336 
1.621415013630922 
1.279866657882416 
0.9852521444251957 
0.9269556382095947 
1.790169201093741 
1.308821220261373 
2.498574719236531 
1.304708009539635 
1.456561311690871 
0.3930227871834324 
-0.09184242726749836 
2.131230273465297 
1.191897434825876 
1.786291114857964 
1.891751428105469 
1.078005938027808 
0.7477169677841504 
2.152652085869116 
0.01339437172985476 
1.613553928418999 
1.403699399826299 
0.9002928414909998 
0.6678634199980898 
0.1253966519418781 
0.5442769315514937 
1.182570281655626 
1.83041168397293 
1.921827420343395 
0.1213785301032514 
0.6575466819716009 
0.4277275435867959 
1.591740838904069 
1.05114236004271 
1.449924910467505 
1.562114256416372 
1.229184847425941 
0.9404359925895447 
0.6662744588036784 
1.150317823142758 
0.1043142449557767 
0.2690364611032459 
0.8229207152354591 
0.6766538649464838 
1.214237794953866 
1.191736643804882 
1.117861235989797 
1.429694613165984 
0.5504735571491537 
0.4769490480855856 
1.177076380909938 
2.32189021423509 
0.6118799487390288 
1.564622408663125 
0.05267287793613527 
0.6990043359829822 
1.213271686551528 
1.129133812024548 
0.2660023103682883 
1.146239051797446 
1.240748413960588 
1.37561141369761 
0.5669860632408572 
1.515926999409922 
0.7032169838047755 
1.253390023079265 
0.7372975822792828 
0.0221585178006352 
1.287755647020652 
1.228229134248757 
1.40967891765902 
0.3160517037448969 
-1.850985490081858 
0.6518149917459936 
0.3290638390646133 
0.4418201733440708 
1.218670367881803 
0.2606492690659395 
0.5610295812799375 
1.422888778008915 
0.03287121462001819 
-0.3862859670032591 
0.5812710781753716 
0.8276962201240046 
1.07451791357095 
1.011430387016041 
1.648550409924026 
0.5802428862613686 
0.4897239487690274 
1.364301655374841 
1.295451142398294 
1.314473181903114 
0.5437750122996913 
1.388514038870748 
1.480570695925803 
1.15996654719671 
0.4777156467952998 
0.757066032033807 
0.9031001637545026 
-0.3916705131317884 
1.725842423721122 
1.224078126678698 
1.627469644089216 
0.395788250266414 
1.172875861040941 
0.2547140413235415 
1.147565046541016 
0.9807142683924486 
0.619207491278035 
1.038954217613249 
1.374057036353278 
0.9669115281844022 
0.6267748686350765 
1.240170383126662 
0 
1.646618991023578 
0.453248120796391 
0.435697421414417 
0.9310845868835391 
0.3202447288265418 
1.007249651316256 
-3.10808251967247 
-1.774429371776151 
0.963933864342309 
1.831283070965415 
2.620369167662042 
0.1337814078415001 
1.547713975104315 
0.6855989729847488 
0.2241803519666035 
1.179061603448751 
0.583315111789468 
1.689789138930087 
1.805156438722821 
1.018946810071186 
0.6194829191133534 
1.326709126871811 
1.091483900906947 
0.7015628324585976 
0.9820434486310454 
1.056454912711933 
0.4211291669439472 
1.711667180728316 
0.6073900747510694 
0.6674379916494313 
1.545919193636556 
1.344862496123442 
1.532744752854313 
0.732863191485575 
1.044314600234165 
1.232051637972091 
1.389117180490392 
2.07857224272752 
1.229256138349213 
0.8862350430209891 
1.204880280430969 
0.7112399931431417 
0.7528837554711846 
1.182548181102188 
1.164567546349026 
1.408948641056055 
1.251647832155079 
1.655854536834416 
0.5840768150085566 
1.897153292217632 
0.9464568033733226 
0.2133523322240339 
1.685484882008505 
0.8513663186184207 
0.8668734535475994 
1.136988465363983 
0.4866435532653193 
0.9166078341605464 
0.5018893223560658 
1.128591403977304 
1.20315592398305 
0.06485209945566488 
0.2963932546756392 
1.431870764105776 
0.380540330231274 
0.4168732859972194 
1.785792442766657 
0.7327345474056648 
0.9111167319929232 
0.5145262388846443 
0.8294958313897769 
0.5918612878818765 
0.9815160015628853 
0.4204438146530274 
1.005280623997478 
1.94362709471529 
0.5226655492446678 
-4.048724780080149 
1.071940052954012 
1.023768648237389 
0.2116191163121439 
0.8717733261805134 
0.5020636358862779 
0.2340190800084026 
1.478599445724913 
1.212313193893853 
0.8660454578211727 
0.9241553390944792 
0.6700951537098389 
1.305000233710682 
0.268515243897752 
-3.232915493301404 
1.701991413830509 
0.6254012696027962 
1.088064557015496 
0.9710681638827152 
0.5007372291853892 
1.377891889715431 
1.188243219610567 
0.3099190072674516 
0.9947139709655874 
1.587719096331458 
1.155102360555849 
0.6677823477010123 
0.1409868524055373 
0.6936187364086136 
0.6611751132469321 
0.7117986607367065 
1.175111959857249 
0.4986598999073261 
1.473225225302615 
0.61964509977601 
-0.1461880353095865 
0.695956183864509 
0.476718551863768 
0.7065693574864367 
1.256054952024737 
1.191051149595783 
1.246048152860979 
1.489907858963214 
0.7249580454548205 
0.5468529149665928 
1.49533132713695 
1.48244136637148 
1.584535671619534 
1.248556664354882 
0.896026054268498 
1.175869260868054 
0.6720116395017648 
0.8593131768463363 
0.7139306365952311 
1.300504942492634 
1.386219554327525 
1.106324753895087 
1.854055176645677 
0.1848777521641179 
0.4184450026747316 
-2.530094270836546 
0.2075460093422007 
1.262410815666325 
0.6564463715557183 
0.8665233804482524 
2.152713133352682 
1.233785674588328 
1.565486592240972 
1.15077548676554 
0.2722177682789418 
0.7501705351079386 
0.880946921777116 
1.278602968663267 
1.601674980647035 
1.588007565340861 
0.8959447789242658 
1.685759908304714 
1.01227635916966 
0.8626549176742463 
1.420221117823076 
2.199963634824726 
1.000463748022035 
1.263458802322481 
0.881279007523074 
0.9648272801283896 
1.205372950775014 
-3.42838433074659 
1.115012648430958 
1.054428783596929 
0.7287354153358889 
0.7702445603197495 
1.542320014112945 
1.312201436405992 
0.9627829178539007 
0.8027231574543638 
1.172263960868484 
1.109309515513734 
-1.919470378602056 
0.9306634424391883 
1.237853486189636 
1.056557143038199 
0.6801214578474101 
0.7322148287177362 
0.9129522071718296 
0.5468996106133188 
0.3435051197395287 
0.7713938061630815 
1.486988379895303 
0.7414704041389872 
0.6383472706674771 
1.114194284068309 
0.8802214163756815 
-0.1336254543402879 
1.131969380725149 
0.9761562712099222 
0.7223880233356083 
0.7780744447093273 
0.5897435348152239 
1.215741544454827 
1.001512185889946 
0.4793973204287786 
0.6469851051955394 
0.4770427584336778 
1.178756796611171 
1.409662334104041 
0.6098245090765559 
0.9524761926710761 
1.125872485577571 
1.843126146404395 
0.7347448809477318 
2.76761966677335 
1.121357848465782 
1.689062539779048 
1.358600736485863 
0.761111304892038 
0.8398447233119443 
0.2450709389668972 
1.21820063554151 
0.9975904902440511 
1.640392084289195 
0.5104990159833556 
1.514374681441675 
0.4778435528557523 
0.7853091043836116 
1.091472107933154 
1.587663172092703 
0.1867838832496312 
1.314224019836774 
1.140282343947827 
1.723268794919722 
1.215643679966385 
0.8647150040121985 
1.264609671775114 
1.762958174343962 
0.08155384116149804 
1.834077188952388 
1.606345003853755 
1.032276001250618 
1.465704680250899 
0.8144056818912454 
0.7445662935012582 
0.9542405405162302 
1.076367177633857 
0.7987553089702089 
1.40576765535622 
1.411144460508634 
1.437504652531131 
0.8086823590226129 
1.539334135532362 
1.157138929726693 
1.020316294794975 
1.386181917835284 
0.9247285108271087 
0.5826475006159835 
1.904249606351802 
1.684293010067296 
1.100374452741343 
1.871350651270977 
1.604926872401255 
1.846910640198791 
0.5335782188825144 
1.657689900019377 
1.904525756418586 
0.5738988108980688 
0.7340404392113848 
1.320607109593195 
1.253379692922861 
1.120900611908854 
1.085438702371124 
0.2982386507060745 
1.567867794090903 
0.7880285347417038 
0.8683291975906767 
1.072818740126253 
0.9564910613141154 
0.8495146797307223 
0.5220534366753147 
0.4779049217574478 
0.4458496479655834 
1.025281305881063 
-2.843426037296816 
1.108561993175706 
1.139616024831917 
1.683723015080454 
0.8674379735464141 
0.7650099618737061 
1.069186879907648 
1.335973353732162 
0.9992996971970122 
1.662226927787148 
1.424567151900303 
0.3998709426833547 
1.62421906814635 
0.9644118120033129 
0.4826821375245651 
0.6363306314048905 
0.7515651345905495 
2.047781392175969 
0.8800726244659356 
0.2767435794133691 
0.3416330932838003 
0.8260761726367815 
0.6449219239701637 
1.624772421966081 
1.496959910848836 
1.315196164606475 
1.577180059227569 
1.377395454043235 
1.49081569554342 
1.421406197667614 
0.5051821045272838 
1.269654364068266 
0.8529310870857775 
1.218807265901288 
1.449133132404887 
0.7900726536716094 
1.38134419745851 
1.078307935010394 
0.5811910082098618 
2.164789521964808 
1.711168119029836 
0.5922338927664527 
0.7542847493612467 
1.168327294505144 
0.9889242419387455 
2.085496798721112 
0.9407593589987726 
1.212177803480395 
1.364020277861762 
0.4533611727025512 
0.8936976755201317 
1.452545459841146 
0.8317016211945791 
1.531202539099173 
1.92039148722922 
0.8906963728864032 
1.162320536749257 
1.86084189335343 
1.000148820659996 
1.479436320676921 
1.106184829674068 
1.321626757568414 
1.214217217484489 
0.919620605567907 
0.498294918887386 
0.09201991776391728 
0.6243810888835323 
1.422447854207894 
0.7170976822529264 
1.652579734382673 
1.532505974336446 
1.235655166515128 
1.013793688396511 
1.605660885154889 
0.9598720927356251 
1.177491139168161 
0.5001975467705878 
1.68670398175702 
1.159803852848021 
1.48103743321847 
0.5822989553081401 
1.687433615190702 
1.121098275801875 
0.1097374812439714 
1.188565372360964 
0.3252049829365734 
1.894431460640684 
1.022584771515436 
-2.955123390334665 
0.7157146977087298 
1.501264754534595 
1.215097014690075 
1.165060370861998 
1.230293141473651 
1.036782183742309 
1.418770889629309 
1.122902290882029 
0.02716092378985464 
0.8783862873992589 
1.153205147778648 
0.3660948659849932 
-3.402914073429108 
0.2010440893886808 
1.727962051944842 
0.8721296013667218 
1.86724215012237 
1.162965588112249 
0.3191518164057245 
-2.326655579016665 
0.9432613319603613 
1.043149212066902 
1.322462149415618 
0.5223126091524144 
1.319021146576542 
0.9485951243150141 
1.284217337593625 
1.063644114110729 
1.256239019436642 
0.8221766105171118 
0.2662007001177017 
1.273809666563755 
0.7339312813060741 
1.269075113390198 
0.8322610271315882 
0.3394600727977619 
1.158113228931112 
0.5118281371064932 
0.787921355733877 
1.245095493586291 
1.446422339977596 
1.235945812429873 
1.159452277774303 
0.7274844974778798 
0.2458138298572275 
0.7337665766081617 
1.74378598822976 
1.390112576594292 
1.368525857723519 
0.6435865399998623 
0.923776636027084 
0 
1.588581079237606 
2.13614127073229 
1.549990078777397 
0.6379381294689859 
0.747400036665289 
0.7853347727520192 
0.4567756895262493 
1.114956045002623 
1.048503490587842 
0.7181339427010009 
2.160216222492212 
0.7482427388971407 
0.9648492575463981 
0.7013159050575294 
1.335320333154943 
0.4122807742568246 
0.9776214412383328 
0.3751533745651909 
1.652091319765797 
0.8157350117643376 
0.9375150744912198 
0.5134898917990665 
1.090747860110732 
0.9298959443838668 
1.13187780259297 
2.244985969947261 
1.42444981502031 
1.654230860791436 
1.025286145523164 
1.551205761025003 
1.499237596883269 
1.448126811030418 
0.3566011485118112 
1.199219598481283 
1.506115939813726 
1.769180579533401 
1.094566048534743 
0.4662882961162452 
1.609419703471827 
1.308577950288468 
1.732710557459872 
0.3409885547879319 
1.493707749731053 
0.7846868057290017 
1.680022139680181 
1.388271718630379 
0.8123016984565402 
1.183442937729667 
2.148644454882048 
1.618935451536014 
1.500418728869662 
1.180125660063674 
0.1807072212328044 
1.355736683519467 
0.8631362759200002 
1.160237400368135 
1.236759232657184 
0.2249384489886009 
1.082094172465426 
0.5275939947396304 
1.338765277049302 
1.067534258746943 
1.82764325953037 
1.018755759632461 
0.6238659717576833 
1.450562517914222 
1.019026209098992 
1.815086333588767 
1.170867556787218 
1.133911511789055 
0.8752406006316384 
0.9171535693775897 
1.02809630491157 
0.8557967612003734 
1.01100415415538 
0.9205617955074745 
2.143677876600544 
0.8685220542889189 
1.556827491918688 
1.049261318697014 
1.070591523468676 
0.9730366844200075 
0.3655068699017759 
1.212652633664835 
0.03041558144897124 
-1.893258989667302 
0.9686841591870915 
1.640375957515615 
0.4320704205109836 
1.024242344513953 
1.084099064989466 
1.181943967578494 
1.414706340897517 
1.380533692206996 
1.9069561099847 
1.234834009897817 
0.4783038104148166 
1.120536207343321 
0.8668403399260998 
1.009441002657522 
0.4559419759187633 
2.270039951770178 
1.134044658761886 
1.87794856210402 
0.9030313832695893 
0.8333167164508167 
0.9084324965957733 
1.372016688738628 
1.829257645199363 
1.200300070955979 
1.315381627197924 
-3.243088200974956 
0.5722241938069167 
0.4912352995475198 
0.9007588689086816 
2.136131664668938 
0.4246845522155534 
0.7887292467652032 
1.615468800125076 
-0.4893583269316905 
0.6429696189993258 
1.003733155939701 
0.03799304100868987 
0.5770250734406444 
0.8492705310823485 
1.205043642148647 
0.6160460683277643 
1.415367150677991 
1.122951584185147 
2.015736042807242 
0.7873092033523673 
2.254260166464015 
1.687904711883764 
1.020693137486474 
1.371262570495908 
1.287359961434532 
0.2043952242162909 
0.7316937097290729 
1.058917868044001 
1.516476902248405 
1.07539020657588 
0.7544423908636958 
1.680090398614306 
0.8730116087504993 
1.229586473316577 
1.663830446559774 
1.540132679622034 
1.313661726050004 
2.215749186119474 
1.408314407690106 
1.3917847088118 
0.9161367560032028 
0.637904481323435 
1.557638836554975 
0.9031415561671277 
1.524543711153179 
0.7100809221694687 
0.4555441672087586 
0.7179473596839491 
1.806592812100584 
0.1103193915069773 
1.216004935204793 
1.32058939915158 
1.158538539440094 
0.8390084824797234 
1.128434481480624 
0.9413469478677301 
0.4699859342183292 
1.255728379545902 
0.6325672605229176 
1.34389507883012 
0.9677319330247713 
0.8904506908831314 
0.8495103367171066 
1.443328463398636 
0.6716772583382536 
1.220516907691096 
0.9648386646486689 
1.647492751072286 
0.7513061945482303 
0.9972565409787558 
1.194462345637535 
0.09076228345750349 
0.9318365423892475 
0.03347936588179244 
0.7393994873970853 
1.155496335094629 
1.523456225678972 
0.5056326994463489 
0.9311646520386655 
1.15474555562113 
0.79175487661392 
1.929396969586606 
-3.126804221013799 
1.482323416870134 
1.418856663889858 
1.163996992800555 
0.1301420834899173 
1.173981266936517 
1.226628922164862 
0.6719220908867759 
0.84165024569124 
1.510142738606453 
1.034554541979825 
0.9651054914378741 
1.630170678282547 
1.167211622332842 
0.9650515261277148 
1.097298374241834 
1.341065146051863 
1.558291426315302 
0.04413562398124057 
0.587886073869978 
0.6886942623544834 
-2.545103287885168 
1.217910803682109 
1.080721386473493 
1.366740407499505 
1.146653282183143 
2.157848757958469 
1.894455300975282 
0.3022398215257849 
0.7332191630282353 
1.201162050092065 
0.637771913437149 
0.6937784673786558 
0.9556471662229997 
0.8533633978836089 
1.054928172158328 
1.28640754676731 
1.323163313622124 
-0.4848397543482635 
0.8215425990288989 
0.9576673970893044 
1.038299136655026 
0.7012785464675738 
0.9818330340270539 
1.22001144871772 
-2.973379068826362 
-2.096151872316317 
1.734607402252179 
1.331227542285182 
0.4795513932187496 
0.9794860777186586 
1.012263401398645 
1.003836292262811 
2.323299930932471 
1.712036444349367 
0.8464557113363657 
0.8595562469541987 
1.3534389587734 
1.355688006254317 
1.135996676463228 
1.521288234986518 
1.258206096602891 
1.349736631904073 
1.128973610295192 
0.4176590400387561 
1.91355253548774 
0.8564837824138132 
0.7577981721953163 
0.1013214155858287 
-0.04928905942868462 
0.3182981405395686 
1.860717543405741 
0.5361065393844928 
1.288966615216423 
1.136756600331583 
0.7309818237017758 
1.167172075472666 
1.165230007217905 
0.9414778663040635 
0.9193997220712825 
1.566909052574656 
0.9042613919365414 
1.245138748725512 
0.2999419422092398 
0.9221264139023359 
0.4862972586246827 
0.6286433507331211 
0.7437745503780818 
1.755385419889625 
0.0899655925836382 
0.3591860717300593 
1.227496027780612 
0.1103999158355035 
0.09203682860208216 
1.023078991248028 
0.9192157321297535 
1.221954069738404 
1.100475204125524 
1.346691090630145 
1.028055144357574 
0.3859023272176791 
1.634112585905164 
0.7451526375675152 
0.3987009512903604 
1.386636768619758 
0.9519063230145112 
1.05243084658618 
0.7857268591652518 
1.520773521209876 
0.2569333583333089 
1.151968439089516 
0.8285718912756398 
0.3127523323011701 
0.8137962494967167 
0.8301388338664817 
1.2103336641267 
1.444163074128641 
0.5744235564705537 
1.541698224029934 
1.209214444181833 
1.025695512757285 
0.7196072874677554 
0.2309500965566507 
1.587970036638463 
0.2448504183950503 
0.8978572329071975 
0.3703342191199528 
1.538354693897013 
1.078645958330355 
0.7342760359405834 
0.9274500969342203 
1.219724536110026 
0.9314771581263076 
1.751452948000512 
1.502873238490387 
1.214617239962048 
0.6561052825673338 
1.197228004133749 
0.9630129369527105 
1.828922363652566 
1.068970614539308 
0.7551803648968091 
1.687599915124654 
1.464305540474529 
1.309570934140583 
0.6250381165477765 
1.057727251345264 
1.497091893390744 
0.2502292458927352 
0.665108144984169 
1.202226118603315 
2.071515023512558 
0.1540960963005311 
0.5230855484816624 
1.22824298399042 
0.9078966705222619 
0.715969382561042 
1.030707317712134 
1.365886750257491 
0.07171457714520529 
0.3499768932531007 
0.9456149650594152 
0.99824662587741 
0.8023962083273992 
1.388619063777763 
1.152732243112226 
0.8912397485649721 
0.6718596309406748 
0.4315604142212141 
0.5494558532482866 
1.3264697534442 
0.5410075087413297 
1.122058645066812 
1.024309681798089 
1.316942288832689 
1.67090464975195 
1.21534015291039 
1.51237780221212 
0.7592435892617563 
0.5823531308240493 
1.232884697070849 
0.6639700183885738 
0.8212906270535064 
0.6523207052400559 
0.9991718433485492 
0.9750504092391663 
0.4496959225184601 
0.9164986453492086 
1.289226020049288 
1.569319985850984 
1.258083292327689 
1.445067658234096 
0.7006926100733026 
0.02138743811870634 
0.7783385154262522 
1.280401900456877 
1.602243941042641 
0.9045152413867421 
1.238172513491717 
1.167730291944493 
1.244244486002901 
1.512975275504746 
0.7994923452079533 
1.06180008884371 
0.8969905275020935 
0.8507220530056353 
2.100803024162123 
1.865979533216803 
1.174542330174394 
0.6775103191254617 
0.9755838173024576 
0.7683916033391491 
1.894218059348583 
0.01360806503437912 
1.591322604552687 
0.1378426446756842 
1.153056659716407 
0.06939476802741136 
1.574005792529541 
0.6995870742362281 
0.5438376385805924 
1.059061250887797 
0.7279456966663985 
0.8335563369880569 
0.6219882566133573 
1.133697597125175 
0.9997398713969572 
0.1786703837199286 
1.201138313541279 
1.208139702069893 
0.8084956951593293 
1.467814056472889 
0.9563137681103728 
0.9180251854880553 
1.312320797795079 
0.4206991102518334 
1.210050282141543 
0.3617530880072279 
0.6209519976008884 
0.4785775368776593 
0.5589626346529031 
0.8200129311705552 
0.8528295502810407 
0.9296540971254265 
1.940804187922955 
0.8124561501154459 
1.073775951524528 
0.4157858049606175 
0.691406727856443 
0.5641782216000141 
0.7469434444292037 
0.8635270709712836 
0.7323002569643893 
1.097128127948186 
0.9027642194998635 
0.5083740060453212 
0.5715157928770465 
0.5131120185172565 
0.9860973855154161 
0.7148877439191934 
1.306151732980558 
0.9959179519827667 
1.089373778872919 
1.291491287126583 
1.189660257823235 
1.068048969847025 
1.395897489224725 
1.695510498306238 
-2.057126455507839 
-1.83220889041501 
0.6315579654046518 
0.7330994321163191 
0.3079440003962024 
0.1780072749673656 
0.2980091678579267 
0.943802938565983 
1.268643548324222 
0.8555691210804113 
0.8776145885772276 
0.3978285464319016 
0.9876002274600473 
0.1935530782450015 
1.140486996428165 
0.5223216811460608 
0.7808817914690656 
0.9006273122031471 
0.1924013194178974 
0.9629152630628118 
1.486497313366692 
0.4509097009551724 
1.478395902681316 
1.546255830033723 
1.074497270130157 
1.096257066347312 
1.396801429181188 
1.257303653494295 
1.482277547244137 
0.7540111857878483 
0.4426472283542574 
1.295235560096422 
1.121287637062727 
1.196896574596267 
1.572516588553152 
1.183199148219626 
0.2729697247158936 
0.8603738360695469 
0.07801413683672492 
1.178323551195458 
1.107402348223504 
0.6403211037089244 
1.621476229234753 
1.135458904339686 
0.6502905470202081 
1.192799870558087 
2.093664653403532 
1.058453521571406 
1.367021525127429 
0.3360183909571516 
1.12463511083538 
1.538928539816061 
1.181319196704613 
1.673127053900201 
0.2963924691029671 
2.003023108437376 
1.481703609027919 
-2.544892259748248 
1.291746860528943 
0.7471376394345463 
0.9459322155161877 
-0.2831144165824148 
1.481132120672443 
0.8710551943052555 
0.828678602450673 
0.3518895760934271 
1.214906556561663 
1.1496973303081 
1.135622470911933 
0.09051778129899127 
1.154372537244357 
1.33360562581754 
1.115670358131089 
0.8402161499591986 
1.365810948421142 
1.365290666636856 
1.031425929355303 
1.013652794339866 
1.115218922263091 
1.318686574245929 
1.286237986630478 
1.395196799377215 
0.9247078961451182 
0.7818564597755429 
2.014034830487252 
0.9368606605375596 
0.04098527061434824 
0.2016180244504866 
0.02347230855642314 
1.09234062792493 
1.939511538969641 
1.281168899890224 
0.5966856208756808 
1.079391938831385 
0.7844253482093652 
1.073437784372077 
0.7789953510409384 
0.9868622420297384 
1.187323957229335 
1.448442669912051 
1.401236237780722 
0.5093088156704045 
1.063945252388251 
1.054480930447272 
1.195471944203174 
1.251523033177198 
1.691007660374618 
0.8304875503148957 
1.377935730946385 
1.521631451570149 
0.8778866644598318 
1.264623658894094 
0.3549383815801891 
1.390318517480986 
0.840779812972034 
0.7678244389142663 
0.7223434344733428 
0.488182692190805 
0.8309354863496246 
0.4544215088062032 
0.6189450195126759 
0.3220364380615007 
0.9738563156497589 
0.1172891877198151 
1.091363711703197 
0.8975367041497551 
1.230547218913821 
1.262531753803632 
0.3132964336316335 
1.782803093691116 
0.9074336424458092 
0.4848909306812338 
1.803026477449448 
0.9559060469168116 
1.237034172152275 
1.330578419291488 
1.264366729343961 
0.662926033691932 
1.372613577479195 
1.368340759602833 
0.739712943144134 
0.4243051824712636 
0.7799149598519028 
0.5753880087178769 
1.118904507932719 
0.7485928186186058 
1.264441168095767 
0.6912051374125711 
0.3218499392200942 
0.7718067593257911 
1.0342507691519 
1.211869814704964 
0.9790178283443762 
1.246978790800515 
0.909581426458805 
1.325490600225539 
1.007192767336245 
1.092420558919359 
0.2803486131458655 
1.214404343027167 
0.478243823690617 
0.5425413146641703 
1.414520856461301 
1.104914648018201 
1.576213860266662 
0.8516127060519479 
0.8380445853998493 
0.4782067980509446 
0.4843143031102443 
0.1435902444210477 
0.9169346953156574 
0.3959215982992417 
0.7590922880426599 
1.627200119485932 
1.513320007794779 
1.282391692944787 
1.286345926911505 
1.24195426511699 
0.6426585552321039 
0.7942364669272682 
1.499126067447807 
1.707395630180333 
1.004836765170579 
1.348854180384355 
-3.995774498288533 
1.263735738647854 
1.319211386656904 
1.071418298145552 
0.9880344343174984 
1.562059973192721 
0.9935742563465283 
1.013329751585035 
1.302382865890806 
1.29704215421318 
1.327463175364457 
0.910333567388264 
1.111066717637478 
1.727068351134371 
1.047635764751472 
1.712512148329487 
1.680226041894682 
1.27722596874178 
0.9660639147162815 
1.130847103332841 
0.6258415058624409 
0.296123069228825 
1.14289681290468 
1.339346438727204 
0.4154315621365389 
0.550753529040791 
0.74976292639008 
0.3485345495355969 
1.390026924945542 
0.3608397865675581 
0.9505974675219263 
0.7902241203736295 
1.04037028736853 
1.00331988387018 
1.944422667881479 
1.122654774837923 
0.8446199488924099 
0.5901408131429257 
1.159848847871587 
0.1439436663236327 
1.74346858221924 
2.028779490361098 
1.302152724045034 
0.5457500721378508 
1.928701111622288 
1.063851592453879 
1.461329876316873 
0.2114740566374956 
1.06309106591018 
1.403653991460716 
0.5663549163879511 
0.8683802007659113 
0.7425748254158088 
1.021565291823211 
1.558481487087507 
1.287742460407987 
0.766985736876855 
0.923290518428198 
1.057413534586461 
0.8371699905661248 
0.737901355873152 
1.430195615725464 
1.289623287929208 
0.6251531545172534 
1.260332426005585 
1.363588712501947 
0.5482290855020454 
1.797460971207098 
1.105557546357071 
0.7638189841298311 
0.8924691806734585 
1.250722895759184 
-0.1364895587078302 
0.9724544850663717 
0.4837373938639151 
1.24753387767467 
1.27575849897821 
1.570281184262587 
1.016043324196061 
0.5587708956706778 
1.091405429133397 
0.8415860622874592 
0.5492707687441467 
0.6433553570061364 
1.525872361317136 
0.7792245894132966 
1.46979692205419 
0.7741158921432608 
1.296677589223602 
0.4313246202903369 
1.756351160038997 
0.6854844972538107 
1.81936025434782 
0.9919800911734499 
0.7451138012803037 
1.995549630491821 
1.177068056357259 
1.296932435021699 
0.4940716957013992 
1.745129180177221 
1.318749136948701 
0.8531084528335167 
0.424138040292332 
1.353911441738129 
1.059773422603103 
1.250444625075488 
0.6745176145944273 
0.4925096544929082 
0.7368388011037248 
0.4464211809425064 
1.059224109731899 
0.8455846037702437 
0.6550780252203514 
0.69919342071515 
0.1523436828729593 
0.8640077619065623 
1.033051648752023 
1.206114115109196 
0.7722114486328265 
0.8999584866898358 
1.444254547181912 
1.017685461884171 
1.18892745634423 
0.7431253939342005 
1.586696759772602 
2.14623321511733 
0.8585779503557824 
1.241432090738291 
0.9289646101639318 
1.229027367748826 
0.4271394869020042 
0.8461393668807448 
1.234447221365468 
0.9818813331002503 
2.165815807497938 
1.170695925920193 
1.090526396502721 
1.696547151281645 
0.5960821450468042 
0.7728297301406278 
1.778856697688849 
0.7242184933442334 
1.339284413484214 
1.422296819911408 
0.7345399653210171 
1.545354785738482 
1.123498261939836 
1.238721322246677 
1.288221182677905 
0.8709782739584278 
0.5166467029240793 
1.159603308801247 
0.2480899780283177 
-0.4747645525366015 
0.9751979648494038 
1.056164361421951 
1.269110624271883 
1.081152357266735 
1.576496746100611 
1.492776557009814 
1.017618427174423 
0.8231277813997346 
1.488407603762061 
1.142227421512509 
0.6080354216427436 
0.2757231474042 
0.8412252154838522 
1.697489393076678 
1.014244146948209 
0.8507434657583439 
1.053818491925868 
1.404022733808307 
0.7315347628382792 
0.8975128119300581 
1.464703680908833 
0.5577697206073329 
0.7903266423104593 
0.7320480405142032 
0.6326431064327267 
0.7205184391944939 
0.5742261202739101 
0.9603108715155156 
1.235332515051216 
0.7905005749208655 
1.152318073746202 
1.7835870903692 
0.1454566892249105 
0.83267145338836 
0.9641393060810355 
0.9244113794669061 
1.100727788296264 
0.5028506560123756 
0.3785671907672982 
1.268357653926428 
0.2773224296092327 
0.9235845400936368 
1.49366799854533 
0.3127576888104553 
0.3814068076119529 
1.494706926989678 
0.7059837725937735 
1.192401355462898 
0.703070029580816 
0.6350714124506359 
1.004568524335332 
1.051186133338309 
1.340210585389271 
0.4278149804288016 
1.478324837626594 
1.659631925410052 
0.8349135808033989 
0.7789179621823215 
0.508748338290843 
0.9903726031608067 
0.6743441619563423 
0.02949274486043013 
1.717040930576357 
0.6486855800597667 
0.1494430656598518 
1.46047852702158 
0.9857498288473775 
1.25892767208944 
1.180102864165438 
0.5441417929234635 
1.012204546392311 
1.357105416833556 
1.093828791762203 
1.531268812283092 
-4.513809421047159 
0.3179091053781643 
1.134990575819775 
1.412290535045407 
0.472023307650934 
2.547107462064757 
1.803574660652074 
1.552815466964622 
0.9797247152310389 
0.2398258114092691 
0.87645942400387 
2.419934208093647 
2.030278649012833 
1.000837914902982 
2.251807429868777 
0.8089333631022301 
1.351262191545354 
1.394474527772665 
0.0923528819667644 
0.05967060928323859 
2.114565494486044 
1.310965872539081 
0.8635157459802912 
1.043848082344671 
1.028139895662056 
1.330619271273746 
1.245179705528912 
1.624187608928108 
1.189633279537377 
0.7878582133892277 
1.247192623341736 
0.7097470739399473 
0.2869761191478429 
1.103875118480049 
-3.043170969267937 
0.5390284330372349 
1.237205929184899 
0.849129233125496 
-0.8360722316091236 
0.6310811708006483 
0.7003264757001622 
0.8239175960265936 
-0.2527554488287112 
0.7282125073192418 
1.065539354210179 
-1.454588455762601 
0.4159006790570279 
1.225222130727958 
1.146721358574935 
0.7602536196629288 
-2.715359076995389 
1.121275056315364 
1.120113823418092 
1.635307585216984 
0.3965235701647514 
-2.026221747987706 
1.724460530021466 
1.337501427205422 
0.7284555685072487 
1.148994712370477 
1.901488647529998 
1.191145755691956 
0.6453689944012049 
0.7534501644651144 
1.068474477606016 
1.342241898603563 
1.440255209757143 
1.153251869182123 
1.543810459692621 
1.783898338829654 
0.2834561130075601 
1.344212165082897 
0.3516257627268733 
0.4357694698386491 
1.282565959375988 
0.9618608382460669 
1.340436715085832 
1.447995488865769 
1.439798025673492 
0.9199899173590881 
0.8171166034800759 
-0.1068214873555597 
1.180232348016806 
0.7849581260468291 
1.18194126760358 
1.188779551641963 
1.189756430456121 
1.104948376129152 
-2.146143542284263 
-2.408042555810681 
0.7048288202127647 
2.029843203353126 
1.329204072323088 
1.544049879322714 
0.9766725135174695 
1.321431046826868 
1.049823475473483 
0.4033383291831324 
0.9043148082900296 
1.593936854148738 
0.6836878377733208 
1.389595550055324 
1.000408294056299 
0.9594215332260654 
1.470640547892193 
-0.8218755544487306 
1.331685957799335 
1.252485047409629 
1.945310177379878 
-3.271209888233554 
-3.726049352078614 
0.720734590489944 
1.294019185893599 
0.3390640369122221 
1.625638939862989 
0.2427556171356602 
1.0540111939132 
0.8629353286158893 
1.508638645633738 
0.7360138112428796 
1.368559415406463 
1.00165321783734 
0.8439460138380236 
0.09845642624289601 
0.9539037020594697 
1.383178545470645 
1.655009753037502 
0.6141009431303089 
0.6885904784303742 
0.9406419766573404 
-0.1262217572343423 
1.226471615638059 
1.379942715044528 
2.613333142439097 
0.8353347781207155 
0.9472516823874272 
0.9809193145535334 
1.391506880255983 
1.163641217601026 
1.500974994824995 
1.943960784742039 
0.7576395729703141 
1.18436380995906 
1.170850775758824 
0.8883968325926391 
1.626060159986353 
1.162191269674132 
0.8796160202248479 
0.5152914556555355 
0.793075763033685 
0.9931620485030171 
0.757031885758255 
0.8829648118710922 
1.411950209713388 
0.2338123701661112 
0.8775038253838555 
1.097857481573255 
1.311143000567522 
1.030645593615759 
0.8242617557391487 
1.565756031210027 
1.031153963152003 
0.985322747340159 
1.179778192076734 
1.435827419315768 
0.1732439041178073 
1.001100073763513 
1.152280464524582 
2.603361763318292 
0.5910398872312816 
0.9095988439825849 
1.604203150996636 
1.234634111568291 
0.7820409311989542 
1.756593878706813 
1.246500650697524 
1.807322841738703 
1.062517250715666 
0.731275001642423 
0.6644531257473355 
1.557877151119334 
0.6865367493388412 
1.030648612413587 
1.238631199037399 
0.8709672803425362 
-3.120730290474768 
0.6439703543673015 
0.8566535377416153 
0.1697147826547675 
1.074277422316322 
1.065980184949824 
1.231538857210778 
0.7047264701279931 
0.2871280121934201 
0.7496501279029721 
1.665194732988219 
1.29701656205707 
1.151795630941427 
0.9447719033981989 
0.4343401490328725 
0.7024874737708782 
1.110337723590107 
0.8511987489635143 
0.1809847962910417 
0.9263735073515393 
0.3426907500276783 
0.8496007445451607 
1.586948065681042 
1.486488917543015 
0.9195577610561051 
0.4839974159355798 
1.231088050715423 
1.085627311504294 
0.151911811518416 
0.8549045619422847 
0.8963389914787436 
1.048988537412574 
1.511351059187331 
0.07737009651457008 
0.8322893043485111 
0.9408051102475521 
1.532855740482143 
0.09896780503063669 
0.9748709702050975 
0.8782283784998511 
1.284954293257542 
0.7246790696680681 
1.022073803067582 
0.8721654348277388 
0.8530171136520506 
0.6871438859846597 
1.525686646703033 
1.186009920594197 
1.136473693097911 
1.241860368833654 
1.12423473489048 
0.3010652262752055 
0.6785751695779727 
0.4839153065070798 
1.086930386985571 
1.434846783356589 
0.9530965834160422 
0.7490498000783016 
0.6528953138150534 
0.6337777790077266 
1.027510583599932 
0.8329937755078483 
0.6217062049906685 
1.472146857377449 
1.69158179182556 
1.037287677705003 
1.375787481486286 
1.105279131581589 
0.3205150756196195 
0.2986999440721048 
1.499905456971014 
1.338225948640362 
0.4201838269803172 
0.6728361703933814 
1.230991152014705 
0.4361601904648688 
1.648790183524917 
1.479574475771062 
1.048102861805758 
0.8166424151087773 
1.196641454531819 
0.4131115108295322 
0.7024093103053778 
0.8751952440937738 
1.849867706865632 
-3.461244248834887 
0.7894329480169172 
1.045003159468648 
1.510935698498134 
0.8969992544663435 
2.802399088453666 
1.034659686434109 
0.2070810210124744 
1.26588274983338 
1.388170515293908 
0.4709655476307176 
1.437308416460066 
0.7071718295063483 
0.5697381500002705 
0.6929184982436892 
1.612976966699618 
1.038701040229326 
0.4433557291375116 
1.320530538579259 
0.5537383805446593 
1.362990710480416 
1.012478786177488 
1.222205538180007 
0.6923865624506585 
1.850787207413746 
1.067984626437439 
1.327785878123105 
0.7410341037676226 
1.462480444804853 
0.8808805123441874 
0.5010902230389532 
1.072667819928462 
0.7398054063270968 
0.7403269053309864 
1.114623206304513 
0.7272774709186062 
1.006050193521972 
0.8856258641861451 
1.04933287907506 
0.6743380575377379 
-0.04787697007803875 
0.5738734359707137 
1.474611208728666 
0.858636520284377 
1.073576708869187 
1.194544787939188 
1.097078774353985 
0.9199017670719725 
1.393048337275486 
1.428588231889511 
1.105402168747448 
1.138915020871329 
1.274383562479994 
0.2779811852658003 
0.6891398609498716 
1.250163332262946 
0.5139466488380008 
1.492938633477422 
1.148842830493819 
1.098799768671306 
0.6276337353682593 
1.425421593322473 
0.5540896202581355 
1.428924336651609 
1.717730905114287 
0.5998694806392069 
1.101207563149563 
0.9415390851060521 
1.403445440656258 
0.8411635500759794 
1.005163720380518 
1.651505822585176 
1.612746145076288 
0.7204716945122074 
1.216839068398816 
0.949040634605583 
0.5635238647785429 
2.023129620685804 
1.073471538848857 
0.6992548017103501 
0.5329718321320801 
0.5237255813128845 
1.390017726836688 
0.6992210363643624 
1.170288099752832 
0.9691949915282708 
1.612446135715184 
1.819414121405174 
1.961974475361718 
0.7283964474187071 
1.313443809512032 
2.100669788702308 
0.2923394961317262 
0.5464295725860501 
0.05101558946826808 
1.527987470079063 
2.073049399341741 
0.8859789840007419 
0.6072818286668629 
0.4898992634507974 
0.6019052953482601 
0.6771405173749521 
1.062858667193557 
0.3833411095880288 
0.8564817481469926 
0.8636732358267208 
1.071684868266285 
0.7461912002306734 
0.9375997880654034 
0.1437413746210721 
1.123274712087654 
1.308980235943568 
0.4045465155392877 
1.053950665639938 
1.384851931494947 
1.234288906278298 
1.092704377515013 
1.44352421426747 
1.456839725073519 
1.372073681981092 
1.355632832016647 
0.06999198368560754 
0.4559515087941101 
1.230508022950599 
0.6203380121769172 
1.629796901310802 
0.3375360756314812 
1.182649903696813 
1.093076462583481 
0.7293250007501875 
1.21025950725836 
1.19835358768124 
1.92231824592131 
0.7979471308230146 
1.554422260160294 
0.3830723696755896 
1.655699902580014 
0.4129610610556558 
1.310379666107212 
1.173311228166612 
0.8468378997989129 
1.104576200327191 
0.2634660240984011 
-2.155001532625739 
2.110132580950929 
0.3793809202539493 
1.058184332880165 
-0.001598792782343515 
1.496721892859627 
1.678025530529317 
0.1456193083594767 
-0.08791918261864837 
0.8459896503701526 
0.1433242893281995 
0.8176813393974998 
0.4606886509330536 
1.758195659544931 
1.487655178604855 
1.017352550083354 
0.707293026306076 
-0.4962975868636803 
1.152886915724331 
0.6107923692857909 
1.300683319921845 
1.151877441371602 
0.5170683867402945 
1.193468947284007 
1.189745309739059 
0.006371409290847715 
1.308230423404039 
1.040783061620979 
1.090173493531865 
-2.255415896933309 
0.4731832257512867 
1.023596262106696 
0.2559563115130164 
0.8637317559134806 
1.548072931875755 
0.5827169030194413 
0.1589684482512252 
0.8859547330004485 
0.1420900428141843 
0.8382049973078227 
0.9250403422445223 
1.472630472115027 
0.8627415248990435 
1.303338420070615 
0.2675197371551868 
1.19185847106925 
1.091090402097497 
1.147589722662546 
1.291711552432686 
0.5082078025112796 
0.4325074065657762 
1.035664060916156 
0.9138292758397626 
1.298373881220361 
0.2901108875764654 
0.7620328303618663 
1.030630884383049 
1.660834642194776 
0.5793768660638077 
0.8985226834678302 
0.03740180946784132 
1.433139595985391 
2.760579785194949 
0.4177419527622425 
0.942217144701034 
1.536652403976142 
1.105747723450563 
0.5745374779465238 
0.4792139311916605 
1.421068415148292 
1.646270417457032 
0.8063022401011426 
0.8392730045551861 
0.2874024946611081 
1.775375222138657 
1.436962564596155 
1.205791789780276 
1.629140084479396 
0.3424029998615162 
1.661884441846806 
2.069879031642867 
1.022826385767785 
1.106948655188571 
1.151790279992186 
3.267510152454482 
1.160525085284672 
0.4539268607951071 
0.2989568521525923 
0.6433406651008653 
1.093966987532836 
0.1106120754821275 
0.6042681590631797 
1.241394362417781 
1.567356264353142 
1.006272061105496 
1.287640550286039 
0.95179705984178 
1.287597240871039 
1.276155157281213 
0.7449962914057117 
0.5708059315934492 
1.240084218826265 
0.7923450312486051 
-0.01941581814225946 
0.7248742914959374 
0.9204841659103284 
1.428937704233805 
0.6318400312597036 
1.632418644094179 
1.269684767704178 
0.2754105186964935 
0.6071790906429773 
0.4476802348622101 
0.8751075416560907 
1.585555398913969 
1.051538008690135 
2.206017337688949 
0.6954491417522159 
1.350418950655664 
0.344272830445448 
2.204147467938376 
0.4992884025360799 
1.263045041960651 
0.5193435067578681 
0.1205954394858424 
1.512166640939154 
1.169673946893161 
1.772658716923996 
0.2210256886367608 
0.7474507526752924 
0.9686484761404222 
1.501300228054135 
0.9292223874636736 
0.6762123500846058 
0.5703757095205435 
0.774892075568087 
0.8168527206419862 
1.754507241108731 
1.283272187126487 
1.499488431594011 
-0.08739675662879751 
1.205913157189067 
1.301857964305442 
1.824744589422637 
1.246826065007037 
0.4824084984870571 
1.601713275603055 
1.281325813410033 
1.171478821681181 
1.953693683810493 
1.664610869988278 
1.526412149477469 
1.742928934802752 
0.4890111599566021 
0.6744239935313272 
1.074887870728062 
0.6866632606896904 
0.4264412621456063 
1.284761505620418 
1.752192074860615 
1.66684137010363 
0.9155282093121062 
0.2213381157748582 
0.8470188526530134 
0.05372699740721761 
0.147477849940782 
1.43364119910079 
1.480740275967287 
1.720103252536972 
0.7288471223376736 
0.1811965061632481 
2.164454825037071 
0.5796771876357265 
1.547895615279785 
0.6487999971278152 
0.4681186919395861 
1.736042038660551 
0.7947784280694565 
0.8698167075735852 
1.795025166673401 
1.321228166122035 
1.394001657278623 
0.9723568174544629 
1.332017026918238 
1.018869939728927 
0.7987373511960776 
1.724650224798365 
2.095391073762821 
1.031622958525128 
0.7468512415416365 
0.6297733972573832 
1.341161228780567 
2.48123901101055 
0.5392166020371504 
0.3379134864256786 
0.3271269984780004 
1.461365391388579 
1.584076972659991 
0.4090743281984786 
2.216243671653305 
0.6114324125158602 
1.582395066035111 
1.55268144490449 
0.8118207260831234 
0.1211654999944272 
0.188514253432478 
0.9078478332832783 
1.787983680092715 
1.487632639995494 
1.634450676914375 
0.5678112076211551 
1.472374285055779 
1.953382595192481 
0.8000209286700274 
-3.120345593599931 
0.3109124656710566 
-4.187699616247666 
0.8507812105318803 
1.595409148590018 
1.326465960593141 
1.100351991908201 
0.710683500515143 
0.8421110623015399 
0.6367062154853205 
0.705816132471546 
1.630833377991167 
-1.940429411400705 
0.3766159520006564 
0.7732416508445544 
1.266239639734835 
1.415407564353604 
1.24970860828705 
1.320898045764843 
1.390285505445457 
0.7009290508473615 
-0.9478565910027326 
-1.003485942468515 
-0.5248143056371974 
0.1496518609301516 
0.2907467538060528 
0.7523497056648037 
0.7288596634387565 
0.9630200359282085 
1.186666554080895 
0.09859584833689618 
0.5881478350599065 
0.7666286057821237 
1.06000995934159 
1.562684168537679 
0.8950362896520422 
0.6895127980835102 
1.255615959831637 
1.263421212918278 
1.003410391741622 
1.835371475145846 
1.330929293681503 
0.512001818976964 
-1.441468439776447 
0.2914577417660882 
0.7431957961024792 
1.209070994980912 
0.9130604912439721 
0.8337750777340139 
0.8260616121258736 
1.190067935125722 
2.162104699761253 
1.002244961789205 
0.9280514210915178 
0.7097307536098156 
0.7242421903351387 
1.353289280425207 
1.024868825362218 
0.9018442906817775 
1.650226877439112 
1.423346050103069 
0.8476154537508083 
0.9945338504975401 
1.7910013577141 
1.496774684652074 
1.140938163065161 
1.277510854081457 
0.7320105404574281 
1.136436825676269 
0.9303356602983451 
1.696011269131009 
1.551770487136461 
0.2402906660210949 
0.7727985576033977 
1.06414141941765 
0.6996326843074971 
1.123467316653609 
-5.08097764146765 
0.5901462081810115 
1.177370572828265 
0.8894393606890886 
-0.1838339274652726 
0.8219504916995243 
0.9617160044436047 
1.975948819659488 
1.103050976851471 
-0.06176420566259999 
1.163607565909543 
0.7930025020246045 
1.190552708113019 
1.05322241800147 
0.9132944598489201 
1.592861542027066 
0.6883185953845922 
1.108328586685076 
0.8805792299569385 
1.038352453324376 
1.331069464548243 
0.9132559702171833 
1.349108655547176 
0.8566975764705761 
0.9731427073133326 
1.138729174643114 
2.407513890938307 
0.8804324155641102 
0.7329316015217927 
1.340432194919637 
1.207710864736184 
0.4296716582450154 
0.3925417055290216 
0.8862119902467869 
1.675180568734971 
1.961420389240417 
0.7325111370773862 
1.297519342773595 
0.4608020045054644 
1.981730352612823 
0.2886848606836434 
0.8136066946713711 
0.187493463558533 
0.7489004688785128 
1.448001966891872 
1.15087595023579 
0.2012128844637849 
1.100998134600804 
1.212129698227844 
0.8950094707003556 
1.072608089841159 
1.079866577327998 
1.811320435328553 
1.272174293297615 
1.032502889964778 
0.5923020694018482 
1.727943734177283 
0.6910835323502582 
1.586506462146485 
1.327081733240582 
2.449467943512407 
0.93688001709527 
1.788314589183377 
1.263711545622662 
-2.339007794914603 
1.428503034926617 
1.316237800372119 
0.9260075429055471 
1.217746679425426 
1.438490909965795 
0.601556881883305 
1.067934397074268 
1.303285529010626 
0.6536041379495798 
1.785845070229956 
1.484371249130088 
0.06535784082185064 
1.183887965587805 
1.053172071196346 
0.4527921734063045 
0.800964890988451 
0.4242090405166931 
0.5633170079136028 
0.5230457602208614 
0.2989804935080544 
0.3772490385269113 
0.5830975319041362 
0.8691698637748934 
1.342192390025335 
1.4259921152328 
1.365637894834937 
0.9929629412634623 
0.03935702644377861 
1.489667517544697 
0.2103810108762224 
0.5500536331536513 
0.483220902836436 
1.18105385927551 
0.6768516649451183 
1.74740920205423 
0.4195691397315611 
1.36925682881095 
-0.05485321259334137 
0.7545176936853109 
1.149883844173721 
1.480125761838095 
0.4496757256857691 
1.744379748300145 
0.555184077538297 
0.567829567832408 
2.299773792068877 
-0.20739498678019 
0.8523306675075053 
0.5328207312030958 
1.451173839462734 
0.3632591181030108 
0.3388331079534532 
0.3637885040662709 
0.05002465743320391 
1.06760898534926 
0.7183511886839584 
0.3673415252334795 
0.2148243153120061 
1.381655687941121 
0.8141123465093112 
0.64367717547121 
1.47287655586608 
1.182995173978895 
1.02745342819143 
0.9658555641769657 
1.208559209923697 
0.7315504255358993 
0.8724938079312917 
1.387020222288456 
1.60879352701192 
0.5267186985651946 
1.504090122547803 
0.7472413539828486 
0.1339976758424391 
0.8496584554154009 
0.9792062792543424 
0.7983015653242248 
0.8529100092641571 
1.070207839182404 
0.335410504415708 
0.9420697979608702 
0.1479766419884097 
0.9189014671745583 
0.775720326326964 
0.1141674019498591 
1.363096386109938 
0.8978526475971962 
1.804650334886045 
1.079254488076628 
0.5063161904974902 
0.08931727685395047 
0.9191386006994554 
-1.906917417997794 
1.542719794102226 
0.823435975558914 
1.307488150680091 
0.2131347619986181 
0.7533066020538371 
0.75501284539691 
1.297869027379743 
0.8943017815796638 
1.198411091560201 
1.869865356216427 
0.6414904591275504 
0.8232964083454762 
0.3221055169822539 
1.348462514213219 
0.6967214838337152 
0.899485911973596 
1.173730905912869 
1.275752909384401 
1.321619719371604 
0.2327386295253686 
1.283826351348549 
1.458530940151491 
1.165356531126561 
0.6877372324828969 
0.7340023447648254 
1.499264946175136 
0.7301549199425459 
0.3053638964502531 
0.7472905680675949 
0.6308853810971989 
1.311955522053063 
1.146268159534215 
1.594075714396614 
0.9172569712030106 
1.649649396948217 
0.2330625819263988 
0.7064166731450323 
0.6885685195315951 
0.9947981693728924 
0.107865507639091 
0.2165527850007634 
1.77246393849654 
0.8825223840780824 
0.8300685864805377 
0.3631702066686731 
1.256407834973231 
0.6593879842923389 
1.650040512473815 
1.337651071718686 
1.249867023983698 
1.611935380166516 
1.45074119502532 
1.534864531967064 
1.477590303351235 
0.4491881184850111 
1.198379955693501 
1.557400997057142 
1.403642265136916 
1.227567397174406 
1.10498549660543 
0.9143396242205259 
1.149415814316207 
0.04439903136989301 
0.8058328337589346 
1.640870569305248 
1.35982678407792 
1.898482478404466 
0.3023955275020358 
1.453423113230408 
0.7073072568946396 
0.2486175133158125 
1.277404709524968 
0.5880569581062818 
0.2893660325727516 
0.606743419858501 
1.232957419191624 
2.736301326516746 
0.4697497845681296 
1.292020674574165 
0.70567064665289 
0.2719468307183516 
-3.277992544685127 
0.9321824150868432 
0 
1.628673030204721 
0.3950819052022679 
1.776816366513053 
0.9367810269998246 
1.067717498659103 
0.2440311295980175 
1.219463966638359 
1.238492110146008 
0.7428214121503121 
0.7479954186202271 
1.035099399624587 
1.036144072845439 
1.220345537063797 
1.215859209508383 
0.6978647777296872 
1.343147554938987 
1.153382866981687 
0.8049729492287376 
0.7383309061308226 
0.6015285485674612 
1.94387271622842 
1.227479527193276 
1.540965772019126 
1.221163987667781 
1.942300181630477 
0.9561653628183976 
1.692684522089589 
0.6070140820026161 
1.759121539373424 
0.856109568493492 
1.127112720513862 
1.005244327893119 
0.538554535509585 
1.282370493803384 
0.3979916297239327 
0.09069648913747896 
0.03884173185826435 
1.118685184116263 
0.9194997809897967 
1.990997515855482 
0.9594416766813135 
0.8531901428240812 
1.695196162610047 
1.404043692890838 
0.9786372869996317 
1.144691815874009 
-3.259564959988085 
0.608711171516908 
1.20055069680404 
1.266989125343344 
0.9413460783218208 
0.8587615144200782 
0.5608917045766939 
0.7357408970430729 
0.9239955795364817 
0.6187689465678898 
2.105625786920185 
0.3509389032661533 
0.8982221311222343 
0.6642896810854252 
0.3568193772663964 
1.012717051375905 
1.275907802673325 
1.793678839201118 
0.7373194008769632 
1.632579125921532 
1.162400828565237 
0.5878077115157556 
1.30941557304943 
0.6606503968150315 
1.353689264050039 
1.313845954339141 
1.201486162325361 
0.6246986517720964 
0.727602861620809 
0.7526507216991543 
1.30580688817724 
0 
0.8679070356927795 
0.7319936656628911 
0.711859761327617 
0.6111107841576464 
1.072214213641346 
0.9855943754497536 
0.8941493157136738 
0.9516881312234683 
0.8400357125906101 
0.9145100026942049 
0.732640352229005 
0.9186433727032401 
0.8007560151791409 
0.7340069651046736 
0.4019617579809013 
1.537585027049817 
0.9465882138376983 
0.693578272815355 
0.1227617963384855 
1.781619173418494 
1.042595343094999 
0.6052629260539237 
1.137936163811769 
1.313166378227591 
0.654059898896575 
1.318736031020617 
0.9077422992753429 
1.237766372803218 
1.777351980574123 
0.7022978485177105 
2.07482986616612 
0.9939429383388039 
1.714920082807256 
0.1042271830134154 
1.949521018221188 
1.071616138417262 
2.309194248086528 
1.495044130435708 
0.7877201635596186 
1.768638890621179 
0.7575489027895803 
1.103499055057911 
1.25429092426806 
0.6872218251214849 
1.293354986125101 
1.060884328909321 
0.9941039697002486 
0.8497789580654999 
0.5202713693313601 
1.567134796775802 
1.27450348101724 
0.8785821041499646 
1.963371101571972 
1.421107996703793 
2.077728273940202 
0.8092306058689026 
0.6748377450539831 
1.45944810050054 
1.407605056949105 
1.373939484043137 
1.166835302278385 
1.746740258438077 
0.6138678300835391 
1.534446216674676 
1.315656183982173 
-0.2287982847921721 
0.9098488328138398 
0.6736344640432766 
1.744960889282556 
0.6569910814504192 
1.275047102026557 
1.298798415212621 
1.275561721076151 
0.2995619490202951 
0.8199938549020342 
2.132823635603343 
1.752014116536608 
1.654158973574611 
0.6233274187398696 
0.8416781435786086 
1.69749683113071 
1.214451013423208 
0.8694905758871895 
1.275897159699498 
1.341257294556019 
1.086997974796703 
1.61650498478136 
0.4514315125658506 
0.5502228651251977 
0.6709843303083728 
0.3056937839533604 
1.381133725766068 
0.8701928736296525 
0.8660439424877153 
1.378965845744833 
0.07061535891508465 
1.339933868993791 
1.363719029378355 
0.6172930103860491 
1.148057173672169 
0.7049803774576028 
0.3170160842391577 
0.8375910616939098 
1.218886714906634 
1.23504920721286 
1.095739184601895 
1.321218689306183 
1.393164546216074 
0.03352085795389771 
0.6862891095282098 
0.9011599117499111 
-2.496329780814371 
0.281204411434484 
1.01434831608612 
1.439481663761004 
-2.104820865890239 
1.630831236878921 
1.151535327399454 
0.6101674940205168 
0.8070062599159088 
0.6780650886741952 
0.2108457723262911 
1.132934768481383 
1.077990624866762 
0.9145540377584709 
1.295147154549971 
0.8069839873984727 
1.859676107724313 
0.8981724040001968 
0.5947096292340863 
1.315104239848778 
0.691676215104032 
0.4409705627928983 
0.5534608012069997 
1.086918350127595 
1.130505665010481 
0.7988424226800621 
0.949548634400129 
1.925684968486722 
0.3761982270219277 
0.7031224275018905 
1.051252289710513 
0.3241592324449906 
2.04174352405154 
1.384809100025848 
0.558064622390254 
0.73808248134483 
0.9507295678547467 
0.6953955063139382 
0.04134543163866106 
1.825187291148438 
0.1701286064763878 
1.14424191015604 
1.028016445349533 
1.424333318964334 
0 
0.4733682594791324 
1.312299949087921 
2.138731128427471 
0.4785042637422488 
1.180648651784224 
1.506960635234363 
0.2738319261045535 
0.5075504733874608 
0.5102724189473827 
-3.446520020479072 
1.199724031153831 
-0.9134090161197391 
0.5797828896083268 
0.7519547281345542 
1.873724502908224 
1.002424894407948 
0.3778516101460275 
0.3750478641142529 
-0.02890948544117969 
0.8007242846512815 
1.051437463452685 
1.514893769504247 
1.418358765380559 
0.6439437331170261 
0.6615581645801654 
1.328166556471891 
0.6553198511517789 
0.5689860867781807 
0.4116960790098104 
0.3593318218529442 
0.8379864631490845 
1.067846387511252 
-0.08205906486467177 
0.4409252758793006 
1.30200381109143 
1.343258102213704 
1.336385753350003 
0.388717891392438 
1.254094954984523 
2.504997914562126 
1.037805452540798 
1.435279005643022 
0.4282556739707236 
1.105691416842836 
0.6917509854741559 
1.644608252657274 
0.08573702234744594 
1.722581486111788 
0.3579064778418347 
0.4038223445376703 
0.5329278118596896 
1.461838999097199 
0.313534457880688 
2.298409658496902 
0.5954047879119329 
0.5486996611881974 
1.279016586739372 
0.9255208739890222 
1.054653888507004 
0.8044377201685673 
1.149524917908559 
0.9024147418202441 
1.200948345162069 
1.332307302391774 
1.217771879243573 
1.462426032103533 
0.986188541111967 
1.088021073784218 
0.8935779082250358 
1.18850037426216 
1.072687994481067 
0.7855550402916258 
1.21805829222245 
0.9229075815844833 
0.638430600281057 
0.8737496362022016 
1.30897757382714 
1.223889825844625 
1.173313527876743 
0.7706562175663869 
1.768520066306015 
1.742672298483929 
0.6086175037334142 
-0.002900083309226496 
1.238301140771559 
0.3161990440080767 
1.05304811192382 
1.009036988035692 
1.036400245553499 
1.286664751224296 
1.383147674263647 
1.160281466433286 
0.3690395981879134 
0.4393090270824778 
1.372702272707644 
0.7423321995005632 
1.892353394662564 
1.017660238730733 
0.4297335069016129 
1.218152096899496 
1.77923999511349 
0.8902817826813239 
1.055521111637583 
0.3841218640015689 
1.649340777797769 
1.080726629931083 
1.04623544738377 
0.8728382228738411 
1.163907603632236 
1.326315961787053 
0.6659470375245068 
1.3181477227174 
0.6610404486378658 
0.6026145675749334 
0.939609015448388 
0.7330260582773565 
1.184642469387261 
1.815858075113338 
1.543120190162508 
1.71776056416088 
0.9482723158276116 
0.3974021515637665 
1.000441379346184 
1.708531738797814 
0.6159087499034837 
0.4223912939206956 
0.874833728401841 
0.7966344971898499 
0.7613988385089853 
1.551756885765629 
1.089798368604552 
1.485052965430038 
0.7241390103862426 
1.069339860137017 
0.8946717162829623 
0.9429204023967926 
1.301445643284515 
1.244598895372915 
0.7714886635420848 
1.097297509969681 
0.6060818148334358 
0.7722450566431109 
1.148318813744071 
0.7661345704754763 
1.223840919116997 
2.238536891903683 
1.271383526823033 
1.16563924562807 
1.740142432028221 
1.400794398762775 
1.107048279132621 
0.7520780953674379 
1.260131698120526 
1.1864723041167 
1.695075936071076 
1.151729400309391 
1.224487241077775 
1.428546431118733 
0.2733705518005607 
1.130462343981251 
0.9115617189028824 
1.168687511413788 
0.21426741718755 
-2.610599104667882 
-2.627113304407278 
1.155597243753506 
-1.796364673936562 
-2.087995431116302 
-4.805814737784488 
-1.965163617021336 
-1.728846846458098 
-2.560976464249643 
-2.101381099242076 
-2.427317510735324 
-2.502080964390358 
-2.202948110144137 
-2.222036127272164 
0.5708738741719271 
1.298731849935874 
1.777184836218074 
0.8253424479279245 
1.580538431634759 
1.156287494380693 
1.067534479250724 
1.16398222342531 
1.491539701786946 
1.173102447706491 
0.9892403274790244 
1.086169321764629 
0.8815967381476978 
0.7003856750032841 
1.362244150872866 
1.103495592515684 
1.482456604785625 
1.214291712463942 
1.940126299746288 
1.602549613944638 
1.525337589016612 
1.280782584424854 
0.03036124814729191 
1.135955043623324 
1.785041296612399 
0.02225591205137088 
0.2186708537552383 
0.9630521682999174 
1.29277456732443 
0.9657457487677672 
1.205063655127324 
0.8352793551689277 
1.3896512267024 
0.8770747301803696 
1.512797385866095 
1.553336476773796 
0.764092623451104 
0.5512689293683163 
0.6353096535241578 
1.651595699223372 
1.317577587684642 
1.353973730410542 
2.722783700745812 
1.271594340740977 
0.7530483785571841 
0.5867348738400859 
0.3797548363494366 
1.154679930982655 
0.7183896731358744 
0.8788050627368074 
0.8584931277110607 
1.119377856434234 
1.315974378223146 
0.9509732265259998 
0.7300351861540609 
1.552978782074755 
0.7251822803685127 
1.299750957873543 
1.000923652076484 
-3.484679676607273 
0.9253954064157666 
1.009445308306587 
1.475246247396682 
-1.773875149214911 
1.852291424072959 
1.066306212100055 
-2.410861097284117 
0.9071583828416724 
-3.213338296525085 
0.03787245206077677 
1.00892691628065 
0.8941297927985941 
0.5039090991609384 
1.049524111525411 
0.9166426643775348 
1.451544783927786 
0.9488651177959783 
1.04602813418148 
2.023069085417731 
0.9186219527815906 
0.9477198216047441 
1.659116590041953 
1.040487849349531 
0.5450855054236918 
1.510429476148804 
0.9888742233480226 
1.038909350123659 
0.5600584340037227 
0.5055070824541666 
0.7614339432452547 
1.335539406219397 
1.040763506487272 
0.533561978053692 
1.033017793725197 
-2.508217983203032 
0.9380490958190687 
0.5688133135996922 
0.5870466582868891 
0.9475449370972802 
-2.932220803640374 
0.8342798092750066 
0.7757135244426616 
1.052139797003587 
0.7791677602663281 
1.701930669643632 
0.6046020865732625 
1.584389321189647 
0.6872670215667465 
0.9183298842826559 
1.232936492311034 
0.4802732332999641 
1.057755670542115 
1.026636378079691 
0.5692628064311829 
1.152661572317489 
0.3220149581636783 
0.4993989260002453 
1.411587327355379 
1.099780961261653 
0.2741610616247899 
0.5630096079020122 
1.932356509713435 
1.188002449354622 
1.067773725903999 
0.5880538336340809 
1.484839586733435 
1.310729122280646 
1.813926849804246 
0.7882775284856046 
1.362196557957803 
0.9593586646393201 
0.5729097878583024 
0.6400003527091737 
0.8852417661228874 
0.7597098287682555 
1.075056774362579 
0.5901742934185371 
0.7046117900374809 
0.6291714020992134 
1.434928757070286 
1.277048193064065 
-1.694891223912587 
1.446822905681485 
0.8191360481769441 
1.609263999318121 
0.8325501564708448 
0.2678966119159244 
0.8232865615626371 
0.9886283371105415 
1.25607871174399 
0.8246612740075486 
0.8842436382375226 
0.8240310882135724 
0.7132120392218427 
1.723074534031913 
0.3243424556606149 
1.73874747097019 
1.147466527758492 
1.492256950736158 
1.019900280842493 
1.55514201703565 
0.218518440942962 
0.7937157127175891 
1.516473182346262 
2.055719868685544 
0.7483767034277131 
1.149752322606726 
-0.1544379889767495 
0.8667662793969492 
0.9950568923229188 
0.9978569120729723 
1.458029087307448 
1.336214571735131 
1.01787482775085 
1.721442543465088 
0.8594284377604008 
1.289029671598692 
2.289448861954849 
1.982681781584911 
2.403731752819601 
1.763982681671309 
0.669972759017499 
-0.2944635230383971 
1.80719626054633 
1.763913094601921 
2.005871588760831 
1.45409544455568 
0.8904088293667878 
0.279145907986499 
1.389225752427193 
1.952593809321471 
0.8414803635327531 
1.441667173151927 
1.541195572108542 
0.712077778344983 
1.135595960467485 
0 
1.485003793278191 
0.1337618191115204 
0.9537711144403573 
1.423327672666222 
1.57246438762065 
1.145355548480192 
1.49280199091931 
0.6302133340465317 
1.12359532567969 
1.205852904369947 
0.6281833414055358 
1.287493761278567 
-0.5234071997783071 
0.8641941092498532 
0.09517524652766397 
0.7676450434959585 
0.4950978721109044 
1.476487721046163 
1.343690231165818 
1.606674233059492 
0.7926099498924568 
1.11396462981215 
0.1044837392206799 
2.497577920193641 
1.563376722511213 
1.428401698831778 
1.130421793134834 
0.8888938483035655 
1.444588707984228 
0.94982706769119 
1.037484583236423 
1.012406556019577 
1.192725320732552 
0.8065303788691195 
0.4049116742902615 
2.111548302428969 
0.06977158137936282 
-3.99302208399102 
0.7028387830896555 
0.03802073216655581 
-3.165005279700411 
0.8376977812473512 
1.415010644710395 
0.77136512378007 
0.7997980003131832 
-0.02107810715143647 
0.5127259963241508 
2.027160760263035 
0.9686795222787804 
0.7233129756208516 
1.289810848923298 
0.5978543814476568 
0.9481675663476354 
0.2445167213592643 
1.247911428683761 
1.061978024902547 
1.208131638731316 
1.657029759796711 
0.8393534262196173 
1.644698708618037 
0.6650281711781526 
0.6593470290093471 
1.055991283414366 
0.8698486821711212 
0.3085614449070638 
1.024714627688773 
1.415642628245388 
0.7154348400348373 
1.033216389854196 
1.442572538568257 
1.579071753076087 
2.189505977237517 
