solver_type L2R_L2LOSS_SVC_DUAL
nr_class 2
label 0 1
nr_feature 173847
bias -1
w
0 
0.843946003683326 
0.7999999999996901 
-3.222110078748841e-13 
0.6863644734401104 
0.9659585701991368 
0.9275106722061246 
-0.6666666666666666 
0 
0.05463534576296837 
0.8081841432225114 
0 
0 
-8.673617379884035e-19 
0.8750067084721934 
0.9230769230771718 
0.370632920385177 
0.9230769230772798 
0.909090909091207 
0.9556595334205641 
0.9158878504674558 
0.8000000000003369 
0.7858755544215694 
0.08911143071616472 
0.05805206721851896 
0.7999999999996816 
-0.2625806656690106 
0.8571428571427112 
0.3705846253657106 
0.1121968650494042 
0.8726245867914458 
0.02619586953982982 
0.7918121997642592 
0.6666666666666666 
0.9387194598613158 
0.2157380722932354 
0.1176470588237168 
0.8888888888891109 
0.9730243386665942 
0.8573331354344839 
-0.0142818948479151 
0 
0.489961248857401 
0.4939664186458391 
0.05269287661328952 
0.6666666666666666 
0.7671060432239919 
0.8888888888885109 
0.6666666666666666 
0.7448179579802158 
1.387778780781446e-17 
0 
0.4473459869683158 
0.4444444444446801 
-0.3895114248988946 
0.3079010269849454 
0.8680811534926441 
0.3137254901965006 
0.9862573893535408 
0.8571428571426768 
0.9090909090911531 
0.8716014342575726 
0.4942684936695407 
0.3081862838729484 
0.6666666666666666 
0.6666666666666667 
0.9536522681688069 
0.05805719583037024 
0.3277807578766816 
0.6666666666666666 
0.7450980392156147 
0.8111033433324774 
0.857142857142518 
0.5517776448186464 
0.7412847116150716 
0.7282313708169205 
0.7398909765352341 
0.8028692647396954 
-1.224178856027636 
0.7029614320057632 
0.9153698615661571 
0.8946606193100172 
0.3049304506391043 
0.8000000000003631 
0.9094889128050382 
0.1260274068297852 
0.3284381269539878 
0.6304019637726285 
0.258584031150813 
0.8888888888885019 
0.9575672396921103 
0.3184733603722948 
0.6675052658430007 
0.05092603604918785 
0.8888888888885572 
0.7403091894531543 
0.6666666666666666 
0.9090909090912427 
0.0813416482251226 
0.4251721419634166 
0.9962294150224177 
0.2857142857142857 
0.3825956217044847 
0.4589717813909724 
0.8571428571431654 
0.1739994527528577 
0.8648648648646966 
0.9856459330142771 
0.9090909090907123 
0.6794969659520048 
0.6666666666666667 
0.8894641243610822 
0.1154852038709256 
0.6666666666666666 
0.8001257209654038 
0.8437679122096344 
0.2991787046588597 
0.8000000000003358 
0.3376013353639968 
0.1540821654979975 
0.3800351291596699 
0.810655712100569 
0.115533732375965 
0.01549786905790044 
0.8391781175651343 
0.9411764705881828 
0.4757873390960433 
0 
0.6666666666668324 
-0.04715734094299502 
0.8011013965556225 
0.3760180737936252 
0.09764961450283202 
0.6666666666666666 
0.5570177597133087 
0.8957177834577161 
0.8000000000002744 
0.05073531186702804 
0.540417430665189 
0.1570078509850441 
0.6481417707646483 
0.9462508138702018 
0.8264770015163602 
0.9350649350646305 
0.9638421063813709 
0.6218641195580605 
0.9142857142858067 
1.051308300875831 
0.1587301587303005 
0.2987070580504833 
-0.3241876998019213 
0.01486570189780207 
0.8532207202277686 
-0.6666666666666666 
0.8621495589894113 
0.7398232124479714 
0.1587055750725097 
0.8571915109781113 
0.9578922233631669 
0.3138787693414 
0.1498084680519371 
0.7564605685843763 
0.1439953179271138 
0.9370899946188944 
0.5025388733021152 
0.9523809523809978 
0.8604260369680795 
0.80000000000029 
0.2479373332510856 
0.626901290164405 
0.1230822007145162 
0.9090909090911573 
0.9986816564363935 
0.6666666666666666 
0.6651305244883321 
0.7999999999996195 
0.7792446266533396 
0.293760470378459 
0 
0.2478525012585304 
0.5492320287661854 
0.49139591011927 
0.8000000000003252 
0.6860858583194347 
0.05825761250850608 
0.866138283539945 
0.7263368147990518 
0.03932173019586754 
0.7743678262758023 
0.6863180346068913 
0.9090909090912314 
0.781956586806654 
0.3607405628412261 
0.9090909090910569 
0.952380952381377 
0.6948356807511525 
0.6541590494631503 
0.06117839940402051 
0.5300310604894968 
0.800000000000312 
0.06916861176209137 
0.9230769230772207 
-0.9821314810476055 
0.9881073915101871 
0.6774332771157284 
0 
0 
0.1849441870385108 
0.9333333333333784 
0.8571428571424941 
0.8416560602123919 
0.7999999999996122 
0.2404263641156394 
0.6666666666666666 
0.9090909090908168 
0.3084935513254985 
0.7185126199008471 
0.7906875134858389 
0.7999999999996594 
0.1797030583516547 
0.6731111372822679 
0.4795124170151553 
0.947368421052517 
0.8888888888895103 
0.9230769230772575 
0.7930146781410934 
0.8918521787441659 
0.6666666666666666 
0.6666666666666666 
0.79999999999973 
0.5945433576110236 
0.6350448832147803 
0.6666666666666666 
0.1018300117101668 
1.698271368434025 
0.493867666819845 
0.4038673050681434 
0.05009534403936932 
0.8694861356665764 
0.9113278517245735 
0.08241516031208665 
0.3076923076920638 
0.9142857142854796 
0.2222222222222222 
0.06679672848550609 
0.7011569717175539 
0.235294117647344 
0.2300510576342553 
0.1036311734031861 
0.80000000000032 
0.3467738559349161 
0.8301886792452502 
0.6040293271205024 
0.6986957912723769 
0.6666666666666666 
0.1936562069441359 
-1.316633460568615 
0.9230769230766296 
0.3933812682705127 
0.7999999999997305 
0.7137405250836154 
0.8695652173916949 
0.5595854922279435 
0 
0.3257106812901093 
0 
0.2400330797534883 
0.09932459276884442 
0.4 
0.9260233511482537 
0.8650144772678769 
0.4301000599510144 
0.7122417203716386 
0.9534613150119202 
0 
0.16425538111134 
0.7177499590125994 
0.8662687490427587 
0.7999999999997331 
0.7958187879972788 
0 
0.3587359786396769 
0 
0.1950132481859241 
0.314775306892276 
0.9440013163895205 
0.8930163457368648 
0.8000000000002729 
0.840320098492316 
0.07228915662631401 
0.6666666666666666 
0.923076923076901 
0 
0.9193855852316706 
0.9574981015212207 
0.5299504875287994 
0.5487613585810361 
0.2464634127567867 
0.1818181818183428 
0.6666666666666666 
0.6666666666666666 
0.1091544466031274 
0.0681773394836367 
0.6666666666666666 
0.6666666666666666 
0.7230744487301156 
0.6501040043670856 
0.9488230250241105 
0.7999999999997031 
0.897532214030667 
0.2130937909482284 
0.7407407407411539 
0.5580110386596632 
0.800000000000281 
0.7272727272728688 
0.2560926548192651 
0 
0.9867554538271998 
0.9230769230767427 
-0.4492993034896348 
0.3272358194876364 
0.6279115440770755 
0.8430792755794869 
0 
0 
0.7999999999996568 
0.4878048780487216 
-0.9883118153782315 
0.8915246515063243 
0.9090909090911489 
0.3823160819326383 
-1.27811033721088 
0.1818181818184364 
0.6691056766076585 
0.8888888888891289 
0.6845184831629728 
0 
0.8571428571429258 
0.8571428571431216 
0.7999999999996946 
0.9784287087617665 
0.880843120947249 
0.6666666666666666 
0.9050663727106651 
0.9082971067055486 
-0.4270560520742027 
0.3706809643329894 
0.814814814815062 
0.2917566848783741 
0.9109630596771132 
0.6264611495053356 
0.884452500539755 
0.7882384279905582 
0.8131142185928516 
0.7828630033055997 
0.799999999999648 
0.8353979126834137 
0.9456863567689142 
0.8571428571428977 
0 
0.8000000000003865 
0.3840032044709982 
0 
0.8612930470920122 
0.8926794592974288 
0.8589164706337122 
0 
0.4451781509046211 
0.9078068398146452 
0.7999999999996804 
0.8010084498830692 
0.5118566817852237 
0.8571428571426444 
0.6666666666666666 
0 
0.3561435815932522 
0.1052631578944457 
-0.2656519071871801 
0.6060433602214478 
0.4235838980298659 
0.02471991682748041 
0.04640461093260334 
0.6381852539953388 
0.4819139615042749 
0.8215519779025711 
0.8888888888890271 
0.8092112219727565 
0 
0.8000000000002954 
0.8649346161122325 
0.7074424760353445 
0.8163265306119117 
0.9523809523807077 
0.3006181689895544 
0.2394566455867889 
0.3200929858576878 
0.8571428571432114 
0.4303323574002514 
0.3620446142243385 
0.2116979410106918 
0.4765075538712872 
0.1612144313249913 
0.8331656146369795 
0.3457215651263263 
0.4135059243255447 
0.8000000000003368 
0.6993957025721375 
0.8712309466046071 
0.8455664269696025 
0.6831575662604101 
0.3459437893943333 
6.071532165918825e-18 
0.7999999999996515 
0.195013248185924 
0.9416091298812493 
0.9347648879312991 
0.8964701025872341 
0 
0.7209978769061256 
0.8888888888889251 
0.7999999999996614 
0.6995498471572054 
0.2930338218145061 
0.8654545454544 
0.2070222163981354 
0.9235950503548628 
0.3205911729829463 
0.8593304979614863 
0.8000000000003317 
0.7068644443838896 
0.9963859356978363 
0 
0.9550001802367579 
0.5588489663764046 
1.11261832109194 
0.1667365990691969 
0.572292090524682 
0.7243493488455172 
0.1365455778356534 
0.9331461291764402 
0.9090909090907809 
-0.2224735082173276 
0.6666666666666666 
0.6101365138805057 
0.6666666666666666 
0.0862435469178424 
0.915662650602296 
0.2478686232877056 
0.7159001665304472 
0.5703034551394084 
0 
0.8000000000002884 
0.6666666666666666 
0.6390533136315291 
-0.1547090749804427 
0.7058823529417341 
0.9832904089998872 
0.8571428571429768 
0.7999999999996821 
0.8888888888890052 
0.008107222307867437 
0 
0 
0.7765324338980952 
0.8671592113682282 
0.815201281882618 
0.8571428571433306 
0.8571428571428554 
0.09032355227825535 
0 
0.9210336618262449 
0.8695652173912816 
0.5657388625520842 
0.7224669603520577 
0.9090909090914225 
0.07476635514024746 
0 
0.2994497589427897 
0.6666666666666666 
0.6666666666666666 
0.8571428571423713 
0.03743860406118383 
0.8077073121894628 
0.8571428571431319 
0.4 
0.1818181818181818 
0.82096776415942 
0.2951338914149207 
0.9171649523768708 
0.03363232124677228 
0.2598826581730286 
0.758596618644122 
0.5942389113217843 
0.6666666666666666 
0.9230769230770671 
0.06595938326144764 
0.04191654793265569 
-0.3191615822496759 
1.039321246969712 
0.08294311663679074 
0.9230769230772699 
0.1877806628513699 
0.9230769230771856 
0.6623231650887095 
0.8000000000003962 
0.5955587255712984 
0.8571428571431097 
0.4832752923731932 
0 
0.8067140245772139 
0.6666666666666666 
0.6666666666666666 
0 
0.8000000000002896 
0.7997795913240038 
0.8571428571427432 
0.9411764705881694 
0.8314606741577071 
0.1913661632035856 
0.3882744729045893 
0.6582317530645458 
0.9395320131898256 
0.9099337010907639 
0.8000000000003887 
0.8571428571431815 
0.9110512129350191 
0.8671887483928429 
0.6666666666666666 
0.09587183735543171 
0.6666666666666666 
0.6868389412833105 
0.8006458952176628 
0.1233450570782196 
0.7586206896549893 
0.2222222222222222 
0 
0.6814812765067354 
0.2857142857142858 
0.9581395348833908 
0.07547169811316068 
0.368162048924241 
0.90909090909042 
0.5031654740238003 
-0.1736926464065287 
0.8571428571426422 
0.02529019577247619 
0.6305745088041937 
0.9090909090908175 
2.775557561562891e-17 
0.9230769230766447 
0.3944494475961144 
0.7999999999997105 
0.2161500063833269 
0.6756181173011364 
0.9074006803872349 
0.7389734245000634 
0.909090909090864 
0.937655222880078 
0.9386325997764405 
0.5549570482011205 
0.9689772626159561 
0.8888888888886503 
0.6637716984734188 
0.9230769230767591 
0.6759174999120429 
0.9411764705880116 
0.6666666666666666 
0.8571428571430644 
0.6653316108183354 
0.8000000000003478 
0.2540333389086619 
0.7677768493871631 
0.8571428571424246 
0.6084435731540563 
0.909090909090477 
0.7378842193647842 
0.1342037345287581 
0.92307692307718 
0.6787454940193427 
0.7006293386345256 
0.8988440205277364 
0.9230769230768372 
0.538260346793051 
-4.336808689942018e-19 
0.8350450365582389 
0.7272727272729076 
0 
0.3430644642641451 
0.003444810883186647 
0.6755766249444629 
0.5007915068491604 
0.9214735159442434 
0.9179266640267358 
0.6666666666666666 
0.185366691270738 
0.9122241703725271 
0.1308166230377226 
0.843973708778747 
0.6873614191151298 
0 
0.8501322632709708 
0.2612118278948187 
0.8888888888891294 
0.6976744186045218 
0.4963693282642216 
0.88888888888849 
0 
0.8571428571427154 
0.8117041952578659 
0.703113138184306 
0.4384423291145457 
0.554495603379571 
0.0689655172412173 
-0.2658095362363241 
0.85714285714295 
0.8000000000002899 
0.3759008924588061 
-0.3654593518462427 
0 
0.7634374651418659 
-0.6666666666666666 
0.9565217391301089 
0.5686743873415496 
0.7999999999996685 
0.0005741349863556974 
0.8571428571425412 
0.7748277876308859 
0.325476977982216 
0.8732020638733459 
0.8571428571431965 
0.6760561307813927 
0 
0.9315377420772277 
0.942940690583106 
-2.522604318387998 
0.7999999999997096 
0.4702668290914317 
0.4037272555035643 
0.8274058357139997 
0.9090909090906942 
0.3405603602879498 
0.921484079967787 
0.8571428571425002 
0.4346839735409694 
-1.273855642597259 
0.8888888888891769 
0.8893045219370334 
0.8286665792737735 
0.6787849600338796 
1.15570528115019 
0.314714185252582 
-0.185783493258769 
0.8000000000003877 
0.3199468142884561 
0.9333333333331034 
0.8888888888888407 
1.030965003641489 
0.7809864277293936 
0.9411764705879454 
0.2885045980013078 
0.8663594470046156 
0.9894936929524464 
0.909090909091168 
-1.946334961820811 
0.8605837931611831 
0.2210976461229457 
-0.4274772382391635 
0.6298034732843658 
0.6666666666666666 
0.9081030542151555 
0.6666666666666666 
0.04089517592754768 
0.1279262440569362 
0.2534489262469948 
0.9282049462295553 
0.893334892777716 
0.9541284403669027 
0.4705882352939174 
0.6666666666666666 
0.631543634254315 
0.206645639849949 
0.9177266996916156 
0.6354996760900917 
0.6028327310901554 
0.8624895606544308 
0.6241723016809576 
0.7999999999996816 
0.4734220116598112 
0.688732019354595 
0.6823966759040381 
0.4137931034481155 
0.2367759304555628 
-1.019879019525588 
0.9849765467356415 
0.9565217391302565 
-1.081570301105089 
0.9510091361202113 
0.5720136089759543 
0.8147078360930881 
0.8309832979466238 
0.02675461411590442 
0 
0.8578127369994153 
0.6055067282958909 
0.6666666666666666 
0.6872717574227915 
0.9178786559969614 
0.6666666666666666 
0.6182644163461684 
0.8328454397497149 
0.9230769230771761 
0.9026908111586679 
3.469446951953614e-18 
0.06531557154975584 
0.6856165336771002 
0.2349991919181068 
0.7492520202360829 
0.9344782065037507 
0.9629629629629075 
0.7362624471053217 
0.5133270802928316 
0.2589030640329628 
0.6666666666666666 
0.8820691385264373 
-1.832274515496511 
0.580459826566747 
0.8888888888886549 
0.2958525742250314 
0.8017483538758394 
0.9321185435434733 
0.7409298167947215 
0.1220748482750476 
0.8508643819189841 
0.9181190692018788 
0.2574398802500471 
0.8571428571426409 
0.688420164965962 
0.8417137689474886 
0.3001286093595432 
0.731145893198878 
0.9396987385211961 
0.6847677150070979 
0.6666666666666666 
0.9832774050244475 
0.9230769230767328 
0.3893302516193438 
0.3126248580536153 
0.888888888889267 
0.727272727272546 
0.2800736381665109 
6.938893903907228e-18 
0.04098257207362093 
0.8465743572769372 
0.7405089708607647 
0.5948418156715255 
0.6666666666666666 
0.8571428571430775 
0.5001259228898347 
0.5857650389372374 
0.4124158946590471 
0.9271352577982394 
0.9075561172435839 
0.9629629629627667 
0.6961813906022521 
0.8224227918691043 
0.2683613041505437 
0.483762393433327 
0.1814462829252472 
1.044422448218398 
0.9253731343287487 
0.9535337712018176 
0.3482413718635926 
0.8147955664887325 
0.8606635054361386 
0.8296302999826302 
0.3397555741256776 
0.2425805026365648 
0.9523809523810208 
0.6877814675111384 
0.5947751451636855 
0.8186160177249827 
0.8571428571423633 
-0.4241182135810749 
0.8888888888892025 
0.3402662733831638 
0.3692785443731864 
0.3089460775198226 
0.8571428571425387 
-0.4397372318773405 
0.4001479995927646 
0.9090909090909213 
0.1901299562897404 
0.4610928269419254 
0.948705185791606 
0.2119918897305457 
0.3481823014483468 
0.8888888888886944 
0.174109428550485 
0.2161867226163221 
0.7014526389557828 
0.6666666666666666 
0.9866699811658071 
0.9333333333337128 
0.198806797967316 
0.8888888888884814 
0 
0.9230769230771692 
0.6666666666666666 
0.6733366163194471 
0.2199763867205245 
0.9473684210527519 
0.9096726800943651 
0.9230769230772714 
0.8176787629108977 
0.8571428571425245 
0.7395875276553564 
0.8710713986151464 
0.6666666666666666 
0.6351458694768347 
0.09633528377823097 
-1.156754109086791 
-1.39449314867432 
0.2108451743119975 
0.7988088452887162 
0.9446694791976393 
0.4008591707351001 
0.8007927966075929 
0.8163265306118429 
-0.4172661132942821 
0.1776971889124676 
-0.2955547399493033 
0.2870361988607556 
0.4801232956031967 
0.3899192493414658 
0.8587129191083496 
0.8888888888892734 
0.788245113317103 
0.8479737003421705 
0.3814865982042365 
0.3076923076921715 
0.9695408931826341 
0.7297361022841315 
0.8571428571425735 
0.8128811895016576 
0.947368421052975 
0.923076923077091 
0.8031496062987965 
0.869565217391313 
0.7999999999996816 
0.8571428571426786 
0.7760060842569431 
-0.4542860001305453 
0.9930561266032515 
-0.06244514533371137 
0.2739726026444063 
0.909090909090627 
0.8596256278484372 
0.7999999999996348 
0.08163265306089595 
0.9810766441036926 
0.7370243307745449 
0.9584377562197509 
0.6802634280176171 
0.2857142857145963 
0.8915784165408718 
0.2174644139636586 
0.7999999999996816 
0.9643191893319637 
0.8386213579551546 
0.6666666666666667 
0.3076923076921594 
0.3199999999999572 
0.547193007427887 
0.6855441023273959 
0.4144837467172219 
-0.1557293348490905 
-3.505322117638987e-13 
0.6666666666666667 
0.6428043081693122 
0.3662405135828801 
0.6666666666666667 
0.857142857143203 
0.8888888888887091 
0.524335580957331 
0.9473684210528232 
0.6666666666666666 
0.7674229235503904 
0.7999999999997218 
0.143505832145365 
0.7059363226233546 
0.6958913710729507 
0.5381434643821478 
0.0468590143050358 
0.7849396813000549 
0.5847241840292858 
0.6184926456423224 
0.4935982894275053 
0.803054855422405 
0.3353929936906944 
0.5484423895173081 
0.6808510638294069 
0.8451616751050417 
-0.3534390395684073 
0 
0.1122706280457863 
0.0297414656474417 
0.9537486304361334 
0.7966890891068839 
0.02069085582780152 
0.6731867359116158 
1.172046438581176 
0.8422120992388173 
0.8000000000003734 
0 
0 
0.9168299217784427 
0.8726706988155067 
0.5360589424870994 
0.9250082824942916 
0.8717948717944832 
0.7605166393936809 
0.2443417774065954 
0 
0.8571428571430695 
0.8408462015081365 
0.7999999999996692 
0.287743008737444 
0.8512718744729861 
0.9149133314432943 
0.387232778768432 
0 
0.02221009923628759 
0.9134348430026513 
0.732929614676594 
0.8852714930728804 
0.8888888888884975 
0.7999999999996323 
0.8588657581750354 
0.3174202201300865 
0.4 
0.6036714871360054 
-0.01340015055176746 
0.4569729847061272 
0 
0.07296062647761845 
0.9143317721118397 
0.7999999999996948 
0.3402163227489413 
0.6138968109631936 
0.2588226898896726 
0.4907114802068 
0.05889196139607724 
0.5013880546747463 
0.7083748340247905 
0.9090909090909175 
-1.209902775229937 
0.01252554249758871 
0.848854343572785 
0.9090909090906427 
-1.534505352269162 
0.6392085917612379 
0.9411764705884551 
0.8571428571426509 
1.163623376226345 
0.7041633532675384 
0.8846739848198811 
0.5819687033626759 
0.08720834395428696 
0.7443958508083536 
0.9102022572527331 
0.8000000000002827 
0.3981215732358941 
0.2285060300614543 
0.9333333333333753 
0.9234791851536569 
0.4326347524230678 
0 
0.9266846070304793 
1.210791078621463 
0.981588914050347 
0.920761036965272 
0.1818181818179719 
0.7467678095432314 
0.4507523095097185 
0.8166160972946962 
0.7644951959901765 
0.08199751870746239 
0.6666666666666666 
0.7692307692307692 
0.09178918233346094 
0.7623135943170305 
0.02985773236897536 
0.7999999999996906 
0.8571428571431873 
0.4813135337906081 
0.6919686194051667 
0.2375043614711377 
0.8663072746365941 
0.6792378817385037 
0.08365701438460627 
0.923076923077387 
0.9115436696896229 
0.8561305573730177 
0.9230769230767263 
0.6666666666666667 
0.6729432544106243 
0.3146728479901825 
0.6360930689997512 
0.3859007576665212 
0.8571428571432144 
0.1487702189771184 
0.8484688599089901 
0.66523740042563 
0.9348792591319869 
0.6666666666666667 
0.1333333333333333 
0.6666666666666666 
0.4413577080556091 
0.6702893154934501 
0.06178082534087963 
0.8888888888890589 
0 
0.9230769230773138 
0.9288589060193316 
0.3761896737421352 
0.5049499728576713 
0.8537905316996334 
0.80000000000034 
0.5461178336943346 
0.5343446708688963 
0.7053933698556302 
0.6970471016312986 
0.6988575455298621 
0.6666666666666666 
0.05331347312803353 
0.7300928075031101 
0.2960390797517408 
0.923076923077057 
0.8571428571430406 
0.889153931394345 
0.4444444444442263 
0.6666666666666666 
0.5376058625084826 
0.9411764705885297 
0.8738346971013686 
0.0352095299026584 
0.07266839576229391 
0.6174829499784595 
0.9156455314496933 
0.9438932443892003 
0.7999999999996575 
0.7882596528993063 
0.9002293080486592 
0.9343133374735691 
0.8571428571424888 
0.9563438440958111 
0.9462348043307197 
0.6924462547647727 
0.923076923076813 
0.8888888888889065 
0.5758324949742915 
0.8949188894592054 
1.115762063357646 
-0.6259676768319435 
-0.4738551500633998 
0.8000000000003602 
0.8958178264576591 
0.01031788137045536 
0.3380118527075364 
0.1275290865477929 
0.6666666666666666 
0.8091849821563197 
0.1904516995876284 
-1.754732936698969 
-2.11393114743994 
-1.827716896259105 
-1.816259792559423 
0.2001935919164209 
0.6153846153846809 
-0.2634859362918846 
0.7348395430477016 
0.9175619614033215 
0.2601098537289119 
0.1539469323179495 
0.9523289352872211 
-1.557552034708334 
0 
0.9522768362968056 
0.9193822462896158 
0.9726127743304662 
0.7580487286342658 
0.4444444444446642 
0.3873948464627601 
0.8571428571423287 
0.07874015748047845 
0.888888888889164 
0.857142857143228 
0.9012350149653985 
0.8646690943674682 
0.6388242148530262 
0.5265627484352753 
0.8571428571428859 
0.8111738539734589 
0.1372384663517036 
0.6508025071707039 
0.7546188409628701 
0.4768468620239752 
0.3525249861146295 
0.6666666666666529 
3.469446951953614e-18 
0.1202842271886679 
0.03372339052645847 
0.6848014941054544 
0.4 
1.283049923366042 
0.8888888888887567 
0.5140296355566462 
0.8571428571433425 
1.031718326559218 
0.9230769230771129 
0.08695652173894092 
0.8903037208007998 
0.1124572762433854 
0.8000000000002994 
0.8571428571425134 
1.034538378190252 
0.8589897783632516 
0.3563617560899992 
0 
0.2773722627736221 
0.8163265306125741 
0.6666666666666666 
0.7999999999996849 
0.8571428571433791 
0.7999999999996816 
0.6327855684928444 
0.1771251407605333 
1.302999306686719 
0.8253968253968952 
0.8901010553631536 
0.8356435007800026 
0.4266313383201576 
0.7058823529406151 
0.772585786555278 
0.7171341167835003 
1.734723475976807e-18 
0.1694915254238448 
0.3550337309643717 
0.5214071580039861 
-0.2024294504919424 
0.7134902923907159 
0.8590015334357479 
0.6332168199280827 
0.6764236651908853 
-0.72610658475328 
0.04748892216749598 
0.03642204263045765 
0.7087584006238634 
0.05816838815022894 
0.1736965356107114 
0.09523809523809523 
0 
0.6808517215538086 
0.4 
0.8146541159125865 
0.4385049597746654 
0.7115132451149606 
0.7529716494902807 
0.3339855047696942 
0.8965517241380641 
0.8680832179328513 
0.6136568450943374 
0.8571428571425695 
0.6066206104857427 
0.2286616197875424 
-0.1020434339534164 
0.9396407587476008 
0 
0.8626910006314411 
0.5901566789295395 
0.831464032789933 
0.6369488795953413 
0.9413158887916336 
0.6753246753247599 
0 
1.142083570507978 
0 
0.2481779353273037 
0.5825707735931535 
0.9673164712927865 
0.8000000000002725 
0.8236697494521881 
0.5779990786678121 
0.8171572955603913 
-0.1092808910591967 
0.3434205403146549 
0.590808786709028 
-1.770667682736114 
0.6789500036550444 
0.9353118226839513 
0.5209958169276346 
0.8732906069394669 
0.753105411302157 
0.8988885861614712 
0.108108529528133 
0.295091522941976 
0.8571428571424949 
0.7361367153347594 
0.4199831487658826 
0.8532156437867197 
0.8000000000003018 
0.01127291829186503 
0.6475633097174127 
0.6666666666666666 
0.8032456430615758 
0.8888888888885539 
0.8571428571431827 
0.9100992971191323 
0.800000000000382 
0.8888888888891094 
0.7043082382286553 
0.001234983741826897 
0.7649699771329155 
0.4 
0.6666666666666666 
0.9362381051384825 
0.8965517241378509 
0.8129957071887721 
0.680949577689927 
0.3407881401068011 
0.1749065298196874 
0.6666666666666666 
0.3076923076924429 
0.8037015823244102 
0.3869629436503086 
0.3997140450078698 
0.866131715292084 
0.7368421052631469 
0.6965058229596555 
0.3093637734068878 
-0.1188021995142694 
0.4853419938028185 
0.4920513258681576 
0.6379558800917456 
0.0007903808984254539 
0.2676212159825127 
0.4617502703176575 
0.7443111540148456 
0.7238590462568238 
0.7785991674885953 
0.6248749858462443 
0.9939865669021068 
0.7088951880526732 
0.4 
0.6454257398747739 
0.2642214919035754 
0.4368062421171012 
0.6666666666666666 
0.9411764705877438 
0 
0.6666666666666666 
0.814724030864055 
0.4759632294571916 
0.543426046280212 
0.697674418605009 
0.8571428571432419 
0.9831058738098228 
0.9798234216396756 
0.02356170013487987 
0.8650091312233618 
0.828282874077287 
0.1075336750049974 
0.4164768430141657 
0.8289251356113541 
0.6954398652731851 
0.7185964980726561 
0.9649973204033776 
0.888888888888583 
0.5637394332677264 
0.536287672511035 
0.6435965091610918 
0.9170245456898819 
0.1651681137887863 
0.8717948717947993 
0.2233943852068521 
-0.3919320298313126 
0.002247944986627877 
0.8003933896629617 
0.7758142849865267 
0.7697638185927556 
0.1185369705541548 
0 
6.938893903907228e-18 
0 
0.7921203870391019 
0.77231543405576 
0.290271284824298 
0 
0.9507749906504579 
0.4471913867027987 
1.726391276242758 
0.8334060002104142 
0.6666666666666667 
0.406397450771687 
0.6666666666666666 
0.7374042291835939 
0.7684223945879737 
0.8571428571432567 
0.4760901392547843 
-0.09057111465866848 
0.6666666666666666 
0.7487450406690631 
0.8993621875224054 
0.8877753390017633 
0.8571428571424988 
0.8571428571429589 
0.5354926667884187 
0.8000000000003264 
0.5870869825915863 
0.2107240349156384 
0.9997530197835033 
0.7721729290926643 
0.1176470588234863 
0.7999999999997297 
0.282646431289842 
0.2018042553916315 
1.032557618280747 
0.7272727272728899 
0.3318471579556012 
0.7377870825367702 
1.240223463687042 
-1.722796372327868 
0.8616493331132125 
0.6666666666666667 
0.7506636915985108 
0.8418855575714965 
0.200190099131008 
-1.273422364235481 
0.9828310388723756 
0.1516663304817627 
0.8172870319336505 
0.8421052631575996 
0.8261204314282542 
0.4987815782912912 
0.04541280373553547 
0.9299245517706333 
0.3957697632944607 
0.5614035087716189 
0.0851063829785194 
0.8571428571426324 
0.3208890422921093 
0.2780209051831648 
0.6608971864370503 
0.09523809523797037 
0.6307719624423181 
0.3604807087575245 
0.5723663044017032 
0.8571428571424398 
0.8104171397815483 
0.8298515219223028 
0.6993051262818251 
0.02469135802465703 
0 
0.8927524140745882 
0.8605577689243216 
0.6132338478759367 
0.8458940031168879 
0.5244810857148087 
-0.2194665333329287 
0.4935580680546571 
0.4916995216425555 
0.7999999999996816 
0.941176470588601 
0.847424920058824 
1.126494182409033 
0.9169216108520967 
0.8424722985082433 
0.8090709439023915 
0.8888888888890233 
0.4052833395924526 
0.7241047013044052 
0.894833396225621 
0.9674358666304534 
0.3294117647058434 
0.05823543959636462 
0.7999999999996377 
0.8616082296144394 
0.2576687116562976 
0.7408805054804921 
0.4794128525554263 
0.251018516246374 
0.2608370336060352 
-2.168404344971009e-18 
-0.2011714346759132 
1.490991228666345 
0.8000000000003222 
0.7008776657364738 
0.510440911245245 
0.7561208421005864 
0.5719966547153379 
0.9333333333330779 
0.08610595581341127 
0.2618293112314536 
0.7096774193544636 
0.7408247262807149 
-0.1609806698507372 
0.7999999999996816 
0.8571428571431944 
0.7775305839924175 
0.1251343388087715 
-1.29020058525775e-17 
0.6444126964486749 
0.8485749291781294 
0.3024488070543557 
0.7999999999997223 
0.978829998301511 
0.9775331616848615 
0.9442970822284291 
-0.2022066031749229 
0.2877625478608106 
0.01958264246121262 
0.6666666666666666 
0.3883478706860574 
0.3326586957325215 
0.9266037037636854 
0.6712384048128974 
0.7269891224157706 
0.7852059203388585 
0.8888888888891031 
0.3806560438821266 
0.2846348525412133 
0.7567658202635621 
0.5000858090942722 
0.8888888888889201 
0.1116456299216834 
0.6666666666666667 
0.6102096392269331 
0.4103870549464214 
0.8043907990073186 
0.8571428571424625 
0.7845398743019248 
0.7515521629675042 
0.8000000000003417 
0.8267995721427974 
0.9473684210525234 
0.3554185125855874 
0.7272727272724387 
0.9473684210527857 
0.8571428571426332 
0.5501833072058669 
0 
0.1908464202517094 
0.8891752046681916 
0.7999999999996737 
-0.02269400258636176 
0.8852803962154809 
0.7155512281060651 
0.8888888888884053 
0.8000000000002877 
0.6354396480121907 
-0.5927724054285617 
0.919146332992741 
0.6810849084307485 
0.05996433991066823 
-0.26353785941253 
0.8000000000002906 
0 
0.3334407691524022 
0.7999999999996816 
0.3021386111565001 
1.295115311486551 
0.7272727272724798 
0.816707588687372 
0.7613117295195203 
-0.6746004711906231 
0.6987606705277204 
0.8571428571423119 
0.6769230769232459 
0.857142857142554 
0.1737095782194532 
-0.969690778819811 
0.5614035087716026 
0.7261631241949793 
0.9665295892424175 
0.4386706484613925 
0.5197336226733086 
1.089274622387651 
0.05831621095229247 
0.3589365225548612 
0.7999999999996781 
0.670358362826368 
0.779085881491719 
0.3522766874399589 
0.8295968790221764 
0.8595392209310341 
0.4828788273350417 
0.8052860318243475 
0.2857142857142857 
0.7999999999997203 
0.2485508693797146 
0.9230930285932997 
0.7536145995207862 
0.8068164040610846 
0.5613350555232579 
-0.3450104454699918 
0.4868481403007243 
0.7987792929694916 
0.7623396022708525 
-0.2066135410467594 
-0.004690625325914144 
0.8641545978309174 
0.998462413288987 
0.7999999999996036 
0.7070065514340769 
0.947368421052547 
0.862501925887932 
0.4008886401644718 
0.9044585987263493 
0.7999999999996759 
-0.4127078087973379 
0.9523809523814611 
0.05311812981718648 
0.6059305692398461 
0.8034459206129764 
0.02092187904702222 
0.2445038638936577 
-1.512206851656368 
0.3943365940986008 
0.9333333333328613 
0.4541933923490543 
0.7786440810208302 
0.4355088561649088 
0.8773385168290171 
0.9355873283589135 
0.7999999999996447 
0.9333333333330143 
0.766739489096642 
0.7742544454894839 
0.6666666666666666 
0.6056147312960038 
0.8739261662083262 
0.8680037661017218 
0.8821935269407671 
0.9487976599914749 
0.8695652173909729 
0.8949808835193616 
0.8888888888894008 
0.5732788757669649 
0.9473723492671605 
0.1712287109088162 
0.7741234283716989 
0.7540903470456605 
-0.2108781471437903 
0.6667961547076793 
0.6053541350762278 
0.8571428571425173 
0.9215229464284919 
0.7754458490383492 
0.6688244334966198 
0.888888888889381 
0.8000000000003212 
0.7999999999996894 
0.8571428571425427 
-1.158934588234884 
0.698532543903406 
0.7600428753961436 
0.7951025919021805 
0.4444444444442598 
0.0532861458280417 
0.727272727272419 
0.9172082052021067 
0.6666666666666666 
0.9491291837287 
0.8180151249014516 
0.6666666666666666 
0.7573919669995505 
0.6666666666666666 
0.6666666666666666 
0.8005735405068481 
0.2095676468896967 
0.9090909090906157 
0.8186719532247523 
0.7999999999996621 
0 
0.3454342398652956 
0.7077958826207751 
0.6666666666666666 
0.06733167348805504 
0.8571428571432884 
0.09552675225549423 
0.7140567919578003 
0.8002085261668589 
0.8000000000002729 
0.01823160280185407 
0.1755694620089178 
0.7999999999996766 
0.6666666666666666 
0.8973860107659694 
0.7106393332178252 
0.8884749710355564 
0.7521849882948256 
0.887168075499889 
0.9291709153658798 
0.9645897982311492 
0.6956521739127804 
0.301477832511934 
0.7397012064676705 
0.2660214803123093 
0.8148148148150343 
0.3752774221311314 
0.8888888888891571 
-0.9063137937984891 
0.4 
0.9343383325177338 
0 
0.9361676871634217 
0.6666666666666667 
0.821002747899804 
-0.005045986817438267 
0.131579339026346 
0.7043575706501082 
0.8941176470591978 
0.8320645681895505 
0.1641361248634804 
0.9743589743590969 
0.7302413133986161 
0.9360941803865598 
0.5971563853260486 
0.6956521739132906 
0.6767528319211455 
0.5205959672303625 
0.0509753911841368 
0.2946393613813287 
0.3936009658922218 
0.06922427596295423 
1.003745145603068 
0.6666666666666666 
0.6711717314117351 
0.7510382005687936 
0.2692483930755388 
-0.1923582742341997 
0.9225868825898944 
0.8258349330087842 
0.6933119043539273 
0.8571428571432037 
0.7162815515123289 
0.4615384615385864 
0.6667805794769851 
0.7583247377449218 
0.9973133999717354 
0.857142857143168 
0.9053781998010911 
0.8191869969024431 
0.9152542372876887 
0.8163265306119872 
0.8114865878984122 
0.3209450508796303 
0.7184899949833982 
0.6436993108458814 
0.4 
0.6971528307481372 
-0.3249839289943187 
0.857142857142573 
0.8412658411485278 
0.8263072351161398 
0.9696969696968517 
0.857142857143163 
0.8020257187923876 
0.9845097727536295 
-1.762394331111104 
0.9949718543307657 
0.8288948167047575 
0.715231788079107 
0.6252059120476494 
0.7999999999997048 
0.6521188610596558 
0.6666666666666666 
0.2901591660496928 
0.547251146747548 
0.3622203195410461 
0.9007179300248797 
0.3158532932619377 
0.4560032118283595 
0.8966292340448622 
0.4378218890729897 
0.8888888888893615 
0.8888888888890465 
0.684177916396294 
0.727588293629995 
0.4601425644449469 
0.1803789797094695 
0.6666666666666667 
0.6666666666666666 
0.3734117663817262 
0.8888888888891446 
0.6666666666666666 
0.163300652648625 
-2.605375240807392 
0.6666666666666666 
0.1760274664698448 
0.6666666666666667 
0.6940557742434931 
0.6666666666666666 
0.08173017252154416 
-0.6394014651138255 
0.7592148219071987 
0.4503059646735874 
0.6193620266778469 
-0.8710453130108871 
0.9090909090913446 
0.7999999999997122 
0.7212958177089284 
0 
0.6372083180940348 
0.6666666666666666 
0.9243722353434752 
0.6666666666666666 
0.8571428571427141 
0.8888888888886954 
0.7999999999997182 
0.2892279711601593 
0.3254641115324021 
0.9440437796499238 
0.4 
0.8054919867673705 
-1.125803496788562 
0.679549815917786 
0.8571428571424873 
0.5161245726260338 
0.680094025593151 
0.6887417218546531 
0.08951537816277153 
0.5298394588223381 
-0.5111544742761382 
0.9273339251311451 
0.9355472524545275 
0.8581946123136743 
0.7680748239751314 
0.5543492192027917 
0.9137616335319149 
0.5926908184308319 
0.8573939558435936 
0.7804601434319716 
0.3770681397194309 
0.1064192631207432 
0.9230769230772238 
0.9090909090904712 
0.4867641782934707 
0.7135927012242863 
0.8752011473572223 
0.6940750014637431 
0.8777333362153961 
0.8571428571432028 
-0.4516129032253493 
0.333144658804518 
1.078447450039212 
0.01525155844489771 
0.7279643365161843 
0.8571428571426248 
0.1991640668161752 
0.6666666666666666 
0.9491525423724011 
0.7285480088061007 
0.8888888888889607 
0.3205860157063217 
0.1196372883045728 
0.8571428571426586 
0.9369939625805913 
0.181286087814778 
0.9383249630201345 
0.7200000000003808 
0.9333333333336248 
0.1583376634877787 
0.7999999999996648 
0.1998004763961685 
0.8888888888891382 
0.8062353740047508 
0.6112180764765464 
0.8000000000002836 
0.8111914392389044 
0.89737945673578 
0.8635356782740869 
0.8461218849807668 
0.4882465888395753 
0.9082066884672385 
0.9335600805131851 
0.9142420860919652 
0.8881983077973852 
0.9090909090908864 
0.2702702702705709 
0.9345801868718735 
0.8888888888889226 
0.8759195879943777 
0.7279878726253208 
0.38701048900012 
0.6666666666666667 
0.9096941456191041 
-0.374308914281282 
0.7999999999996077 
0.3805803064422513 
0.5283980924222293 
0.690668666131838 
0.4638877471123913 
0.8015117942783088 
-0.2361230761502443 
0.9722850671681054 
0.01466807564786264 
0.3584114686444163 
0.366387195013235 
0.6666666666666666 
0.3080920501759744 
0.3357202176689246 
0.8646917534027346 
-0.01449583491211828 
0.1988896188879284 
0.921473169145312 
0.7999999999996881 
0.3599078181219663 
0.6875530861213301 
0.06634609288993136 
0.2162298360483296 
-1.387778780781446e-17 
0.8571428571426388 
0.8000000000003068 
0.709677419355211 
0.8000000000003593 
0.7794113210137606 
0.9604136394504256 
0.9090909090911242 
0.489969919450049 
0.8000000000003022 
0.2500971016427642 
0.4989103466403065 
0.857142857142975 
0.7412260957127756 
-0.2030634532213059 
0.7999999999997041 
0.9196618006488818 
0.876017738663972 
0.9954611278179643 
0.9416996250219748 
0.2203600031274909 
0.6326224390536883 
0.05714285714313655 
0.3861277345721288 
0.6666666666666666 
0.6666666666666666 
0.8571428571432205 
0.08567864606543542 
0.8206707736239547 
0.1985113770943734 
0.2484675083093387 
0.9415308012218573 
0.9168430335460163 
0 
0.0002164486190362949 
0.4108003485417246 
0.3732240191524632 
0.9013793934914127 
0.5847975658902601 
0.4081111303832156 
0.7893978426942515 
0.8695652173910605 
0.6833974997593532 
0.762219621621833 
0.7118643925314921 
0.798265160051107 
0.7383162625687987 
0.4538274867133957 
0.9959398126052198 
0.07291056693246435 
0.6744473324919235 
0.8681742917243247 
0.6666666666666666 
0.2747731859173946 
0.4367495365383458 
0.6666666666666666 
-1.304793764591852 
0.5231095476519468 
0.2496977785164974 
0.07795088527667231 
0.2289753940926911 
0.6666666666666666 
0.6666666666666666 
0.8000000000003027 
0.6666666666666666 
0.6666666666666666 
0.6666666666666667 
0.8888888888889461 
0.6414612673739568 
1.058823529411588 
0.9336428643628708 
0.8888888888886791 
0.7741935483873897 
0.9473684210523629 
0 
0.6076725982093809 
0.901862729335965 
0.4790068048746521 
0.684961871471319 
0.6438403396719017 
0.4013102020257202 
0.8571428571433339 
0.8171457942981035 
0.6549106240090272 
0.923884784894781 
0.9608764051015415 
0.6666666666666666 
0.6832159030884589 
0.6912606367322117 
0.7999999999996786 
0.4735075026255857 
0.4 
0.7071225516669429 
0.1276346391032746 
0.4164656856803315 
0.9477233120585494 
0.945001120412554 
0.6138269797258787 
0.7466666666668231 
-0.2531223322487959 
0.9720591344537071 
0.255845324509152 
0.5954077596995445 
0.04790070489566431 
0.947368421052989 
0.3336842869591544 
0.7423482404695826 
0.9090909090912324 
0.2222222222222222 
1.160187845883364 
0.6073665532743395 
0.4535392681472609 
0 
0.7295349731252813 
0.8000000000003386 
0.9660299450639204 
0.09645246626931993 
0.7272727272728698 
1.135770415313922 
0.2591179926124009 
-0.02163646267779482 
0.2867687889251309 
0.2724915671227888 
0.2425776395098079 
0.6666666666666667 
0.1017730034490808 
0.7035559287909491 
0.8018768616205729 
0.7999999999996938 
0.9064615554417828 
0.7737659607014482 
0.9304138345540044 
0.6666666666666666 
0.68965517241344 
0.7999999999997085 
0.6666666666666666 
0.9273188976208779 
0.6785520013122702 
1.282959562086821 
0.8695103469740537 
0.5468462777163235 
0.3678703713087389 
0.1598886728514621 
0.5264960297153779 
0.9230769230770763 
0 
0.4817592200280519 
-0.3358670306317345 
0.2321537086018159 
0.6666314975127828 
0.6713223728973873 
0.9075986027269142 
0.4648548322760442 
0.007555510916424419 
0.8571428571425384 
0.8992248062011657 
0.396167349841304 
0.6193636506432175 
0.7629895933222347 
0.909090909091177 
0.7999999999996816 
0.1734345499074737 
0.7578095533932155 
0.202542303680425 
0.4711141897387337 
0.9630447643753007 
0.8000000000003745 
0.9459828640947943 
0.9333333333330228 
0.7999999999996816 
0.7408384000522655 
0.4179441665281696 
0.006366792167506827 
0.9719006439787741 
0.3239236024119579 
0.8888888888886068 
0.7999999999997096 
0.2832599821704755 
0.9735112995073398 
0.9120198454760527 
0.7127466303351965 
0.7132867132865592 
0.8089382430523017 
0.5985231998925393 
0.8888888888884751 
0.9513254486369715 
0.8226193771738839 
-2.219513337759251 
-1.67901091327503 
-1.304298580421416 
0.2865485635594546 
0.6666666666666666 
0.376623547736096 
0.9069582875185727 
0.5900984197057028 
0.759498692608976 
0.4 
0.7901484175307207 
0.909090909091158 
0.6666666666666666 
0.9675705453273509 
0.9050917612834053 
0.05714285714327578 
0.8235294117643193 
0.8875906008530613 
0.8105276949675475 
0.7529418664738768 
0.6666666666666667 
0.917381479116768 
0.7008260621735274 
0.2380038757607379 
0.2909120881635446 
0.7264126604884439 
0.5662809319886775 
0.6311413966929523 
0.9519026441343423 
0.9090909090910096 
0.8915443359090484 
0.8891161188460479 
0.5289132197934315 
-1.596480213646462 
0.8249652577282001 
0.6199677415863782 
0.07784778648693326 
0.799999999999721 
0.8428053505406068 
0.6666666666666666 
0.6605506159204985 
0.8502904251919278 
0.3428032307148299 
0.8618978852178071 
0.6666666666666667 
0.7048068560144488 
0.8888888888884877 
0.8888888888891168 
0.1547780255627282 
0.8888888888891694 
0.7368421052631908 
0.7841405294498877 
0.9110622020787132 
0.2945232694227707 
0.923076923076476 
0.943396226415369 
0.8134541806140746 
0.8571428571426541 
0.85714285714321 
0.9046867772225458 
0.9461144548444546 
0.8888888888892178 
0.9375963027907515 
1.387778780781446e-17 
0.823529411764655 
0.8196445478116253 
0.2488011425496509 
0.789166942383934 
0.4809810699676246 
-0.1048595060362334 
0.8589438202186018 
0.9321051177655714 
0.6935242164114268 
0.857142857142468 
0.03145593799002422 
0.7814411575487255 
0.128519371167738 
0.7999999999996622 
0.08010873257723673 
0.8888888888887183 
0.3978767050840001 
0.4063014820648451 
0.8813649293104899 
0.5225957521681068 
0.8048074109159419 
0.8894408410042289 
0.9473684210526498 
0.89663290459405 
0.8000000000002945 
0.6666666666666667 
0.8597115054172685 
-2.31342194886923 
0.7353975312463532 
0.9405405907451025 
0.8888888888892781 
0.6666666666666666 
0.8000000000003581 
1.308734855359848 
0.7999999999996245 
-0.2187325663497071 
0.7874394300904971 
0.5837559940728031 
1.00545969647478 
0.7077334964086291 
0.9230769230767309 
0.92307692307689 
0.6204122732789835 
0.6892216264453368 
0.9064528306962986 
0.6767851299206951 
0.8714649884872361 
0.6795803693723323 
1.192676647171127 
0.9284075258061922 
0.9599999999997588 
0.3959432238572247 
0.6588280818464757 
0.745172429800161 
0.7999999999996823 
-1.779840716092581 
0.7999999999996623 
0.6955684182923727 
0.08786938535782221 
0.6035803307868047 
0.7560266975706893 
0.7272727272731386 
0.9213437148914259 
0.9042649801747877 
0.7488158059663511 
0.6959570985754538 
0.9523809523807732 
0.6916726192978923 
0.9896628043531306 
0.8888888888885733 
0.9045675953936076 
0.1762479690186252 
0 
1.655097594769808 
0.8571428571429613 
0.9708328878601168 
0.7743061625614893 
0.7414698455130107 
0.7746109218280799 
0.9421353346242554 
0 
0.9411764705884373 
0.9096405486293552 
0.7999999999996779 
0.3495625758599908 
0.0004806738722956356 
-0.03090092123331018 
0.8218438900644539 
0.967482224486289 
1.095199498460885 
-0.1246285012182913 
0.3923635887736933 
0.1832260178701615 
0.863580353595688 
0.8082139581078945 
0.732971098529823 
0.941176470588463 
0.7969574458895746 
0.7999999999996722 
0.7770802326652088 
0.8273697261339895 
0 
0.02712700369899261 
0.6669078264323335 
0.4021480322537577 
0.7058823529409892 
0.8888888888891026 
1.332752943047504 
0.9271821821111721 
0.2200308731780467 
0.0360410213917208 
0.901064818332135 
0.9941784414461018 
0.3184878865402342 
0.9341415113141684 
-0.3267170406196001 
0.3211678832116349 
0.8888888888885104 
0.8665455083411177 
0.1946331267237328 
0.8888888888887365 
0.8571428571429671 
0.9137299370308278 
0.4605302909737136 
0.9333333333330214 
0.634802613266361 
0.5238293328964012 
0.3899615459880853 
0 
0.6309644014950276 
0.8229808387743827 
0.6525808058870006 
-1.387778780781446e-17 
-1.004246974003391 
0.1363101411946818 
0.1711243104670018 
0.3076923076924479 
0.6642937338384509 
0.08124283602709988 
-0.01788530437510585 
0.7290404431622149 
0 
-0.3528109465619926 
0.4 
0.5656013594725425 
0.2541770239117426 
0.8000000000002958 
0.9860331163711353 
0.4769650897607098 
0.1687692438622457 
0.9090909090906252 
0.8405944758085757 
0.9090909090904754 
0.1605184565768966 
0.9105363523911252 
0.7735693590033192 
0.9607906188391852 
0.201380016091172 
0.4705882352943197 
0.7999999999996816 
-0.05913995031224648 
0.9548799073289534 
0.6749190134128249 
0.9484536082473574 
0.3258203228191903 
0.7323094856472653 
0.2405303760717243 
0.7203272963113645 
0.8434927419828702 
0.3613541924077133 
0.8000000000003119 
0.7619047619045873 
0.6900650124440355 
0.6666666666666666 
0.9150184283075492 
0 
0.9423795467954162 
0.1452696333625415 
0.1818181818177973 
0.8571428571426116 
0.2020458669325626 
0.7999999999996816 
-1.662903284597286 
-1.206914519693941 
0.3779583661528978 
0.9411764705879305 
0.915041571093003 
0.02354539709574801 
0.894861626076123 
0.409439260491415 
-0.2433301616393288 
0.6693238154533305 
0.2489794120757185 
1.103897439030745 
0.9333333333336058 
0.5290836931565512 
0.6884120555867121 
0.8648648648646081 
0.8275862068966016 
0.3693489577727966 
0.800000000000393 
0.5285684831528962 
0.3559256857945087 
0.9333333333337994 
0.6666666666666666 
0.7268249071022365 
0.9333333333334746 
0.8000000000003691 
0.7654693288070975 
0.5636076152106522 
0.8571428571428847 
0.8185345133088797 
0.6803521582535375 
0.9880656769576552 
0.8571428571424825 
0.8031496062988284 
0.8235294117643659 
0.6666666666666666 
0.7999999999996594 
0.7999999999996816 
0.7633315149964061 
0.8601325427276713 
0.9090909090913439 
0.9523809523810077 
0.4454923955584825 
0.7749861098278399 
0.8156424581001586 
0.1212121212121565 
1.045196169105738 
0.5181341928889815 
0.7999999999997314 
0.8888888888887169 
0.5632626960567291 
0.6666666666666666 
0.3647801346978181 
0.517551769254237 
0.8888888888891575 
-0.2812503086510619 
0.1940984489310503 
0.4995299992152458 
0.1488388650782016 
0.3983048102726798 
1.149456968038636 
0.2264675290988731 
0.4537640905537442 
0.1960784313514003 
0.8000000000002803 
0.3379616749448916 
0.8571428571432423 
0.105695938417314 
0.7999999999996468 
0.9503718281879223 
0.1993540754931224 
-1.690008613904334 
0.85823754789248 
0.7563645667737773 
0.01068681724325907 
0.8000000000003104 
0.3001607733517046 
0 
0.9333333333337926 
0.8888888888885187 
0.2601949645584854 
0.4969417982469768 
0.686114836488639 
0.919097154716201 
0.181183164067805 
-1.816597156305063 
0.9523809523809084 
0.6753392705129299 
0.6117083377858564 
0.8006706232085339 
0.1589986410838725 
0.8904760474253418 
0.688607583312649 
0.07061720016325597 
0.8344027794550544 
0.7410500484613124 
0.7458370243960303 
0.6666666666666666 
0.2239167915280827 
0.67202166275902 
0.2538505329293578 
0.3182073751448291 
0.8867443426050778 
0.4297214559266766 
0.9113291203564321 
0.2692225682511135 
-0.4184210385306201 
0.5051276124422153 
0.1693373345045912 
0.2978310890361935 
1.174836165394091 
0.9483413702968116 
0.9544653334438516 
0.8543931892179566 
0.48474436369052 
0.1724029884473106 
1.134788696193458 
0.7251990777400795 
0.8974898154462706 
0.7999999999996842 
0.4926862061540654 
0.8888888888893443 
0.4658382436568279 
0.6666666666666666 
0.3866659279496277 
0.8253588934143347 
0.7999999999996635 
0.8175984538468628 
0.9042995039073849 
0 
0.1153741691939576 
-1.861349904359018 
0.05114333925435883 
0.8528577218358091 
0.7211384970682755 
0.702970618959764 
1.152533230636221 
0.8571428571432413 
0.8571428571425175 
0.8837495661320188 
0.1281861514503114 
0.8242626967604201 
0.7214963364947382 
0.8888888888892882 
0.9853461553880359 
0.7095006784258608 
0.6666666666666666 
0.9477488340001012 
0.5312181035075 
0.6750064995194254 
0.9090909090905736 
0.7561818866506045 
1.044709484042546 
0.8571428571430199 
0.5592729390877729 
0.7603917183881371 
0.5013165836646365 
-1.979298729625459 
0.8000000000002865 
0.7105274199389675 
0.5338481718277127 
0.6666666666666666 
0.8251742054189065 
0.8648648648645703 
0.4180710777203017 
0.2130602312684131 
0.7342478796804511 
0.533038081602345 
-1.429352910548159 
0.670241209628104 
0.7351683700396868 
0.8571428571426672 
0.1831677600971483 
0.4990139139427726 
0.802221632829538 
0.5692225193059745 
0.1158930142917348 
0.4191096627870659 
0.9505822161573051 
0.3103533956148971 
0.6666666666666666 
0.8571428571431925 
0.8000000000003211 
-0.3770467535650031 
0.5938286149921176 
0.1975739357514245 
0.7763844865156484 
0.5072647931416558 
0.1828468630416569 
0.8888888888890868 
0.6410594080766285 
0.07961885579255375 
0.3106323045247722 
0.4 
0.888888888888688 
0.9333333333336532 
0.07079646017698692 
0.8000000000002804 
0.8004546413189926 
0.9090909090910519 
0.459694738459215 
0.8938343983356234 
0.20808855292387 
0.8305545843773098 
0.9090909090907019 
0.6768557466656832 
0.6666666666666666 
0.4909226853724596 
0.8571428571425005 
0.8564621016935927 
0.9557123291464237 
0.1152077129443644 
0.9105372882440628 
0.2601065130987515 
0.6858637607998512 
0.7999999999996075 
1.356828193832462 
-0.09871808234971582 
0.8888888888892816 
0.7999999999996557 
0.8787890462733957 
0.781410168652231 
0.55759018034126 
0.785906711449083 
0.9422398864122671 
-0.4674726236720887 
0.7144076718766169 
0.7247783744112182 
0.8571428571430378 
0.8888888888888934 
0.849470538741576 
0.6666666666666666 
0.8000000000003586 
0.8027968690423692 
0.7810889505870064 
0.8635608336169219 
0.9090909090909793 
0.7196205327219733 
0.5454545454543142 
0.7690816399533635 
0.5195215641981767 
0.4624082123875135 
0.9230769230772328 
0.8000000000003226 
0.4067796610167262 
0.9353951393095103 
0.927120873417017 
0.8235294117644277 
0.952380952380535 
0.8002145352328884 
0.9300337778448181 
0.54417039014769 
0.9524958386798383 
0.9558566984443472 
0.2452922153409469 
0.3222237552482322 
0.9646884286692519 
0.6019387631170665 
0.8888888888890247 
0.9620488426870575 
0.08557000259768646 
0.9505275677678005 
0.6666666666666666 
0.5802165376754747 
0.8020093903050132 
0.8077668026211082 
0.2857142857140693 
0.4444444444440698 
0.07106578697116921 
0.3303066128602349 
0.7723747866345821 
-1.698068855681717 
0.8571428571429474 
0.9113134606459765 
0.9496127035354203 
0.6666666666666667 
0.1837982782175548 
0.8636341047085757 
0.7520884054125501 
1.032653521519258 
0.9265163286909646 
0.8888888888886168 
-0.1620497305560246 
0.8965517241374947 
0.6162374781977089 
0.2959543823034565 
0.6666666666666666 
0.8484173437667978 
0.9634149694288311 
0.8000000000002949 
0.116265509770841 
0.04655402671955711 
0.6666666666666666 
0.2896637179121446 
0.8366728606493583 
0.948583608504966 
0.8888888888891261 
0.9848808688274087 
0.858285142447149 
0.9378703242313092 
0.9090909090906031 
0.3279466710452612 
0.9924906781501559 
1.158928674020967 
0.8757300383634948 
0.9090909090912028 
0.7058823529410794 
0.9046302629433025 
0.8000000000003538 
0.2586377845119361 
0.9767441860463129 
0.9333333333333577 
0.3773236121056316 
0.7598293234413502 
0.6747422024670874 
0.5477843484481433 
0.96736477002656 
0.7711833656904961 
0.8847484252794636 
0.882429846572256 
-0.03661458352424625 
0.734295818547355 
0.9230769230767009 
0.2858085981003805 
0.8036115680163326 
0.9187833786201567 
0.7393471607802018 
0.7943832423839736 
0.8618640472148597 
0.2390981240473199 
0.9029416691144752 
0.833513007207637 
0.9294227418214088 
0.8888888888891223 
0.9281385720414855 
0.1963770334331812 
0.05187671462722114 
0.2137925689974 
0.8490814651663955 
0.4483236043362092 
0.6756323027865891 
0.6277601788126751 
0.4634637253892085 
0.4998717993001308 
0.857142857143391 
0.459538227993558 
0.9090909090913111 
0.2150382737507157 
0.9682442521860563 
0.6666666666666666 
0.8603029195835526 
0.6769230769233465 
0.8644378448449879 
0.6543778801841319 
0 
0.862925020270998 
0.06610520759033109 
0.9629629629624769 
0.8828700404112494 
-2.051997099424609 
0.4576406617901754 
0.7393247099734749 
0.8809202327226788 
0.9086417828328783 
0.7927357410182169 
0.9432540205185946 
0.8689952221106942 
0.8000000000002672 
-0.0118067895561799 
0.9229789517898462 
0.6808510638299731 
0.2066744741109089 
-2.136940474621057 
0.00369406632849765 
0.8807780532880133 
0.6162584827699645 
0.9414672695413986 
0.8892585850043946 
0.1807284679572925 
-1.796849645012417 
0.799999999999679 
0.7105541258038122 
0.8571428571425548 
0.6666666666666666 
0.9090909090904992 
0.7999999999996372 
0.9090909090912268 
0.5752668162155482 
0.5534056499178884 
0.7367491042224722 
0.0506383638286121 
0.6707472376387575 
0.8696699021289248 
0.8023920111297999 
0.7304085027353795 
0.2284770838878871 
0.8571428571425097 
0.6666666666666666 
0.5879969316945466 
0.8571428571432936 
0.9333333333330344 
0.6445464842831936 
0.8375047076441681 
0.6666666666666666 
0.2047244094489695 
0.4444444444443703 
0.8048997585864696 
0.6472776609572708 
0.9090909090906847 
0.3761436547738456 
0.6929790224877539 
0 
0.9454467815190073 
0.8013161025264665 
0.9411764705884739 
0.8053687652689071 
0.3779971789997392 
0.4980201941138108 
0.1404968428493059 
0.8641664477744924 
0.5850944080322966 
0.6614147355154112 
0.9569744059936763 
0.139737941909745 
0.4960907495112768 
0.4198194930822993 
0.9324016940318421 
0.111623958502691 
0.857142857142558 
0.02194493310341129 
0.9090909090905578 
0.6666666666666666 
0.8571428571431785 
0.3039580141714605 
0.8394394399875189 
0.3055045760575327 
0.5065244521667968 
0.896884511274161 
0.8979591836738309 
0.7737639415586163 
0.7999999999996227 
0.8888888888885984 
0.7293866646324837 
0.6949434656102971 
0.139743556263658 
0.5909755171306321 
0.7937454268950095 
0.7969021028674761 
0.430216336894561 
0.6666666666666666 
0.9289347960453337 
0.8688668494830112 
0.619622049331392 
-0.1987158934014988 
0.9090909090904314 
0.5785876189768681 
0.9122807017544682 
0.8980445227997892 
0.5180231581165589 
0.5612943425604392 
0.8628079709621839 
0.931537138442221 
0.8347529456186314 
0.8000000000003537 
0.02597402597398568 
0.6135936490983108 
0.7347176489415272 
0.8140101024016086 
0.8225373332584732 
0 
0.6059053416355149 
0.1964616590646097 
0.9474610503773202 
0.7332534433356918 
0.9671048241652649 
0.7969719840922243 
0.2751140834787337 
0.4759902936208525 
0.800000000000334 
0.5644422118587795 
0.8915483043582648 
0.8000000000003903 
0.5454545454547682 
0.2971071070303919 
0.6213650985328394 
0.6666666666666666 
0.8571428571431343 
0.1587901701323663 
0.8883348682150255 
0.8211998744212675 
0.9411764705881831 
0.7272727272731967 
0.8469947581303088 
0.6499409535426894 
-0.1594589122956558 
0.608820661351251 
-0.03281050714771485 
-1.689352101530282 
0.8220364156407306 
0.9794222498345341 
0.6666666666666666 
0.6446351617536283 
0.7301098306762749 
0.7940098429046784 
0.9090909090912467 
0.951996227377071 
0.9599999999999465 
0.841943495450013 
0.6666666666666666 
0.8888888888886519 
0.3035924833632694 
0.8062891762720861 
0.2751722906430881 
0.7826317647393158 
0.7811619263622919 
0.9652740544453892 
0.8000000000003509 
0.4625542289191485 
0.4879132180306796 
0.7020429192680188 
0.9578835252019294 
0.5685036087805441 
0.909090909090624 
-1.947293431456342 
0.8382883433238008 
0.1737351956231947 
0.4479389973387676 
0.9269737681728504 
-0.1837746963824251 
0.2886529078623002 
1.188892854051429 
-0.811659884743563 
0.3883042772840128 
0.8108108108105417 
0 
0.2369533248390308 
0.5524763486951352 
0.6587416107527388 
0.384161620819702 
0.7435025322861984 
0.7783388409228162 
0.9659863945579773 
0.7299438592298934 
0.7827610630599657 
0.9526211884008046 
0.668416485110213 
0.9395047375254547 
0.8677177854841753 
0.06179019016208334 
0.7596010334614843 
0.6927465742615738 
0.9351750769847129 
0.631811981581172 
0.6311514128510044 
0.9982998935443232 
0.4196211163312782 
0.7768786127034227 
0.8375910271756255 
0.9032258064512146 
0.7272399614418358 
0.8681962368412117 
0.9230769230772249 
0.8306008555642023 
0.8101099839467301 
0.5913585872998446 
0.7679282153511442 
0.4031775742783902 
0.8437660870038496 
0.4587155963302063 
0.4051604976490925 
0.6725495178213461 
0.9683248548252382 
-0.1219825963078712 
0.8009922059752909 
0.8356702234180927 
0.7115412232812689 
0.5446618272393002 
0.8000000000003472 
0.3674100920997737 
0.04779787118040596 
0.9090909090912308 
0.6666666666666666 
0.933969825642995 
0.6666666666666666 
0.8000000000002743 
0.7432383680645327 
1.020423300694346 
0.258633566685681 
0.8888888888892905 
0.4888703513470261 
0.6357229130529416 
0.2674601317530261 
0.3822981647558547 
0.9060350502178779 
0 
0.819210843212838 
0 
0.3054997855588701 
0.8580232033084358 
0.6175613991423374 
0.1967213114749108 
0.8000398467175921 
0.7999999999996297 
0.4 
0.9885970971446767 
-1.260486172303276 
0.9090909090912234 
0.9067010047267674 
0.8181739041586006 
0.06066029861312807 
0.7836704421935405 
0.8000000000002745 
0.3032805821352063 
0.5188930689017834 
0.6963137415924932 
0.8593838831338103 
0.8000000000003721 
0.8880037442712829 
0.6187754429118132 
0.8068897353828938 
0.800220134940226 
0.891255883081819 
0.9221889180619289 
0 
0.6837926221153608 
0.270631901209879 
-1.785143556913348 
0.5344789414044424 
0.8571428571432782 
0.6039729410703237 
0.8610123031732121 
0.9950790697435554 
0.7987720724516283 
-0.01903861298945816 
0.6666666666666666 
0.8000000000003036 
0.181698718474148 
0.6666666666666666 
0.4552279672988403 
0.7999999999997193 
0.8571428571432761 
0.7665491721454574 
0.7496067059935148 
-0.3561815645820804 
0.8812298903321332 
0.7127397401173137 
0.6126136169310158 
0.2187147869373766 
0.4211357863772476 
0.6946197856914419 
-2.108268646084562 
-1.459502139158836 
0.9491525423728575 
0.8888888888886376 
0.4707532034675904 
0.8356273960776169 
0.918945120724066 
0.7999999999996796 
0.9885258784141274 
0.8980126990926749 
0.6909090909094575 
0.4912128980283696 
0.9090909090908051 
0.8512189726584004 
0.592907284902454 
0.6429139321081401 
0.9022608734802986 
0.5111610811912219 
0.3812012181749497 
-0.0491806696648586 
0.965564867438409 
0.3806051451801218 
0.6940358003754273 
0.03168561697629856 
-0.2731573960137424 
0.3029005008594729 
0.9503722494491431 
0.2107072507628975 
0.8450520135269189 
0.800000000000337 
0.6666666666666666 
0.7422444833706658 
0.7275161136846923 
0.7225071879452442 
0.8571428571433574 
0.9383652792816448 
0.3551317297671381 
0.8147128495142394 
-2.081668171172169e-17 
0.6499029877353774 
0.1934645720557789 
0.3978046021310646 
0.7151095721156464 
0.9665871689046672 
0.1329324604573002 
0.5857019748171811 
0.9090909090904441 
0.01387704916017182 
-0.007587710878574437 
0.8275862068967104 
0.8056243081366674 
0.509353565587049 
0.7925818211329236 
0.9753981427099528 
0.8734904240073283 
0.1127214171213489 
0.8266262606307815 
0.1793145305574622 
0.03987966577688513 
0.8667504139778078 
0.4444444444442334 
0.4534299058227744 
0.4186660975423537 
0.8791779496473739 
0.0006973930326260053 
0.4733255726423836 
0.7179297845259808 
0.2277067850563856 
0.5588942061102997 
0.6666666666666666 
0.879269395792289 
0.8153839184685376 
0.4870967349549287 
0.8992248062018561 
0.9090909090910267 
0.7766955626421933 
0.18933288549794 
0.01068016206721105 
0.7700228362890016 
0.004269483766384941 
0.6943555135040155 
0.04423386502352052 
0.9333333333335717 
0.8888888888890815 
0.8000000000002788 
0.7999999999997324 
0.8542989295543185 
0.8000000000003606 
0.9542163097342595 
0.9132323774578428 
0.8571428571431934 
0.2169992375022306 
0.8571428571431525 
0.8571428571430855 
0.9824060465932842 
0.535561586632873 
0.6678774565744967 
0.8810966251001707 
0.9455813576819571 
0.5102505727411325 
0.4144215671907873 
0.8000000000003877 
0.947160042624232 
0.1231704160707573 
0.6666666666666666 
0.790567108493909 
0.8247268638643838 
0.05454063239313573 
0.3238204581165356 
0.6476473677980135 
0.6153846153850749 
0.4605140451571575 
0.824449473247217 
0.9230769230765266 
0 
0.2857142857142858 
0.8571428571425274 
0.8016738175213293 
0.6798513526103721 
0.8838389053663482 
0.7536439886578365 
0.7999999999997314 
0.6963013430751385 
0.1510652691703137 
0.1818181818183837 
0.7645772493253289 
0.1861468896726304 
0.8045228798053656 
0.7999999999996115 
0.744107575934988 
0.8971425223333855 
0.5900287238290615 
0.9183687229449462 
0.3316094140490431 
0.3514961124485436 
0.9277562504609813 
0.588235294117852 
0.6666666666666666 
0.1978224915701599 
0.5411241730249259 
0.6450892035338943 
0.6666666666666666 
0.6666666666666666 
0.9090909090907306 
0.9411764705883671 
0.8571428571425688 
0.8572474539589984 
0.6666666666666666 
-0.1776357791806722 
0.4199722990141836 
0.8937664440445382 
0.7170230076658983 
0.7678326843599583 
0.6188419976352071 
0.8170862752385326 
0.612759928456734 
0.9210151878130297 
0.431633225218084 
0.800000000000359 
0.7999999999997131 
0.7999999999996513 
0.9178120853364909 
0.8207129516324768 
0.8142827679439045 
0.7081316519593419 
0.8561532244416719 
0.4647654596240105 
0.8342917412726192 
0 
0.894409937887904 
0.03079930227440209 
0.810947123685844 
0 
0.9345308985832141 
0.5907616689806671 
0.1302813489269579 
0.8464698055880789 
0.4019875495924974 
0.6666666666666667 
0.6666666666666666 
0.8888888888885585 
0.8018511456963839 
0.02105263157893742 
0.5237259337189852 
0.8571428571433922 
0.6666666666666666 
0.9268292682925894 
0.8000000000003546 
0.6666666666666666 
0.4376936572316187 
0.5632910320372516 
1.039382835114582 
0.04892795632739157 
0.6666666666666666 
0.6666666666666666 
0.6666666666666666 
0.6666666666666666 
0.5616661323363568 
0.706601603156526 
0.9309503472018256 
0.2823423543730942 
0.8147089946780481 
0.1947399529374526 
0.6666666666666666 
0.2994750286127359 
0.3728813559323849 
0.6666666666666666 
0.6709129511674788 
0.5289679789991507 
0.4750524935442688 
0.3831347345675478 
0.354184736875024 
0.04194305089007418 
0.8100386402705319 
0.6666666666666667 
0.8571428571430048 
0.6746367724478587 
0.8812703117375416 
0.8992006392463257 
0.888888888889148 
0.8214871032788544 
0.9230769230766717 
0.8102201521930894 
-1.549513259826953 
-1.464446586273826 
0.2164449177875048 
0.6891198213653199 
-0.06961179832330501 
0.4447440153241435 
0.01626016260180351 
0.6289161242111606 
0.7506350623172588 
0.7800692094486171 
0.4432026919461276 
0.6666666666666666 
0.4115711701058336 
0.167811005667403 
0.7571886551236469 
0.2502736308637614 
0.3400811577469981 
0.8000000000003427 
0.00858369098670521 
0.8230252790817163 
0.8412885194639135 
0.06454576294382311 
0.8148148148145532 
1.097969068646082 
0.6699640449003006 
0.8640400935653997 
0.891126534211617 
0.651067503612877 
0.6769659796573244 
0.363077522497079 
0.2170887423818122 
0.9269939484725405 
0.6333120608534246 
0.9112540933588477 
0.5606832102346022 
0.486486486486381 
0.1947897275001451 
0.7078991301408486 
-0.3114503286990261 
0.5510068403308221 
0.5454036302821841 
0.1043826932071198 
1.123983917559624 
0.9144843166026864 
0.5005605103747784 
0.8888888888892107 
0.9714285714285281 
0.5586967820180345 
0.9222427634788118 
-0.04950304496119486 
0.8649082200396503 
0.9090909090906387 
0.7483578727601973 
0.9426911734013492 
0.05479452054785464 
0.9545905301302871 
0.9268292682926822 
-1.606029748212267 
0.8682761970489586 
0.1771063951673191 
0.3915870583944653 
-0.388908137773752 
0.6416147973014832 
0.6666666666666666 
0.3356262663220196 
0.2385297439241195 
0.7695791571657741 
0.8089887640445567 
0.6782263154294791 
-3.469446951953614e-18 
0.7884897614003955 
0.8888888888891874 
0.8184933967295976 
0.3079260801767694 
0.8304091997019337 
0.9230769230766751 
0.4941794472506478 
0.6837062930762381 
0.8774393619460246 
0.9785521357673144 
0.9090909090905033 
2.01069864022549 
0.4761904761904003 
0.6736910343108694 
0.9391321162801084 
0.38506947218856 
-0.2403604229842288 
-0.001144192111299395 
0 
0.590565348454248 
0.8981383184492039 
0.8771923651995094 
0.347773040268151 
0.3161880858204769 
0.3652645765474256 
0.7641820057130884 
0.3996045452906244 
0.7096774193547749 
0.8571428571423186 
0.8518308406520733 
0.8675744368773738 
0.7316460953716151 
0.8616454125316747 
0.8247339170124717 
0.8571428571427824 
0.8149950501864802 
0.8778340106178989 
0.7999999999996816 
0.8284045458896118 
0.8888888888885859 
0.5485171647867715 
0.7840586289024831 
0.258894981842835 
0.8982035928139033 
0.488573390636908 
0.6666666666666666 
0.4706086568899451 
0.6443547186071633 
0.6278287881089385 
0.2437770441001903 
0.2802966915990477 
-0.2852646800941283 
0.7272727272724848 
0 
0.8888888888889863 
0.705882352940825 
0.739808767319366 
0.6567439210424305 
-0.1885529953428268 
0.7945771950762857 
0.8000000000002965 
0.2898916070935754 
0.8155383955819155 
0.8113100556568213 
0.8102211468817712 
0.9090909090907211 
0.9090909090910335 
0.6666666666666666 
0.8658704023456025 
0.9085184928696192 
0.8731511375415392 
0.2352941176471636 
0.6666666666666665 
0.5929098139629668 
0.8588899371819873 
0.700877238003324 
0.8798526420163828 
0.4156234350437896 
0.5108846831168073 
0.3697288597668901 
0.531269151447552 
0.8888888888891576 
0.4207094038832857 
0.7268477247210569 
0.7100835730370969 
0.6484829559150259 
0.3290358748788391 
0.2664997898734073 
0.3790599314835889 
0.9106410646745853 
0.07687247560249506 
0.6288304848229244 
0.9230769230768527 
0.4585600811624799 
0.7784917215690391 
0.7052358803046261 
0.6819728849175818 
0.4175232070165703 
0.144049905000241 
-0.01693846642914354 
0.49971880825024 
-0.1154639583556484 
0.6666666666666666 
0.6086329128408339 
0.850362195581339 
0.8888888888888073 
0.6394066374940822 
0.9076939700965864 
0.7927120951303238 
0.5577746129637305 
0.9258493434181794 
0.9523809523808836 
0.74352812485742 
1.126531736908226 
-2.278245421990311 
0.8599064236829704 
0.8643974636853714 
0.8110581786467208 
0.5065608839743 
0.9397621222182057 
0.6703924362396351 
0.8911995974885327 
0.7961608521494838 
0.4361827292897754 
0.6370520339129555 
0.7325040716742751 
0.8944314360921187 
0.9415900709476676 
0.8079409976113847 
0.9478150312757074 
0.894505947393743 
0.6189387116778828 
0.7506499286832161 
0.8989102238871209 
0.4444444444442597 
0.1581318121965673 
0.8888888888885996 
0.8220026325209904 
0.4718949265342691 
0.6666666666666666 
0.7999999999996377 
0.1818181818183808 
0.9230769230768796 
0.1509389480339455 
0.6666666666666667 
0.8871785733655989 
0.6488341133395873 
0.4690054841575641 
0.9461713717888985 
0.7311944624553804 
0.5249778596436251 
0.6666666666666667 
0.7639902753277001 
0.03507606548702931 
0.9400358056441251 
0.9367088607595898 
0.8651713179151773 
0.3008950863301675 
0.8148535748518706 
0.8148148148148772 
0.8568948103488535 
0.1521025521300431 
0.8718150117382428 
0.9206793752173303 
-0.07263061928380705 
0.6216952984139525 
0.5190138471903171 
0.831548331288171 
0.8294117880692444 
0.9089403386704659 
0.7207785408627104 
0.72076069343016 
0.8095257385269047 
0.6666666666666666 
0.2656954505202361 
0.8888888888889526 
0.7653042786155078 
0.5590450815986956 
0.9252321324403986 
1.3271847618529 
0.35141236006958 
0.947368421052498 
0.7665928839815841 
0.3010715459313946 
0.5574645394649863 
0.8571428571426932 
-0.1882405995949368 
0.585492664214234 
0.3304058823539925 
0.4255744587109819 
0.8888888888885524 
0.9208073762169778 
0.8571428571429627 
0.1935483870969939 
0.8165151266331234 
0.8000000000003999 
0.3521132374057895 
0.3506813770050929 
0.8558908052903759 
0.4751652126151071 
0.816026615469838 
0.7386759581938706 
0.8704759054938427 
0.6666666666666666 
0.7506760197872455 
0.6666666666666666 
0.9798478675822864 
0.5426580906564378 
0.6666666666666666 
0.9600000000001879 
0.8741483873559351 
0.7012476804284483 
0.03579096846133781 
0.9497489768859125 
0.6763470663347 
0.4618174827741759 
0.2970729360337514 
0.9230769230769262 
0.857142857142947 
0.8571428571431967 
0.6666666666666666 
0.1644358734091672 
0.6831203820414709 
0.1384846771087094 
0.4515256433340643 
0.7999999999996933 
0.4 
0.3281775659686811 
-0.07936820765717707 
0.5924960144642833 
0.6739371866657247 
0.7394099438410382 
0.5898035952127506 
0.7100970822839663 
0.9142857142858493 
0.7999999999996483 
0.8000000000002903 
0.1960501487271914 
0.9712931154493252 
0.973180678568447 
0.4178107716044556 
0.9090909090912178 
0.3786884226977884 
0.8888888888886305 
0.5808587856662623 
0.5491036520513816 
0.8676748261928039 
0.4770642201833857 
1.071431691935881 
0.8717948717947324 
0.7868826085794134 
0.9566758817595676 
0.7034025973706443 
0.2309787093904282 
1.04007416489575 
0.6666666666666667 
0.9230769230772545 
0.9090909090905928 
0.1881871959884354 
0.5833119937152695 
0.8151430150496313 
0.6520245300303108 
0.8292682926828755 
0.7999999999997192 
0.1788359649472709 
0.8743631989485994 
0.02489183876961515 
-0.6079821254697207 
0.7999999999997041 
0.4638930971088574 
0.6446827244435274 
0.7999999999996272 
0.8601436836047492 
0.9078704774237807 
0.7619047619047427 
0.6666666666666666 
0.7343428624022577 
0.8109865426827568 
0.2271114736532613 
-0.01973344791100282 
0.7433042417983542 
0.960360186266412 
0.8386240862777059 
0.6725462825054528 
0.855443892398984 
0.8918333180417827 
0.2486993423592287 
0.6004653401118709 
0.9230769230765167 
0.5361433800799693 
0.6451091632694241 
0.7707993804806021 
0.2153846153849295 
0.3021649029004709 
0.1276595744678413 
0.8904500474565292 
0.8123227845215005 
0.6666666666666666 
0.8273616533191541 
0.8845264702950167 
0.1203359361542054 
0.3279556679874008 
0.6666666666666666 
0.7999999999996816 
0.8888888888886908 
0.3816177468351134 
0.3658708511661724 
0.8597707663849901 
0.1160222615243764 
0.4487505450225223 
0.804446993053733 
0.2381466744637733 
0.2763725280645403 
0.9319739259478397 
0.207354584780204 
0.6982712629953053 
0.6315789473686804 
0.4081145334700327 
0.8000000000002714 
0.7938746611200346 
0.7457647684705973 
0.1846426289501781 
0.7502314934703641 
0.7853997838907576 
0.5131328616333656 
0.5735902693195978 
0.3266227568211845 
0.705733337274459 
0.6666666666666666 
0 
0.9333333333331958 
0.8116780314238721 
0.01000645349873485 
0.9230769230770652 
0.6666666666666666 
0.8190473646237499 
0.3147576567252421 
0.1812219750759305 
0.8571428571424838 
0.7118644067795658 
0.9827853369960998 
0.7590241798356483 
-3.246348436255997 
0.06170530439067738 
0.8000000000003226 
0.8648648648643785 
0.6666666666666666 
0.9978281397435553 
0.9530248063680414 
0.9016150878246518 
0.800000000000333 
0.1502187316864927 
0.687740189445301 
1.162618692656056 
0.8960380012426822 
0.43231326999029 
0.9236349509109137 
0.2889185031311655 
0.871794871795017 
0.6123083851003667 
0 
-0.02371094474891072 
0.9775420709669886 
1.012147885529117 
0.7181026716847428 
0.3864366842965418 
0.7058823529413866 
0.8637824605113277 
0.7856749782537205 
0.7980310043912567 
0.8888888888890331 
0.8027784973927476 
0.9021064368769915 
0.7999999999996729 
0.06921216885119733 
0.8986543167805109 
-1.850221905873559 
0.2997612708942431 
0.8888888888886332 
0.4748633311145752 
-0.7605269910399453 
-0.1032885682669645 
0.2897575298805797 
0.6359436290984696 
-0.6563635465963324 
0.4444444444447951 
0.4218462930019448 
-1.334011285124699 
0.4743375595454395 
0.8022138843954205 
0.6236315700602583 
0.4949435584557686 
-2.138363592638351 
0.9254266619086182 
0.8650188498270852 
0.9430922785885265 
0.2986091104954555 
-1.467792819080714 
0.9110718632632292 
0.7192798034896749 
0.5074223831718432 
0.857142857142811 
0.9221022214372608 
0.8571428571430284 
0.3308254731598918 
0.6708476318924551 
0.8000000000002693 
0.9090909090907623 
0.9230769230767805 
0.4655455061628236 
0.9255009682928353 
0.936772010613189 
0.1004337725504233 
0.9858275751660387 
0.225426417788144 
0.6666666666666666 
0.8922183664159908 
0.799999999999656 
0.9230769230771718 
0.8853161746595044 
0.7757185424934926 
0.6713518751982855 
0.7999999999996967 
-0.3323979564488838 
0.4937239833231685 
0.7206951909640962 
0.8472149959526879 
0.9794794585010772 
0.5381660570559513 
0.5331056804820027 
-1.047737662828919 
-1.554257304191226 
0.07270934002917415 
0.9913455686484077 
0.9090909090910928 
0.8927588146292045 
0.6646773728600386 
0.9090909090911296 
0.5462396804794745 
0.3027490753040375 
0.7999999999996816 
0.8148148148150414 
0.1843534390526006 
0.9610354845925794 
0.7272727272731985 
0.6712501325553918 
0.7051357337996005 
-0.4119299301752248 
0.8363098596753542 
0.5946857444855308 
0.9629629629628756 
-1.66412399242282 
-2.42594995579799 
0.5714285714288427 
0.9090909090910629 
0.1900086083987091 
0.7918020914574533 
-0.2067607353329784 
0.7413209800570896 
0.8097052332714636 
0.8739991485357934 
0.4521739130435528 
0.5195482657797359 
0.8888888888884398 
0.6666666666666666 
0.3676783714603384 
0.5943097894730429 
0.865024801643838 
0.9030732408640385 
0.3389516794962672 
0.7807815594651843 
0.7130191182486226 
-0.3514022519622099 
0.6138497858301114 
0.8571428571424382 
0.9742155304107258 
0.6963652242843039 
0.719910529039417 
0.7281580371819345 
0.9049697438285077 
0.7449905312303718 
0.9148664352002511 
0.8548535374823604 
0.6687993568153086 
0.8571428571433533 
0.6442418813505948 
0.8001623334288082 
0.9142857142855776 
0.8888888888891165 
0.4246443659765728 
0.2411736117879041 
0.683987758024042 
0.5859366149054324 
0.3494310175817625 
0.8000000000003971 
0.9321611371799838 
0.230868417493079 
0.8000000000003396 
0.8000000000002789 
0.7368421052631506 
0.8423616129777113 
0.7111111111110288 
0.8696224113944597 
0.8653683540060635 
0.6370335544677487 
0.8571428571431834 
0.5983709295667825 
0.1141543591757157 
0.8571428571426274 
0.8000000000002906 
0.9844635610183919 
0.4695209370775784 
0.799999999999721 
0.7033928908193954 
0.8745324142470758 
0.7999999999996816 
0.7635509390079147 
0.5343881808833039 
0.8888888888889362 
0.7999999999996816 
0.5454545454550159 
0.6666666666666666 
0.869565217391385 
0.6666666666666666 
0.5945945945945227 
0.8888888888893254 
0.8121182690560547 
-1.495339879404927 
0.2957434673214947 
0.9051824972123922 
0.1326534915826109 
0.4450736570802737 
0.7368421052634274 
0.8401912734447069 
0.5386011188110372 
0.1904870522050866 
0.161931296268223 
0.9546798932196893 
0.799999999999623 
0.8888888888887814 
0.3980344999375977 
0.5648562460454009 
0.6754011976835621 
0.4291161676770792 
0.2790156023822457 
-0.3719259382021999 
0.8000000000003618 
0.1557040941746138 
0.7999999999996816 
0.9411764705879261 
0.6665838782214041 
0.800000000000272 
0.4051447619629842 
0.7347763398350596 
0.4031116198716191 
0.005371867580641549 
0.7510584369856441 
0.6909858294538811 
0.283034231433522 
0.8650391679476861 
0 
0.3694494556192514 
0.8600821071386081 
0.823529411764488 
0 
0.6711180147280774 
0.8047794521434544 
0.5998985023005819 
0.2758219972474619 
0.5454545454545879 
0.6916099639995181 
0.5238725503968229 
0.6666666666666666 
0.9293334326581002 
0.8896112773579741 
0.859381213924695 
0.8888888888891215 
0.8571428571425771 
0.1818181818181818 
0.2542562380395363 
0.3098591549294535 
0.8430880616725895 
1.142531573285821 
0.4564737014945702 
0.7018179806960223 
0.109016083837273 
0.5754702160930188 
0.8893977412229829 
0.7262136320898054 
0.3988436863329851 
0.5335147053593147 
0.9523809523808373 
0.7279684910899651 
0.9490197800040294 
0.876188515502944 
0.2262682733821142 
0.3939133267025433 
0.888888888888739 
0.9157650882550541 
-0.1071645367868174 
0.03482923820415011 
0.6666666666666666 
0.07320903840653312 
0.8888888888891987 
0.6756490218697646 
0.355516224313845 
0.703449953442558 
0.4397648835294976 
0.6666666666666666 
0.7833872192927551 
0.675469092828026 
0.9462916715491927 
-2.117969296461591 
0.5913082427170061 
0.8000000000002799 
0.8478468856589674 
0.4651269398670585 
1.066599171673101 
0.9082581796773879 
0.02597402597398569 
0.5755997544543339 
0.6543950373672077 
-0.1106097666842588 
1.223238387804987 
0.6646593460995995 
0.2687013768474639 
0.7309455983977979 
0.9473684210523678 
0.4794582087661366 
0.1143347773060001 
0.646172681518667 
0.4753853063714634 
0.9340145813799404 
0.7999999999996061 
0.5214581208617882 
0.4210526315791545 
0.6860760503095412 
0.8571428571426396 
0.8173913043478139 
0.4948369188564957 
0.6116096959160844 
0.5900813694808342 
0.4779097224261629 
0.8842765167316633 
0.9245598048872639 
0.3195130340753084 
0.4827586206897997 
0.6666666666666667 
0.8571428571425027 
0.478148187437501 
0.7999999999996514 
0.6666666666666666 
-0.1359413716555739 
0.1409731748494489 
0.9090909090905884 
0.6677837037250586 
0.826430600934668 
0.8929608814426393 
0.7782687522227363 
0.7296898080124131 
0.7085572694222383 
0.5924541270683953 
0.8587567034368563 
0.8571428571431531 
0.5544793694115798 
0.09765567852591298 
0.4226809941001776 
0.830740280524332 
0.6913862371430002 
0.9230769230765687 
0.8669711113158567 
0.8947193582054955 
0.5635189657761747 
0.8888888888886648 
0.1975308642741057 
0.9230769230771976 
0.9415157178588008 
0.6666666666666666 
0.7574434770872734 
0.3045238703396977 
0.5098085430991173 
0.6906038208485061 
0.8571428571426684 
0.9785370888446344 
0.8965517241382549 
0.4576411489906485 
0.8888888888887335 
0.6666666666666666 
0.3013263776550825 
0.9258714729562298 
0.3530884257623355 
0.408421834385001 
0.07940738655265328 
0.6666666666666666 
0.7999999999996006 
0.2230757356731931 
0.823638506162805 
0.7142564499722078 
0.8526079286373045 
0.8822609784284162 
0.766754799162671 
0.5967301134603518 
0.9090909090913341 
1.253513590817281 
0.03162055351530525 
0.3714111764962613 
0 
0.771193904223568 
0.9039819512867519 
0.705882352941648 
0.3868016311938591 
0.6666666666666666 
0.3609191358257547 
0.6666666666666667 
0.8571428571432195 
0.1407879307112484 
0.3902341394729419 
0.7058823529409456 
0.8314317085655015 
0.2819176612701236 
0.878200034042819 
0.04772767090290203 
0.8888888888889377 
0.9047590988326867 
0.03806972438177611 
0.8733471415770538 
0.9697092856716073 
0.7308288673010942 
0.8695652173915512 
0.8269455282964598 
0.6157624151778137 
0.9503607315474807 
0.8695652173915889 
-0.07288109238398333 
0.1423851920041597 
0.9090909090909072 
0.6666666666666666 
0.7007908606169961 
0.2608695652172467 
0.8000000000003326 
0.929828842310395 
0.6631034136661653 
0.724079174552722 
0.8578783538903889 
0.7635338732476851 
0.3272727272727698 
0.9230769230768942 
0.1595736532434595 
0.9067295678854851 
0.1093340332597733 
0.8262970196396914 
0.7062997133391985 
0.3961708936554486 
1.099960392162087 
0.03921568627463966 
-1.7658920940411 
0.7955568689678143 
0.4 
0.5828273221886415 
0 
0.9230769230772119 
0.9448273104062164 
0.01488039281115068 
-0.2129126540877709 
0.394797812134028 
-0.3592036059415571 
0.2985176936763425 
-0.1831252405074985 
0.759102978130173 
0.8723738309907457 
0.5207706320419794 
0.4019894203740895 
-0.8290097037587834 
0.7236893756906176 
0.2130878779516828 
0.9090909090910111 
0.8888888888891597 
0.3923492998989138 
0.7999999999996565 
0.2833117654362195 
0.3479717225798362 
0.9317292272322468 
0.7216448596977958 
0.7905639318665799 
-1.801945813834365 
0.2672295327038381 
0.8000000000003709 
0.4225993716961324 
0.3039506870537682 
0.935609434473297 
0.3886920922285078 
0.0369317685512248 
0.6981284498606798 
0.009255717144774148 
0.4104636203173496 
0.7288300934076241 
0.7234773825934503 
0.6666666666666666 
0.5560033650360335 
0.1052631578952358 
0.7999999999996514 
0.8571428571431492 
0.8571428571430576 
0.9107479228063643 
0.181818181818023 
0.1907891706614156 
0.8571428571424607 
0.5884995555355466 
0.9090909090905248 
0.1891709359001958 
0.7999999999996348 
0.9066525062448596 
0.9878640348495942 
0.1830494872012884 
0.3684419017649287 
0 
0.7026606139526975 
1.150552201105833 
0.06619272331277219 
0.6666666666666666 
0.9122807017545203 
0.8571428571432047 
0.2012262526880893 
0.1600703024466708 
0.7435754675000936 
0.7339508289550634 
0.6835242327337285 
0.6666666666666666 
0.03087836419306861 
1.02620775946785 
0.8888888888886741 
0.9031442762013568 
0.8034335962595982 
0.2063672458941364 
1.193747380560877 
0.9623873887704701 
0.7999999999996712 
0.2987668800072758 
0.7999999999996135 
0.9647910420729513 
0.6111348481785479 
-0.06186988175971653 
-0.3447745481811467 
0.6482797921611717 
0.8153681963762432 
0 
0.259405279660083 
0.8888888888891024 
0.7631303644611281 
0.2677762437778787 
0.6969780298505666 
0.8194042004321541 
0.7033335238098791 
0.7681851967024655 
0.4615384615386742 
0.7185291866833728 
0.908642605402064 
0.8153850933861769 
0.1036496456331863 
0.386320963372115 
0.6666666666666667 
0.8029341247054667 
0.07494686375013375 
0.9411764705878495 
0.8206020971849644 
0.4086170433779652 
0.4444444444448922 
0.1875744981126713 
0.6666666666666666 
0.8781445516096122 
0.8571428571429311 
0.7851044189422758 
0.7726533779894473 
0.8153454144734155 
0.1558441558442691 
0.9559744392025163 
0.4335263791409886 
0.8571428571432449 
0.7031424105108025 
0.3428251301513965 
0.8217664362768893 
0.8888888888884735 
0.8367126049067997 
0.4528621115150705 
0.3988866884427239 
0.6938080379788933 
0.9230769230765108 
0.6666666666666666 
0.1441296825399981 
0.9245798003502084 
0.4030142180150981 
0.727272727272571 
0.9266713633520267 
0.8486497703980989 
0.8495652550423302 
-0.207640256224793 
0.9074894523472568 
0.8888888888891062 
0.7200558841447634 
0.6666666666664864 
-6.938893903907228e-18 
0.9285612458791472 
0.8821042549776384 
0.6418945104006013 
0.7961408349342648 
0.7856218700257919 
0.8457159763820399 
0.9503800813109543 
0.5735315444215104 
0.6666666666666666 
0.5695534921229306 
0.6956521739132348 
0.4772271865827218 
0.8888888888886092 
1.048877408466683 
0.8965517241381766 
0.9296708820095847 
0.0255955939494136 
0.9264198970303194 
0 
5.854691731421724e-18 
0.8888888888884694 
0.6621414273178401 
0.871123626151787 
0.2485959009861755 
0.02531645569618624 
0.9504621637027145 
0.5704144398419586 
1.032654009004126 
0.4645958173968479 
0.006187863300042369 
0.9411764705881439 
0.7999999999996205 
0.800000000000367 
0.6495776878119586 
0.9227764207030372 
1.385419571697595 
0.7999999999996891 
0.747984495500333 
0.7321517088560575 
0.7368872683182008 
0.796828392244644 
0.9557587241558686 
0.5200191127657212 
0.6666666666666666 
0.691466083150743 
0.7337840511267476 
0.9716896578051291 
0.299516844806244 
0.329513549402796 
0.148648876794204 
0.8936170212769622 
0.9333333333336996 
0.3454018222189144 
0.9894467842988256 
0.6666666666666667 
0.9333333333328774 
0.9090909090911081 
0.6666666666666666 
1.734723475976807e-18 
-0.06806590545483024 
0.3390665346428992 
0.941176470588463 
0.7640065043147923 
0.9473684210524291 
0.1818181818179937 
0.6507407821728771 
0.9944748478517819 
0.6666666666666667 
-2.022447267566255 
0.1818181818181818 
-2.115653708184603 
0.7340867765872851 
0.9090909090911548 
0.8888888888886173 
0.5072190792296817 
0.799999999999666 
0.7310387946385749 
0.2482539861651024 
0.6666666666666666 
0.9358913564463086 
-0.6130626229920259 
0.2037725970684532 
0.6666666666666666 
0.7267432959760152 
0.6727956177489917 
0.8157091779211363 
0.8659793814433718 
0.719971081838289 
0.6666666666666666 
-0.4915693472721431 
-0.7999999999996816 
0.157611747896125 
-0.2446743190428784 
0.2781195551082096 
0.7999999999996816 
0.6765469871464418 
0.8163265306121045 
0.8148148148149811 
0.004777751092714702 
0.1323263354440983 
0.7272727272730725 
0.6666666666665373 
0.8752793579165434 
0.7272727272726035 
0.7573979646275212 
0.7017397227669071 
0.9338777765743608 
0.4407606086688289 
0.9452819635589157 
0.9984256757733917 
0.005873279401920926 
-0.9638028490565017 
0.177034566672325 
0.6666666666666666 
0.7967263039792124 
0.479999999999798 
0.7419244167029343 
0.3968381985145916 
0.8888888888887924 
0.971428571428642 
0.6153846153846289 
0.6666666666666666 
0.5454545454541532 
0.4048857663445257 
0.8888888888893095 
0.8503439220630667 
0.7999999999996368 
0.8920032361427376 
0.9144319953213143 
0.8000000000002766 
0.2945794927605082 
0.9473684210527977 
0.979890372345016 
0.9214730629680941 
0.945218454898876 
0.4853825287783011 
0.8888888888887088 
0.799999999999671 
0.6797460077586744 
0.7915174788097646 
0.05589645421949728 
0.6916965385858596 
0.857142857143012 
0.6666666666666667 
0.8888888888888489 
-2.568630605842946 
0.2553703364356011 
0.912657667378822 
0.5121373403303524 
-0.2883653792916874 
0.7106746419658163 
0.4529051567979252 
1.234341931003206 
0.3495222597632577 
-0.2971503378422157 
0.6259967014030818 
0.6934042789189536 
0.687650414765991 
0.9002232814877836 
0.7272727272728793 
0.9995997690459509 
0.6666666666666666 
0.9461550071926202 
0.800000000000359 
0.7999999999997273 
0.9090909090912185 
0.5794996819433458 
0.9230769230764849 
0.6666666666666666 
0.8000000000003138 
0.7730631754455692 
1.061604871763507 
0.5092605465622496 
0.3414808511628991 
1.14501819330466 
0.4505610947815016 
0.4 
0.1617956295340916 
0.698578968328078 
0.7861187541006837 
0.7614266116086762 
0.6666666666666667 
1.059906669887436 
0.0119655268476839 
0.8639288864731328 
0.07746076982519289 
0.7074298743052996 
-1.387778780781446e-17 
0.2216507718548601 
0.8980300938542913 
0.8000000000003129 
0.02141977774618672 
0.6666666666666666 
0.888888888889204 
0.4769988319749981 
0.6666666666666666 
0.8413693361080654 
1.151817326164361 
0.9090909090912368 
0.357406977271827 
0.2200675840164548 
0.9523809523809513 
0.4528301886794645 
0.9878139090709954 
0.8888888888892594 
0.9053026371071546 
0.6367259335181706 
0.9370021547977277 
0.6252244054317664 
-1.763898838365538 
0.5338404713195739 
0.74442079998393 
0.472214257868223 
0.4744014045492301 
0.6934853350592635 
0.2293335142231581 
0.8000000000003913 
0.6497978298902476 
0.6666666666666666 
0.6660698041278101 
0.9333333333333799 
3.536714107341132e-13 
0.8839577553899005 
0.92132222038511 
0.1801572992047047 
0.1825778174059364 
0.2665222498983558 
0.8781798721636009 
0.3310603225998358 
0.1816981403426914 
0.2857142857142857 
0.6743044189853271 
0.7999999999996628 
0.9090909090905712 
0.8343336993275234 
0.9108910891089893 
0.7999999999996995 
0 
0.8804159445405327 
0.04015700543922837 
0.6666666666666666 
0.1429814751195085 
0.8040068068455837 
0.7058823529409608 
0.9523809523805603 
0.3140946875609363 
0.4856209882019089 
-0.03926235065204409 
0.4254498388178331 
0.8888888888888062 
0.9142857142854189 
0.1948040238472046 
0.7974121281684614 
0.2938421993946574 
0.6674222836684233 
0.948042547762688 
-0.1281991977814272 
0.8100328426704742 
0.3326545948745476 
0.9090909090910658 
0.1275223402797488 
0.1139864736990262 
-0.08986517210381806 
0.03247377749970035 
1.381108078394785 
0.8000000000003991 
0.08695652173910794 
-0.1725410460751348 
0.8965517241382407 
0.7058823529410198 
0.2955904925529213 
0.9090909090910687 
0.8888888888884363 
0.7271879528934153 
0.7058823529413771 
0.8169014084510883 
0.8014562632464091 
0.7999999999996315 
0.6540166866132172 
0.8824430347157988 
0.8339531525751441 
0.9178396919856047 
0.7999999999996816 
1.192622389734055e-18 
0.6666666666666667 
0.4586458005038295 
0.6666666666666666 
0.6666666666666667 
0.7081596256737115 
0.1818181818184263 
0.56432645918193 
0.0102818560938103 
0.7999999999996863 
0.7734756745535795 
0.03602970825604595 
0.9090909090907768 
0.8521527062348889 
0.9473684210527149 
0.9002924489768946 
0.5983567516307938 
0.08817420522541736 
0.6709305719907481 
-1.294213030327829 
0.7762279060799624 
0.5701515259387863 
0.9090909090912024 
0.0378261800199604 
0.5731158293299881 
0.6006987345765444 
1.075279648388025 
0.6666666666666666 
0.8888888888886362 
0.9655172413796469 
0.8539473715143242 
0.6666666666666666 
0.2857142857142857 
0.9052670627040198 
0.687712499859756 
0.7349779076924041 
0.8921487054528419 
0.9793743500071306 
0.8671147636528895 
0.0646158141423013 
0.9420529180505774 
0.9333333333334863 
0.8571428571424229 
0.7272727272724395 
0.5818430926470375 
0.9333333333336776 
0.6666666666666666 
0.04572326915793221 
0.6666666666666666 
1.073454216528455 
0.8994108603760065 
0.8674287181521861 
0.924731182795977 
0.727272727272967 
1.105340252290401 
0.2279039636989484 
0.4140626951087317 
0.6666666666666666 
0.5084857999502094 
0.008605456487961535 
0.3136390328393621 
0.8695338462246621 
0.4477611940296733 
0.3753868487131078 
0.3531540908984534 
0.883677215580862 
0.1073926433283354 
0.9142857142855982 
0.8935654675675822 
0.9090909090908375 
0.9013888065226696 
0.961054298839176 
0.9350649350646956 
0.8132032935599092 
0.4 
0.6740466239605991 
0.9411764705885882 
0.8245381893461884 
0.8888888888884496 
0.8429883457500087 
0.7999999999996695 
0.7987378936216655 
0 
0.2688107542752688 
0.6919212981099917 
0.8888888888891718 
0.9202064574469941 
0.3766762628641661 
0.9090909090907158 
0.1539344226750338 
0.07746398343182054 
0.7999833824090886 
0.3604373431176159 
0.1978541829471594 
0.603338945633794 
0.8888888888885603 
0.9917756366819238 
0.6666666666666666 
0.818448073556604 
0.606655898993583 
0.06278590563843019 
-1.421260164652227 
0.6666666666666666 
0 
0.5443586433006304 
0.02356416626400826 
0.7773868191190284 
0.7999999999997093 
0.8323751113661856 
0.06947034675233844 
0.8571428571432157 
0.6680416559428372 
0.228571428571243 
0.6777617431383568 
0.799999999999675 
0.8418039345815559 
0.8571428571425819 
0.8888888888892428 
0.5554731518356881 
0.9437504199440114 
0.95907086405207 
0.3795110684799586 
0.8000000000003759 
0.7011956377794948 
0.8665489193798368 
0.8888888888887355 
0.7040071625226115 
0.8272815711323014 
0.8635495361592461 
0.3968491149169263 
0.9872177687352079 
0.6666666666666666 
0.8686530472512329 
0.6808472274859293 
0.9435305382072684 
0.904689327027838 
0.3575910747822268 
0.869211238938969 
0.2846521977049632 
-1.084202172485504e-19 
0 
0.7866189595940408 
0.7888164148682106 
0.9652366860432897 
0.8571428571425725 
0.5249244368204368 
0.8098113951844415 
0.8888888888892813 
0.696350813243391 
0.9000399462748365 
-1.434275970162593 
0.7784288013993517 
0.8150659867194753 
0.857142857142463 
0.7999999999996192 
0.800000000000294 
0.3177857121217266 
0.760882135715639 
0.7621892244694324 
0.5707145214478572 
0.9536987039126598 
0.06038568537817924 
0.7999999999996084 
0.5171187570829533 
0.7284387086093341 
0.8000000000003833 
0.8823364770506593 
0.7036361904301597 
0.4 
0.7443338920111441 
0.8625076101931395 
0.1368538742192585 
0.9952469622010826 
0.6666666666666666 
0.9250443189698198 
0.8323835332891887 
0.833773186845306 
0.6666666666666667 
0.7486322466085606 
0.5284823531081416 
0.8571428571423719 
0 
0.7875094077610832 
0.6360878790305808 
0.6666666666666666 
0.2613476818708085 
0.7037146536455976 
0.7999999999996555 
0.8542030457666604 
0.8571428571423303 
0.6907679607575581 
1.038234129283963 
0.7466376590126548 
0.799999999999719 
0.7451090304873853 
0.4562427260131072 
0.1176470588235393 
0.9167266310049319 
0.6666666666666667 
0.2168540833391439 
-1.490777987167569e-19 
0.970659104433363 
0.5875637621014351 
0.7455379132746295 
0.5458892774326364 
0.8965517241379621 
0.3838536404247251 
0.8503961778737847 
0.8357965637909796 
0.8571428571424917 
0.771993440114684 
0.5740757594660985 
0.9191319769502287 
0.4322978330701526 
0.7109403101975762 
-0.1650085678500382 
0.9411764705879876 
0.6166012648008755 
0.9824477583158918 
0.8984506615614797 
0.8024506554865726 
0.9340950966444167 
0.3239700873012934 
0.9857274955243317 
0.9698513675040383 
0.6666666666666666 
0.8055725778966185 
0.839516337933278 
0.3139563534221175 
0.8000000000003918 
0.6666666666666666 
0.862027702359123 
0.6400035273987428 
0.4042475382058783 
0.9906061191134141 
0.9887480819767207 
0.9120652530511686 
0.4794083132739012 
0.4386482668516545 
0.6389772789090317 
0.4324334914383633 
0.8705882352939674 
0.8816607628541074 
0.8992983545621752 
0.1737285381511124 
0.9140214048797571 
0.57167662433083 
-0.1767108634706004 
0.7368421052628384 
0.2761580690605397 
0.8743820525572606 
0.6179996249313775 
0.6299014404283682 
0.5316294459985959 
0.8303002065685865 
0.1913233692279219 
0.4761904761907235 
0.9852949400700792 
0.9433962264153275 
0.8071736186317652 
0.3195352175262284 
0.7786484570941002 
0.9697441003611553 
0.8369493752236863 
0.8405808844954532 
0.5163257278351042 
0.8215976128319075 
0.5562660827840922 
0.9333333333330516 
0.6666666666666666 
0.6666666666666666 
0.6841937413715523 
0.1095890434878358 
0.9090909090907291 
0.7179320885872459 
0.7999999999997189 
0.6065543660907876 
0.004301334519648987 
0.5893158605244639 
0.8494924243568545 
0.5978468944646562 
0.4571479468777487 
0.5456744570592681 
0.1363910652169898 
0.7678507418583767 
0.8448478043485519 
0.5882959579691811 
0.7359760892364088 
0.6547396870601101 
0.6468561211295704 
-0.2309702371153375 
0.5132717540517907 
0.7740689286391016 
-1.669585065220872 
-0.008322812110653569 
0.7999999999997146 
0.8638832901309814 
-1.680903884229997 
0.8710672125316655 
0.861872720733155 
0.2976318881407654 
0.7784961853273518 
0.6666666666666666 
0 
0.8700075085351077 
0.4327852564690297 
0.800000000000376 
0.927427769225032 
0.7999999999996622 
0.9951825281747985 
0.3776186263818478 
0.2857142857142857 
0.7956333655028135 
0.6666666666666666 
0.1488467729608607 
0.1760335412348959 
0.7999999999996814 
0.8888888888884812 
0.3078605769305983 
0.9012102381275933 
0.9314088784501838 
0.5013753247477457 
0.4524095449055126 
1.050212321894974 
-1.387778780781446e-17 
0.9808252362490193 
0.6922066830490005 
0.5011908808270265 
0.5449884260701329 
0.857142857143198 
0.7157221712407483 
0.02342954698005821 
1.038876052554872 
0.03005833016862839 
0.7974425393647386 
0.4164880581072422 
0.9307573439912713 
0 
0.2123088363817598 
0.6671775646893973 
0.8865189381580437 
0.2501570013176747 
0.9143793878875403 
0.8683949326514319 
-0.128371052435911 
0.6666666666666666 
0.1923746229769926 
-2.099444633392512 
0.6802072229879818 
-0.1871465015367874 
0.2857142857142857 
0.456027013636479 
0.7789119008792895 
0.9198411892650328 
0.5322549346348024 
0.2371514056753584 
-0.1606495773916743 
0.4279575875654905 
0.2672000151508948 
0.9683569818238511 
0.857142857143231 
0.4756709705819234 
0.4477219826866774 
0.857142857142864 
0.6666666666666666 
0.1921734167080743 
0.06968698438257949 
0.0869565217388945 
0.6666666666666666 
0.5255421002324647 
-0.1493524233913373 
0.3003071479184791 
0.8383392053538268 
0.7111099606669726 
0.9399102715638924 
0.008378520787064435 
0.8597994667728247 
1.138475626619855 
0.7999999999996213 
0.6273853637279789 
0.2803622768210706 
0.7344360269902038 
0.3450039393037766 
0.937338846829403 
0 
0.7852506945351949 
0.1122874928775106 
0.6666666666666666 
0.3330327541568552 
0.9252062268334158 
0.2838423535178414 
1.109634257293489 
0.427540925722142 
0.2261532791347697 
0.6401765334384448 
0.6136352948496806 
0.9943049140910973 
0.6666666666666666 
0.8571428571430594 
0.3695875383972831 
0.9090909090905556 
0.9106273809632019 
0.8888888888886858 
0.8354195648506126 
0.8571428571432704 
0.8506500132297311 
0.468254778717754 
0.5581863950203504 
0.8059689969657828 
0.447529563501149 
0.9107706553931676 
0.4956681245141526 
0.1095359682765835 
0.4848665022835597 
0.9090909090910697 
0.9107237397976222 
0.8571428571426913 
0.5385899050329496 
1.446643726293761 
0.8727703103841814 
0.7029687471988622 
-0.5011830226139902 
0.8994013763676788 
0.180581063326593 
0.6805059828761183 
0.7999999999996198 
0.917721748543204 
0.5992080280651136 
0.3944728869649133 
0.8888888888892259 
0.5808950511898766 
0.1067742217072281 
0.9068583256799926 
0.5540582529163934 
1.061735849006672 
0.603149594677211 
0.2749340416727461 
0.6934625160109518 
0.9615333391569673 
0.6424264531132308 
0.7999999999996816 
0.11176116054467 
0.7837951074784604 
0.8202840671381056 
0.7999999999996054 
0.9758376374724508 
0.9087175439191936 
0.8888888888885015 
0.4519422209500826 
0.8571428571425203 
0.3472167293302891 
0.6666666666666666 
0.3513200503848066 
0.7587440332568067 
0.5474485503812188 
0.9395787975475425 
0.8193359317113482 
0.9729469836187887 
0.8000000000003804 
0.2886100048370927 
0.8351416585169977 
0.7463247567667969 
0.3374287942909311 
0.4 
0.6666666666666667 
0.721334665455072 
0.9101616997845676 
0.9388943152509085 
0.7499138657881309 
0.8676565958918001 
0.4977130918487579 
0.6949216366132219 
0.8000000000003568 
0.8571428571427135 
0.8888888888890945 
0.8244474039845586 
0.7999999999996369 
0.563653237124372 
0.1883412615561569 
0.5864335350958881 
0.8235294117648374 
0.3470339962519888 
0.8888888888889833 
0.8837740366131638 
0.8975845479237849 
0.8721048715469301 
0.9321112933684672 
0.8027779291336873 
0.7999999999996403 
0.5333175957715814 
1.002367317099167 
0.9097731528146548 
0.949239693077305 
0.7892903198064569 
0.8571428571426003 
0.9090909090910769 
0.8128026066829068 
0.7370796659898755 
0.4816100695533254 
0.8956372778973052 
0.07391700417013874 
-1.291834912060392 
-1.432641488843959 
0.8528544195423554 
-0.9523108718949703 
-1.187922848012619 
-2.355986199055746 
-1.022148349198436 
-1.185789647971746 
-1.778609142466844 
-1.731519574080268 
-1.836685579822625 
-1.695993173379461 
-1.67336282148845 
-1.678713078802437 
-0.008905762357921697 
0.8356367327604006 
0.7085129444247664 
0.799999999999623 
0.5225422763967336 
0.7664392847522765 
0.6720443726922173 
0.9489531752152158 
0.9852490718136911 
0.8571428571426458 
0.8483670308463885 
0.8571428571425277 
0.3566082445722755 
0.6666666666666666 
0.8235294117644109 
0.5670115511925228 
0.9411764705885266 
0.8368837267222006 
0.943305508034975 
0.9376098302201049 
0.8215090777405413 
0.842076713532228 
-0.2831884129358401 
0.8571428571425064 
0.735628718255655 
0 
0.231722631855757 
0.5033112582781329 
0.9171633864364953 
0.7142314472487853 
0.8491912383429993 
0.8000000000003235 
0.872136798624803 
0.7307769526361221 
0.8878230653667029 
0.9230769230771992 
0.7246845270363961 
0.6666666666666666 
0.6666666666666666 
0.9457282653654769 
0.8571428571430157 
0.8041631060279127 
0.989236693927886 
0.9090909090912747 
0.325581395348647 
0.6790782892891318 
0.01854778816427481 
0.5997823716591878 
0.6666666666666666 
0.7353123410952828 
0.5128371299393839 
0.8888888888889741 
0.9129414797922432 
0.4217990521248162 
0.7999999999996816 
0.909090909090941 
0.123931042844495 
0.8366265669149815 
0.5044103792803993 
-2.463590630855516 
0.7999999999997166 
0.8492484571532908 
0.8516106830496346 
-0.9909909909907936 
0.9376786589416161 
0.8034896941615769 
-1.924271788922168 
0.4758677478255979 
-1.839439758866789 
0 
0.8000000000003105 
0.5169955606188014 
0.2642096063569156 
0.5034753611286008 
0.4711378900207778 
0.7945352947415428 
0.6736019755330981 
0.8223832671364598 
0.960000000000214 
0.8012176171782249 
0.6397884534717465 
0.9944751381218176 
0.8571428571431233 
0.01920984721506717 
0.9333333333336078 
0.3437462646590611 
0.8571428571433292 
0.6666666666666667 
0.3708265022352186 
0.7245214643843775 
0.5571260278310193 
0.7124932607359493 
0.6296817038274731 
0.8571428571425765 
-1.507010263263852 
0.6024786133661707 
0.2426778242678622 
0.6146089528817157 
0.6018090585474654 
-1.637074420984002 
0.6718214045805533 
0.7194548490179378 
0.7272727272725594 
0.5315534378692774 
0.6668694141320817 
0.6666666666666667 
0.7389356700297681 
0.7320685898071654 
0.6666666666666666 
0.6792821677191767 
0.361642256104694 
0.8014453732256857 
0.8571428571431072 
0.185436117210241 
0.7508790895763984 
0.147490439799018 
0.3749148470248955 
0.9090909090909715 
0.9186411634053611 
-0.09135340212123033 
0.5329988763732814 
0.9572894327918452 
0.8538169945131276 
0.4634149130028914 
0.6666666666666666 
0.8989889969519224 
0.909090909091164 
0.7060421362531588 
0.3480953240168054 
0.85714285714258 
0.3191249520227247 
0.4028954864910369 
0.4444444444446483 
0.7250996015935982 
0.2261558584902944 
0.70376432078569 
0.4736394052890975 
0.3605473421895458 
0.2874338493599926 
0.8888888888889092 
0.8595550887655888 
-1.472788286894122 
0.9230769230773846 
0.6808491665442451 
0.8110184096888574 
0.7058823529413446 
0.1349693250750069 
0.6113845921534431 
0.9066117093544872 
0.8888888888885909 
0.736842105262847 
0.6009921899695669 
0.7058823529410049 
0.5559002968486769 
0.8124500467637529 
0.09944762478861335 
0.6854968019388012 
0.9288195198178729 
0.7354500356300838 
0.8148148148151829 
0.8830697817728649 
0.03773919252215179 
0.3686393043624345 
0.9316580320178286 
0.9497716894977265 
0.3401607708448929 
0.7999999999996869 
-3.961492592297056e-13 
0.6666666666666666 
0.7641662126394764 
0.6666666666666666 
0.9333333333333883 
0.9090909090905566 
0.8571428571432653 
0.9922034954092203 
0.7999999999996816 
0.8653767457589536 
0.9787234042555426 
0.919868038815795 
0.9830508474576823 
0.9661228246020364 
0.7181250622322043 
0 
0.9565217391303151 
0.7981127206943668 
0.8403813167370667 
0.9230769230767606 
0.6889583539594043 
1.387778780781446e-17 
0.9390411498835973 
0.9030195202484058 
0.72727442254497 
0.9543255212675822 
0.893617021276762 
0.7698147064093634 
0.8571428571434095 
0 
0.8620226710189975 
0.01929343250116773 
0.8571428571425517 
0.600605050137731 
0.9230769230767015 
0.8763749420206466 
0.9090909090908093 
0.004223518340147487 
0.7992617946429267 
0.8888888888885114 
0.6666666666666666 
0.8571428571426654 
-0.7802304364824657 
0.5173818905306592 
0.04224344169132385 
0.6966268977602584 
0.6666666666666666 
0.8824584211192146 
